141 100
</s> 0.004003 0.004419 -0.003830 -0.003278 0.001367 0.003021 0.000941 0.000211 -0.003604 0.002218 -0.004356 0.001250 -0.000751 -0.000957 -0.003316 -0.001882 0.002579 0.003025 0.002969 0.001597 0.001545 -0.003803 -0.004096 0.004970 0.003801 0.003090 -0.000604 0.004016 -0.000495 0.000735 -0.000149 -0.002983 0.001312 -0.001337 -0.003825 0.004754 0.004379 -0.001095 -0.000226 0.000509 -0.003638 -0.004007 0.004555 0.000063 -0.002582 -0.003042 -0.003076 0.001697 0.000201 0.001331 -0.004214 -0.003808 -0.000130 0.001144 0.002550 -0.003170 0.004080 0.000927 0.001120 -0.000608 0.002986 -0.002288 -0.002097 0.002158 -0.000753 0.001031 0.001805 -0.004089 -0.001983 0.002914 0.004232 0.003932 -0.003047 -0.002108 -0.000909 0.002001 -0.003788 0.002998 0.002788 -0.001599 -0.001552 -0.002238 0.004229 0.003912 -0.001180 0.004215 0.004820 0.001815 0.004983 -0.003111 -0.001532 -0.002107 -0.002907 0.002815 0.001579 0.000425 -0.002194 0.001524 0.003059 0.000194 
je -0.031409 -0.080619 0.060675 0.000378 0.028789 -0.044932 -0.035248 -0.032475 -0.046132 0.090763 0.039790 0.136346 -0.057572 -0.065114 0.017078 0.190881 0.088541 0.047352 0.107960 0.038591 -0.067650 0.091026 0.066174 -0.053846 -0.021371 -0.047576 0.008756 0.036024 0.156627 0.033196 -0.095196 0.013441 -0.068300 0.034020 0.034151 -0.045225 0.001632 -0.010615 0.041355 -0.005096 -0.061131 0.074678 -0.064249 -0.100057 0.069402 0.047293 -0.014965 0.032782 -0.156236 -0.015005 0.008811 -0.065093 0.017348 -0.014619 0.007417 -0.083929 0.083570 -0.044599 -0.032651 -0.146371 0.007602 -0.090700 0.073925 -0.031867 -0.036639 0.136691 0.152172 0.011182 0.080686 0.060772 -0.043099 -0.059847 0.017156 -0.132481 -0.077353 -0.041743 -0.092249 -0.018020 -0.076575 -0.086304 0.058031 0.038175 -0.053317 -0.109382 0.044311 0.082411 0.005670 -0.055022 0.105569 -0.023591 -0.005902 0.054748 0.012076 0.032767 0.057633 0.074387 0.019950 0.110147 -0.016591 0.007745 
que -0.026639 -0.053248 0.040906 0.001111 0.017730 -0.029414 -0.020003 -0.023520 -0.030265 0.066426 0.027670 0.087137 -0.035508 -0.046612 0.012557 0.125549 0.064277 0.036076 0.073503 0.028444 -0.042629 0.063756 0.045363 -0.030267 -0.016887 -0.023916 0.009642 0.021240 0.100677 0.026243 -0.061516 0.008544 -0.043967 0.024722 0.018311 -0.031322 0.000598 -0.009677 0.027042 -0.001380 -0.038505 0.051229 -0.042172 -0.066714 0.050719 0.029139 -0.007761 0.025736 -0.102586 -0.014624 0.007666 -0.046417 0.009222 -0.011278 0.009380 -0.058922 0.056811 -0.031504 -0.014499 -0.095881 0.009890 -0.059876 0.046135 -0.019875 -0.022002 0.087565 0.103453 0.004633 0.053593 0.038662 -0.030007 -0.032770 0.014294 -0.089933 -0.050417 -0.029917 -0.063242 -0.005929 -0.056166 -0.056907 0.041957 0.027275 -0.031309 -0.064386 0.033374 0.056175 0.002956 -0.041842 0.070003 -0.018267 -0.002857 0.035316 0.010621 0.019125 0.040323 0.043094 0.012358 0.070840 -0.011683 0.008923 
pas -0.024312 -0.041564 0.034102 0.002954 0.021815 -0.024537 -0.019189 -0.021665 -0.025543 0.057566 0.018978 0.084523 -0.033270 -0.042975 0.008297 0.113412 0.055615 0.026210 0.065987 0.018208 -0.042362 0.055004 0.037262 -0.033450 -0.013848 -0.028058 0.006885 0.023888 0.096928 0.014847 -0.057282 0.009240 -0.038889 0.026393 0.021906 -0.021922 -0.001822 -0.002453 0.031203 -0.002172 -0.030230 0.044971 -0.042553 -0.054473 0.046693 0.021721 -0.007658 0.018227 -0.087404 -0.015452 0.010758 -0.039440 0.009598 -0.012370 -0.000279 -0.054271 0.049065 -0.019487 -0.019021 -0.087680 0.006683 -0.050242 0.044710 -0.017395 -0.019160 0.080564 0.086443 0.003920 0.046345 0.035367 -0.019737 -0.029042 0.009491 -0.079300 -0.048636 -0.025365 -0.050549 -0.011582 -0.048682 -0.053151 0.036251 0.025399 -0.030380 -0.065636 0.028365 0.047443 -0.001546 -0.034053 0.058417 -0.012022 -0.003204 0.029773 0.005742 0.021787 0.036860 0.045333 0.010474 0.063954 -0.007936 0.002370 
de -0.028758 -0.054649 0.038168 0.002955 0.024770 -0.028109 -0.027590 -0.017734 -0.031562 0.069553 0.026007 0.102138 -0.036380 -0.046792 0.010817 0.136702 0.061429 0.040001 0.079015 0.032095 -0.045612 0.066921 0.050594 -0.039346 -0.011920 -0.035549 0.005614 0.023735 0.117104 0.018842 -0.068449 0.009873 -0.046019 0.032427 0.022218 -0.037001 -0.000394 -0.000650 0.033511 0.002585 -0.044042 0.051710 -0.045683 -0.073822 0.054626 0.024714 -0.005749 0.022042 -0.105875 -0.010798 0.006725 -0.042915 0.013657 -0.007480 0.001621 -0.063221 0.063929 -0.025056 -0.017696 -0.102112 0.007880 -0.062915 0.052414 -0.018972 -0.031554 0.092634 0.110738 0.006011 0.060366 0.046238 -0.027051 -0.044612 0.018728 -0.090870 -0.062106 -0.023531 -0.068107 -0.011858 -0.051819 -0.054751 0.040494 0.026673 -0.037490 -0.079048 0.032497 0.059611 0.005085 -0.037413 0.073973 -0.012120 -0.001418 0.037581 0.008041 0.023310 0.041305 0.050890 0.017207 0.078436 -0.015053 0.005023 
puis -0.018008 -0.042036 0.030171 0.001444 0.022158 -0.021932 -0.025217 -0.015183 -0.027859 0.054611 0.022325 0.085081 -0.036945 -0.042966 0.012269 0.111966 0.058579 0.033090 0.060619 0.022949 -0.037447 0.051765 0.042245 -0.034691 -0.009263 -0.025578 0.000188 0.020796 0.095886 0.020631 -0.054270 0.009931 -0.039575 0.023475 0.017616 -0.027483 0.004288 -0.000671 0.029596 -0.005157 -0.033880 0.042541 -0.035834 -0.056438 0.047007 0.026610 -0.006123 0.018958 -0.095488 -0.014014 0.003531 -0.039566 0.012258 -0.009469 0.006504 -0.057070 0.055173 -0.026340 -0.021170 -0.081758 0.003620 -0.053357 0.039022 -0.013329 -0.025720 0.075592 0.094334 0.006742 0.050444 0.036393 -0.019733 -0.033628 0.016358 -0.075000 -0.047099 -0.024109 -0.052178 -0.004470 -0.050794 -0.050161 0.036301 0.023819 -0.028423 -0.059231 0.027235 0.050340 -0.002543 -0.036241 0.063140 -0.007660 0.000366 0.031213 0.004779 0.014277 0.038642 0.046187 0.009339 0.064546 -0.013227 0.001854 
ça -0.014019 -0.044402 0.032348 -0.000823 0.014517 -0.024310 -0.023560 -0.018648 -0.023279 0.056071 0.017446 0.079826 -0.034755 -0.033057 0.011019 0.102869 0.052422 0.031850 0.055153 0.024391 -0.034026 0.048659 0.038924 -0.028775 -0.008527 -0.023876 0.002658 0.022136 0.085175 0.017587 -0.048897 0.013659 -0.039937 0.022701 0.022662 -0.024427 0.003333 -0.001151 0.030121 -0.001265 -0.032572 0.044534 -0.041353 -0.054897 0.040307 0.027828 -0.010874 0.018635 -0.081142 -0.009711 0.009603 -0.035307 0.011753 -0.008726 0.004372 -0.045436 0.051542 -0.020208 -0.017812 -0.081719 0.002615 -0.049614 0.037053 -0.020805 -0.023495 0.077278 0.085870 -0.000181 0.040963 0.036405 -0.022311 -0.027623 0.010032 -0.073224 -0.047480 -0.020006 -0.053106 -0.004846 -0.046165 -0.042785 0.029112 0.017603 -0.022887 -0.055356 0.025774 0.045095 0.003767 -0.031944 0.060323 -0.007360 0.002182 0.032496 0.005846 0.013483 0.028160 0.040449 0.012164 0.064930 -0.011803 0.008032 
quand -0.022652 -0.055309 0.044172 0.001477 0.023124 -0.028301 -0.031034 -0.028015 -0.030454 0.071988 0.031987 0.105467 -0.042711 -0.050074 0.015018 0.141316 0.073088 0.040176 0.082782 0.028400 -0.044762 0.072607 0.054575 -0.036821 -0.018974 -0.031835 0.007426 0.024008 0.127951 0.027285 -0.076859 0.016493 -0.050310 0.031597 0.022636 -0.033421 0.001591 -0.007856 0.035011 0.001560 -0.045077 0.062336 -0.053561 -0.080623 0.059913 0.037318 -0.005994 0.031095 -0.124514 -0.019037 0.004458 -0.050250 0.010344 -0.013972 0.006847 -0.070124 0.068124 -0.036632 -0.019752 -0.112319 0.006518 -0.069019 0.057641 -0.025328 -0.032715 0.100045 0.114681 0.001958 0.062926 0.044042 -0.031984 -0.042032 0.011917 -0.105552 -0.067694 -0.030374 -0.071212 -0.015291 -0.059722 -0.068554 0.042984 0.029550 -0.032523 -0.084666 0.031424 0.066357 0.004378 -0.040160 0.083573 -0.018279 -0.004047 0.041459 0.014250 0.028511 0.047514 0.051470 0.011769 0.085857 -0.016290 0.009707 
le -0.006092 -0.026046 0.021567 -0.004895 0.013482 -0.015651 -0.011781 -0.013997 -0.010157 0.033236 0.006858 0.043023 -0.016069 -0.016754 0.006201 0.053534 0.029109 0.014852 0.034645 0.016127 -0.023452 0.025708 0.020061 -0.017204 -0.009202 -0.017267 0.002491 0.006893 0.054941 0.013200 -0.031844 0.008098 -0.023088 0.007241 0.014819 -0.012857 0.002936 -0.005421 0.013317 0.003769 -0.019778 0.024819 -0.025124 -0.036204 0.027682 0.008062 -0.003177 0.007538 -0.045541 -0.006644 0.008470 -0.024182 0.007643 -0.010285 -0.000774 -0.029051 0.031719 -0.015591 -0.006987 -0.046339 0.006353 -0.025038 0.020032 -0.012804 -0.011754 0.042949 0.048528 0.003541 0.026316 0.022346 -0.008878 -0.022902 0.011961 -0.045742 -0.025107 -0.016672 -0.028657 0.000276 -0.027775 -0.024145 0.016132 0.010449 -0.012032 -0.030547 0.009271 0.026186 -0.000296 -0.015971 0.033003 -0.009951 -0.000189 0.011956 0.008060 0.010279 0.019550 0.025823 0.011623 0.039330 -0.002796 0.005858 
à -0.013649 -0.036704 0.031390 0.000039 0.016104 -0.021074 -0.014562 -0.014993 -0.015621 0.045974 0.016119 0.064219 -0.023361 -0.034620 0.006975 0.088871 0.042961 0.019789 0.047594 0.016159 -0.032438 0.045706 0.034647 -0.028891 -0.007585 -0.023035 0.005045 0.018315 0.075157 0.011777 -0.044945 0.005765 -0.028040 0.020490 0.016939 -0.023740 -0.000194 -0.003045 0.019302 -0.004543 -0.027196 0.032546 -0.033794 -0.047007 0.031219 0.022300 -0.007517 0.019594 -0.075888 -0.010758 0.008413 -0.033078 0.004811 -0.009154 0.006318 -0.042777 0.044916 -0.017429 -0.016252 -0.062360 0.000362 -0.045248 0.036530 -0.017275 -0.014621 0.067192 0.074323 0.002531 0.033983 0.027322 -0.018861 -0.031646 0.005885 -0.060629 -0.037129 -0.013181 -0.038776 -0.009973 -0.032908 -0.039621 0.030853 0.015601 -0.020780 -0.049155 0.024349 0.039732 -0.001395 -0.021613 0.043651 -0.004934 -0.002312 0.024724 0.008104 0.018576 0.028573 0.032764 0.004678 0.055314 -0.006848 0.006939 
il -0.033673 -0.069144 0.047440 -0.002635 0.030541 -0.034877 -0.030569 -0.023933 -0.037360 0.081032 0.026621 0.118119 -0.048451 -0.061699 0.013538 0.158653 0.082201 0.049753 0.090699 0.037387 -0.057992 0.074281 0.051922 -0.047691 -0.022720 -0.038246 0.002754 0.033649 0.137791 0.029676 -0.079626 0.013863 -0.062608 0.037151 0.030155 -0.036606 0.002473 -0.003515 0.044935 0.001892 -0.053285 0.064432 -0.054449 -0.089867 0.061775 0.042111 -0.012533 0.034139 -0.132352 -0.013785 0.015110 -0.061954 0.016976 -0.011659 0.003787 -0.075525 0.071468 -0.032201 -0.028390 -0.123526 0.010064 -0.079240 0.064732 -0.026800 -0.039624 0.113681 0.131404 0.008852 0.068088 0.051701 -0.029571 -0.053331 0.022040 -0.118406 -0.075787 -0.030815 -0.081811 -0.012323 -0.074874 -0.075782 0.054019 0.033592 -0.046027 -0.090210 0.042184 0.070252 -0.003255 -0.053430 0.093488 -0.020689 -0.000019 0.047621 0.016974 0.029083 0.046863 0.066927 0.014023 0.095300 -0.009071 0.011480 
tu -0.022223 -0.047718 0.033522 0.002823 0.020836 -0.021359 -0.015782 -0.016695 -0.029720 0.056989 0.017823 0.081458 -0.028279 -0.041446 0.014602 0.108414 0.050803 0.025808 0.060328 0.027436 -0.035515 0.049334 0.041590 -0.033406 -0.015298 -0.022250 0.001025 0.020266 0.090057 0.017647 -0.050537 0.008376 -0.041421 0.023274 0.021592 -0.023722 0.002204 -0.006081 0.025377 0.001429 -0.028418 0.047273 -0.042820 -0.059335 0.037576 0.026141 -0.010687 0.021538 -0.085962 -0.012092 0.006250 -0.042237 0.012027 -0.014098 0.004197 -0.046240 0.054160 -0.020512 -0.013618 -0.083837 0.005328 -0.054388 0.041506 -0.020590 -0.025648 0.080521 0.086921 0.000227 0.046669 0.034990 -0.024743 -0.037142 0.006719 -0.073183 -0.048295 -0.021655 -0.054157 -0.003964 -0.051264 -0.051607 0.032397 0.021662 -0.024465 -0.060001 0.025774 0.048616 0.003299 -0.037655 0.058542 -0.009410 0.003377 0.032362 0.010017 0.021508 0.034986 0.040279 0.009409 0.067307 -0.007090 0.007209 
Puis -0.010955 -0.024824 0.023079 0.003017 0.006302 -0.014396 -0.014017 -0.015550 -0.014569 0.036910 0.011790 0.051865 -0.014456 -0.023430 0.010757 0.063158 0.032613 0.015527 0.037235 0.012397 -0.027113 0.029636 0.023588 -0.019930 -0.003665 -0.017635 0.001092 0.015284 0.054586 0.013188 -0.032744 0.006595 -0.021440 0.013818 0.016132 -0.012767 -0.001975 -0.006393 0.018830 0.002224 -0.015950 0.028875 -0.023772 -0.039872 0.026384 0.012347 -0.004264 0.011259 -0.051425 -0.006408 0.008854 -0.027313 0.008611 -0.002912 0.006318 -0.033110 0.028394 -0.014485 -0.008460 -0.049150 0.004684 -0.032447 0.028885 -0.007213 -0.010641 0.043721 0.053156 -0.000622 0.026430 0.020110 -0.010383 -0.016317 0.004957 -0.046063 -0.023860 -0.014209 -0.032615 -0.001312 -0.025670 -0.025352 0.024199 0.014624 -0.012833 -0.040667 0.014521 0.023312 0.002501 -0.020046 0.038129 -0.005952 -0.001078 0.019095 0.008856 0.014322 0.024035 0.023700 0.011895 0.041225 -0.002056 0.006271 
plus -0.014822 -0.035909 0.027509 -0.003012 0.018351 -0.017281 -0.021336 -0.018363 -0.024610 0.043784 0.016717 0.068599 -0.031117 -0.032596 0.007686 0.090731 0.041999 0.022441 0.047878 0.023846 -0.033974 0.044315 0.035721 -0.031459 -0.015078 -0.025523 0.002787 0.014444 0.076966 0.012376 -0.046049 0.010539 -0.037386 0.020757 0.017653 -0.018917 -0.001176 -0.006725 0.025486 -0.003484 -0.023579 0.036342 -0.029893 -0.049826 0.035456 0.019310 -0.006656 0.021479 -0.080241 -0.014239 0.001246 -0.029635 0.012160 -0.012460 0.006735 -0.041665 0.043351 -0.023708 -0.014091 -0.071788 0.006114 -0.045752 0.039999 -0.019801 -0.020188 0.065583 0.072572 0.007700 0.042604 0.026977 -0.014623 -0.027762 0.013915 -0.066140 -0.039093 -0.015829 -0.041428 -0.002787 -0.043920 -0.037216 0.024299 0.020614 -0.023685 -0.047070 0.020497 0.040211 -0.001153 -0.026301 0.055727 -0.013785 -0.004737 0.028963 0.012160 0.012685 0.031644 0.036879 0.014064 0.050414 -0.006430 0.001131 
me -0.014147 -0.034902 0.026624 -0.002736 0.016668 -0.020290 -0.019192 -0.012616 -0.020940 0.036837 0.012100 0.054508 -0.027954 -0.029872 0.008630 0.077889 0.034150 0.026523 0.043323 0.011308 -0.026605 0.041390 0.025705 -0.020086 -0.010474 -0.013390 0.001506 0.014227 0.066840 0.013875 -0.040686 0.010133 -0.029953 0.020611 0.010763 -0.022166 0.004367 0.001146 0.014584 -0.000273 -0.022432 0.030825 -0.032564 -0.040700 0.026195 0.018797 -0.008373 0.011611 -0.061485 -0.012514 0.000677 -0.025981 0.003533 -0.008583 -0.000543 -0.034415 0.040473 -0.016889 -0.013680 -0.058381 0.009571 -0.034563 0.033650 -0.010438 -0.021433 0.055482 0.059107 0.003184 0.037512 0.023426 -0.015670 -0.021776 0.005679 -0.057061 -0.035862 -0.015803 -0.040958 -0.002852 -0.034118 -0.036064 0.026392 0.010297 -0.022949 -0.043532 0.020011 0.035097 0.000064 -0.026733 0.043303 -0.003894 0.003816 0.018790 0.007760 0.016115 0.027506 0.035680 0.012487 0.049461 -0.006167 -0.000462 
tout -0.011061 -0.016266 0.014535 -0.002087 0.009820 -0.012328 -0.010745 -0.004011 -0.010871 0.023265 0.004555 0.033660 -0.011639 -0.012356 -0.000417 0.045518 0.019330 0.016200 0.022433 0.013482 -0.018623 0.016684 0.010221 -0.015804 -0.006823 -0.007687 0.000745 0.008430 0.038497 0.012245 -0.020282 0.008598 -0.015656 0.010112 0.006442 -0.013054 -0.000199 0.001681 0.011951 -0.002348 -0.012286 0.017563 -0.014728 -0.023365 0.015922 0.006874 -0.004574 0.006981 -0.038657 -0.000354 0.006627 -0.009872 0.008154 -0.007319 0.004787 -0.022635 0.015367 -0.010477 -0.006800 -0.033352 0.004576 -0.015288 0.013305 -0.009502 -0.007073 0.030285 0.035145 0.000929 0.013910 0.010403 -0.007545 -0.017584 0.008975 -0.033566 -0.019432 -0.009252 -0.020097 -0.000645 -0.020597 -0.020226 0.017499 0.009879 -0.007805 -0.025264 0.010561 0.012139 -0.003872 -0.011201 0.027407 -0.001002 -0.003853 0.012446 0.006163 0.008781 0.011394 0.018991 -0.000256 0.022416 -0.004239 0.005946 
sais -0.027122 -0.050876 0.034890 -0.003259 0.018097 -0.028073 -0.019600 -0.016691 -0.027536 0.066483 0.025370 0.091993 -0.033276 -0.046899 0.011490 0.118537 0.059245 0.035777 0.074636 0.024661 -0.039370 0.056670 0.041971 -0.039819 -0.011926 -0.030749 0.001318 0.023935 0.105669 0.024430 -0.060039 0.012927 -0.040054 0.025618 0.021061 -0.029685 0.003033 -0.002492 0.034306 -0.000562 -0.036533 0.054009 -0.041997 -0.072710 0.051081 0.030273 -0.007892 0.017590 -0.104692 -0.017828 0.006569 -0.043722 0.015575 -0.014010 0.001723 -0.054332 0.062617 -0.025652 -0.019509 -0.091956 0.011020 -0.062063 0.049720 -0.016303 -0.023289 0.088042 0.095499 0.003406 0.048765 0.042067 -0.027002 -0.038250 0.017260 -0.085218 -0.056405 -0.022481 -0.056472 -0.004272 -0.055150 -0.056856 0.036566 0.022573 -0.033953 -0.064913 0.032083 0.049810 0.001358 -0.042705 0.065176 -0.009213 -0.003550 0.031129 0.009091 0.018016 0.035121 0.046450 0.016257 0.068932 -0.012346 0.004191 
on -0.019917 -0.048484 0.037387 0.002375 0.015638 -0.029234 -0.023423 -0.015159 -0.024077 0.066231 0.023808 0.094100 -0.038510 -0.044963 0.015411 0.123054 0.063486 0.038757 0.067872 0.025173 -0.041994 0.064115 0.044077 -0.039919 -0.019983 -0.031736 0.002876 0.018175 0.107373 0.021453 -0.066419 0.012978 -0.044662 0.022901 0.019372 -0.031786 0.000210 -0.001413 0.026313 -0.001646 -0.032167 0.052426 -0.043868 -0.062519 0.046026 0.026765 -0.003888 0.023991 -0.105865 -0.013142 0.011833 -0.046046 0.015123 -0.008318 0.006846 -0.061457 0.058398 -0.023201 -0.014565 -0.096779 0.010746 -0.053834 0.046180 -0.020641 -0.030559 0.089155 0.098087 0.002434 0.053960 0.033694 -0.026905 -0.040184 0.010079 -0.086147 -0.050792 -0.030147 -0.058503 -0.013650 -0.051188 -0.048924 0.035796 0.028099 -0.027017 -0.070363 0.025512 0.051659 -0.001489 -0.037304 0.066540 -0.012962 -0.006341 0.033740 0.005330 0.025262 0.036641 0.046503 0.016083 0.066789 -0.011906 0.005081 
j'ai -0.014460 -0.030359 0.016895 -0.002440 0.009860 -0.009565 -0.009312 -0.009434 -0.012659 0.033295 0.015831 0.050033 -0.018939 -0.027836 0.007408 0.066362 0.033618 0.022752 0.035557 0.010747 -0.025569 0.035455 0.025810 -0.021149 -0.009903 -0.011429 0.007023 0.014003 0.056976 0.007273 -0.031711 0.010389 -0.020692 0.018278 0.012738 -0.014706 0.002539 -0.004449 0.014051 -0.000215 -0.015600 0.030346 -0.021723 -0.034418 0.028849 0.010100 -0.002094 0.010157 -0.057092 -0.009703 -0.000520 -0.025027 0.002089 -0.010134 -0.001059 -0.033576 0.031481 -0.013279 -0.005270 -0.051874 0.003268 -0.025474 0.026119 -0.007535 -0.016416 0.048381 0.053550 0.000755 0.023538 0.019328 -0.015125 -0.018324 0.004938 -0.051016 -0.023806 -0.010125 -0.033710 -0.001305 -0.028638 -0.030122 0.023613 0.010749 -0.019597 -0.035524 0.019506 0.023620 0.005489 -0.019064 0.040597 -0.010340 0.000063 0.015533 0.003268 0.012922 0.016133 0.030404 0.011378 0.035145 -0.009676 0.001044 
a -0.011924 -0.029676 0.015767 -0.003523 0.012800 -0.010400 -0.009266 -0.011671 -0.013513 0.033854 0.014847 0.052024 -0.020250 -0.027207 0.002347 0.065848 0.037442 0.023202 0.037658 0.011093 -0.024692 0.032930 0.026391 -0.018997 -0.010301 -0.018703 -0.000223 0.011949 0.059199 0.011630 -0.038345 0.007505 -0.028098 0.009501 0.009661 -0.012511 -0.003491 0.000387 0.015020 -0.001461 -0.023570 0.031730 -0.022782 -0.038916 0.022995 0.019275 -0.005586 0.010470 -0.051829 -0.006530 0.003947 -0.027312 0.010698 -0.004305 0.003052 -0.036702 0.030356 -0.014318 -0.006842 -0.055450 0.001892 -0.030859 0.029195 -0.013418 -0.012991 0.049209 0.050010 -0.001556 0.029603 0.019637 -0.015940 -0.020058 0.010614 -0.051469 -0.034644 -0.017191 -0.027725 -0.005043 -0.030721 -0.028927 0.016901 0.008481 -0.012839 -0.038831 0.014628 0.030321 0.003784 -0.016632 0.037354 -0.004817 -0.005278 0.016635 0.001600 0.012074 0.016007 0.023379 0.005174 0.044424 -0.007302 0.002732 
des -0.008984 -0.011269 0.014180 -0.003824 0.004497 -0.009928 -0.001770 -0.005621 -0.004594 0.019359 0.009479 0.021563 -0.012148 -0.014443 -0.000627 0.028477 0.011460 0.009426 0.020863 0.002840 -0.010133 0.018199 0.014293 -0.006582 0.000574 -0.009486 0.004161 0.006251 0.033204 0.001504 -0.019969 -0.000180 -0.007638 0.011483 0.002036 -0.003886 -0.003737 -0.004862 0.008329 -0.004550 -0.008442 0.018525 -0.007725 -0.022563 0.012039 0.004960 0.000178 0.010401 -0.026466 -0.007739 -0.000975 -0.010571 0.007921 -0.003258 -0.002524 -0.016737 0.019630 -0.003313 -0.009426 -0.030587 0.003643 -0.020164 0.015109 -0.007770 -0.006511 0.028059 0.030254 -0.002471 0.018054 0.013068 -0.005995 -0.006271 0.005630 -0.018785 -0.014823 -0.009026 -0.013475 -0.005370 -0.018890 -0.018405 0.009357 0.006709 -0.012354 -0.020107 0.004709 0.009268 -0.004844 -0.010856 0.022387 -0.005961 0.004461 0.013254 0.003300 0.008820 0.012696 0.013900 0.001651 0.022718 -0.007109 0.001945 
c'est -0.008867 -0.027932 0.016610 -0.003754 0.011911 -0.011695 -0.010243 -0.006781 -0.018507 0.035692 0.015147 0.047928 -0.021371 -0.020198 0.008385 0.063003 0.031469 0.017141 0.034941 0.015883 -0.017198 0.029900 0.021216 -0.021873 -0.008744 -0.014984 0.000861 0.008984 0.050427 0.010408 -0.027712 0.003624 -0.020045 0.013595 0.011778 -0.014434 0.003125 -0.003689 0.014344 0.002117 -0.019443 0.025013 -0.025184 -0.034731 0.019951 0.016987 -0.000955 0.015934 -0.057685 -0.004951 0.003636 -0.022709 0.002414 -0.006408 0.001787 -0.028692 0.027489 -0.010251 -0.009992 -0.051052 -0.001401 -0.025728 0.023086 -0.011362 -0.011873 0.046845 0.049207 0.001912 0.030436 0.022118 -0.011684 -0.015514 0.011607 -0.042133 -0.031259 -0.012215 -0.025238 -0.002734 -0.026587 -0.025959 0.019919 0.014022 -0.021186 -0.036333 0.012420 0.024114 -0.004080 -0.020081 0.033101 -0.010727 -0.004195 0.017534 0.009703 0.006916 0.017720 0.027495 0.008147 0.038452 -0.003704 0.003402 
la -0.010857 -0.011719 0.012247 -0.001485 0.006594 -0.005163 -0.006502 -0.011234 -0.004697 0.018367 0.010357 0.032276 -0.016081 -0.014365 0.001109 0.042888 0.020187 0.015179 0.019323 0.008990 -0.015060 0.015979 0.013391 -0.014793 -0.000336 -0.011918 0.005343 0.007415 0.036914 0.005757 -0.019912 0.008213 -0.014689 0.003508 0.012088 -0.013620 -0.004006 0.002196 0.011617 0.003249 -0.017620 0.019717 -0.013181 -0.025933 0.016961 0.005209 0.000819 0.005651 -0.030475 -0.005933 0.006790 -0.019161 0.004663 0.001343 -0.000750 -0.023446 0.014087 -0.012556 -0.001723 -0.031148 0.005853 -0.014920 0.011163 -0.004416 -0.005668 0.032261 0.037310 -0.000713 0.019245 0.013601 -0.010730 -0.008660 0.000463 -0.032157 -0.012847 -0.005537 -0.020972 -0.001574 -0.020825 -0.020512 0.009700 0.008504 -0.014212 -0.020247 0.011805 0.018514 0.002028 -0.014416 0.018905 -0.000840 0.000666 0.014694 -0.000894 0.004575 0.008352 0.018368 0.001114 0.024028 -0.003469 0.003541 
un -0.008495 -0.021195 0.012797 -0.001976 0.004671 -0.012486 -0.004055 -0.004768 -0.014185 0.026289 0.012963 0.031669 -0.011460 -0.014742 0.009376 0.047373 0.026488 0.008856 0.026110 0.012443 -0.016506 0.019889 0.018644 -0.012698 -0.006958 -0.010375 0.003664 0.004491 0.039357 0.012422 -0.021815 0.002623 -0.017670 0.009718 0.005290 -0.006155 0.000282 -0.004862 0.009750 -0.004304 -0.009804 0.013166 -0.017222 -0.019457 0.013291 0.010021 -0.004380 0.005462 -0.038944 -0.005279 -0.000648 -0.013607 0.005921 -0.002205 0.003047 -0.021346 0.022225 -0.010175 -0.003201 -0.030791 -0.001111 -0.023314 0.014729 -0.008141 -0.013140 0.034081 0.035966 0.007005 0.021332 0.017914 -0.009829 -0.011674 0.007269 -0.027109 -0.021873 -0.006456 -0.018981 -0.006265 -0.020604 -0.015183 0.015880 0.009194 -0.014158 -0.021307 0.014871 0.022123 0.005036 -0.011346 0.019968 -0.006815 0.000189 0.015472 0.006109 0.006144 0.014035 0.019584 0.000038 0.028898 -0.004864 0.000255 
, -0.012568 -0.021360 0.011366 0.001334 0.009840 -0.010612 -0.006697 -0.003767 -0.013477 0.027637 0.012730 0.042218 -0.018536 -0.018724 0.009248 0.049719 0.023583 0.017328 0.032788 0.008956 -0.017636 0.028986 0.021468 -0.017834 -0.007375 -0.014031 0.000248 0.008702 0.049118 0.010048 -0.023379 0.009178 -0.016939 0.013772 0.007092 -0.009014 0.001737 -0.005514 0.015992 -0.000566 -0.020794 0.016132 -0.013819 -0.030613 0.021056 0.007920 -0.007753 0.005631 -0.039680 -0.004822 0.002175 -0.021336 0.001034 -0.006572 0.004466 -0.021722 0.019639 -0.006478 -0.006474 -0.040941 -0.001831 -0.027109 0.022861 -0.004077 -0.015095 0.041665 0.036763 0.001566 0.023037 0.016008 -0.011317 -0.018827 0.008311 -0.039974 -0.021702 -0.007536 -0.027758 -0.001556 -0.017992 -0.024944 0.014216 0.006296 -0.014607 -0.029707 0.013301 0.022223 -0.003088 -0.013850 0.032121 -0.005354 0.000286 0.015876 0.000822 0.009934 0.014152 0.016647 0.006933 0.035114 -0.006001 0.000379 
ma 0.000737 -0.004030 0.005392 -0.002054 0.002341 -0.006931 -0.000065 0.001183 0.000424 0.001684 -0.000354 0.011362 0.000446 -0.004609 0.006164 0.017957 0.004290 0.005360 0.003561 0.007555 -0.002469 0.010193 -0.000061 -0.005494 -0.003651 0.001455 0.000512 0.005130 0.008112 0.005242 -0.009599 0.000710 0.000692 0.003688 0.001596 -0.001239 -0.000858 0.003343 0.003382 -0.004094 -0.003931 0.002863 -0.008071 -0.008274 0.005263 0.004647 -0.005037 0.005483 -0.006616 -0.001179 0.002772 -0.004553 0.002956 -0.005840 -0.003393 -0.009554 0.005932 -0.007943 -0.005899 -0.008961 0.004392 -0.007542 0.007186 0.002605 -0.005153 0.007568 0.013181 -0.000077 0.003668 0.003067 0.000733 -0.002619 -0.000576 -0.012342 -0.004786 -0.003364 -0.008828 0.001359 -0.002043 -0.001515 0.006550 -0.000466 -0.001344 -0.008921 0.004394 0.000233 0.002292 -0.005134 0.010018 0.002400 -0.001174 0.006969 0.002539 0.004801 0.005918 0.007601 0.001673 0.012216 0.000325 0.000091 
même -0.030277 -0.061781 0.051328 0.000144 0.022702 -0.041301 -0.028089 -0.022562 -0.030884 0.081225 0.025746 0.116125 -0.046197 -0.055392 0.014559 0.159047 0.078114 0.046558 0.093728 0.037278 -0.057575 0.077639 0.052486 -0.047080 -0.020982 -0.041799 0.003570 0.032073 0.140706 0.026425 -0.085148 0.016578 -0.056996 0.038024 0.025722 -0.036830 0.006196 -0.004873 0.036281 -0.000973 -0.045278 0.060978 -0.051416 -0.089816 0.061985 0.041350 -0.009130 0.024521 -0.128971 -0.018365 0.011917 -0.053495 0.016445 -0.019198 0.007076 -0.078251 0.071650 -0.039619 -0.025490 -0.123854 0.007436 -0.073809 0.056269 -0.026914 -0.033183 0.118920 0.125293 0.003921 0.071088 0.045517 -0.035097 -0.048953 0.019547 -0.110515 -0.070547 -0.035944 -0.076769 -0.015484 -0.068615 -0.066555 0.053711 0.033578 -0.036480 -0.084444 0.032108 0.066527 0.001405 -0.050399 0.084011 -0.012418 -0.006757 0.038635 0.015835 0.028155 0.049935 0.060768 0.019992 0.097094 -0.010267 0.003083 
c'était -0.015250 -0.045773 0.028222 0.002342 0.019825 -0.020116 -0.021528 -0.015607 -0.024438 0.049294 0.022773 0.083863 -0.035509 -0.043556 0.013564 0.105800 0.052168 0.030503 0.065364 0.024629 -0.040037 0.053102 0.034866 -0.034929 -0.014970 -0.025421 0.007366 0.021276 0.096153 0.017962 -0.049956 0.005841 -0.033117 0.020586 0.017490 -0.027335 0.002892 -0.008560 0.030305 -0.002005 -0.032159 0.046064 -0.035642 -0.058522 0.040782 0.019630 -0.010208 0.016652 -0.091631 -0.011434 0.002679 -0.037670 0.007548 -0.013945 0.000228 -0.050978 0.054569 -0.028018 -0.016288 -0.084124 0.004057 -0.046109 0.042112 -0.015974 -0.026562 0.072800 0.082764 0.002258 0.047291 0.037625 -0.017566 -0.033700 0.013829 -0.077173 -0.049995 -0.025689 -0.049048 -0.003739 -0.048879 -0.049123 0.036712 0.018178 -0.026069 -0.058828 0.022575 0.044120 0.000277 -0.037187 0.060633 -0.010947 0.001252 0.025991 0.010550 0.014515 0.036539 0.040101 0.010076 0.066254 -0.007929 0.004908 
mais -0.013257 -0.036880 0.030000 0.001665 0.019948 -0.019385 -0.020028 -0.017426 -0.025134 0.048171 0.020207 0.072458 -0.027427 -0.030407 0.012954 0.099090 0.045247 0.026627 0.052628 0.015507 -0.033550 0.049045 0.033988 -0.028146 -0.016082 -0.025227 0.006583 0.016537 0.082043 0.014641 -0.048146 0.003739 -0.037347 0.015993 0.020480 -0.024396 -0.002974 0.000418 0.026766 0.001150 -0.028386 0.033225 -0.029529 -0.051787 0.035386 0.018562 -0.005508 0.018850 -0.075811 -0.010439 0.010865 -0.034491 0.006587 -0.004821 0.008006 -0.040571 0.044737 -0.025424 -0.018315 -0.069353 0.009598 -0.043078 0.031245 -0.011263 -0.021380 0.067491 0.077828 0.001910 0.039719 0.033660 -0.015171 -0.030531 0.006773 -0.068894 -0.040686 -0.020011 -0.048289 -0.007746 -0.036610 -0.039275 0.034666 0.014641 -0.019660 -0.057851 0.017206 0.042618 0.004700 -0.026148 0.048199 -0.007579 -0.005132 0.025968 0.005113 0.017666 0.024529 0.032646 0.012360 0.056700 -0.003035 0.005144 
Ok. 0.000689 -0.005255 0.007491 -0.001744 0.005013 -0.004990 -0.000942 0.000455 -0.008351 0.008178 0.005947 0.008749 -0.006543 -0.004063 0.002976 0.022581 0.013653 0.005276 0.009167 0.007929 -0.003707 0.006110 0.007352 -0.004589 -0.000394 -0.003131 0.003532 0.004085 0.011035 0.003802 -0.005505 -0.001876 -0.007752 0.001949 -0.001719 -0.003230 -0.001408 -0.002474 0.005010 0.000129 -0.009832 0.004816 -0.009230 -0.007753 0.009655 -0.000328 0.001607 0.000308 -0.010177 -0.006188 0.001236 -0.007461 0.001470 -0.000840 0.002534 -0.005268 0.005230 -0.005482 0.002162 -0.015417 0.001117 -0.010206 0.005420 -0.007323 0.000014 0.015212 0.018233 -0.001618 0.002940 0.000831 0.000382 -0.005596 -0.001951 -0.008814 -0.010873 -0.002523 -0.010887 -0.003690 -0.007262 -0.005240 0.000981 0.002523 -0.008516 -0.013606 0.001172 0.009471 -0.001716 -0.005680 0.012595 0.002034 0.002612 0.004731 -0.003312 0.007140 0.004357 0.004550 0.001509 0.015487 -0.003783 -0.002337 
en -0.010403 -0.030078 0.026422 0.002777 0.009417 -0.018726 -0.011615 -0.008401 -0.014322 0.035533 0.017991 0.057125 -0.025803 -0.027022 0.005955 0.073134 0.031626 0.022358 0.042943 0.014665 -0.027371 0.033821 0.022659 -0.017562 -0.008688 -0.019488 0.007710 0.016912 0.060884 0.008871 -0.040991 0.005777 -0.024933 0.019931 0.011951 -0.019716 -0.000650 -0.001880 0.022362 -0.000539 -0.024015 0.026212 -0.024226 -0.038047 0.027625 0.016997 -0.009399 0.015469 -0.058765 -0.009081 0.003081 -0.025219 0.003552 -0.007990 -0.001882 -0.034283 0.032434 -0.016589 -0.014989 -0.056941 0.007483 -0.031349 0.031820 -0.007360 -0.015087 0.049727 0.059989 0.001127 0.032678 0.025401 -0.015711 -0.024182 0.004091 -0.051734 -0.036257 -0.017907 -0.035535 -0.007687 -0.033744 -0.034525 0.026919 0.019140 -0.018419 -0.045108 0.020935 0.030882 0.000344 -0.021436 0.045952 -0.007697 0.002605 0.023421 0.006657 0.013820 0.027061 0.032808 0.008863 0.040022 -0.001393 0.003915 
vraiment -0.013397 -0.038651 0.032535 0.000678 0.019058 -0.026262 -0.020959 -0.019500 -0.018332 0.052437 0.015927 0.070705 -0.025621 -0.036256 0.009919 0.092292 0.048274 0.023571 0.054591 0.015212 -0.031013 0.044943 0.030160 -0.030314 -0.012823 -0.026783 0.004611 0.012930 0.084054 0.020512 -0.052702 0.003678 -0.036644 0.017677 0.018380 -0.027623 0.001799 -0.005337 0.026454 -0.003164 -0.032638 0.036463 -0.031792 -0.049769 0.041436 0.021795 -0.001922 0.015387 -0.079248 -0.007523 0.002396 -0.032346 0.010019 -0.014326 0.008634 -0.050770 0.042823 -0.022518 -0.011795 -0.073651 0.007487 -0.046217 0.040627 -0.012052 -0.019001 0.072008 0.082755 0.008264 0.039999 0.029480 -0.016844 -0.027827 0.012196 -0.068624 -0.039637 -0.021349 -0.041390 -0.006754 -0.036849 -0.039348 0.030294 0.015773 -0.027927 -0.052256 0.021426 0.040427 -0.000689 -0.033512 0.050788 -0.010019 -0.000150 0.025175 0.010958 0.019379 0.026124 0.033271 0.006934 0.053218 -0.004196 0.000148 
est-ce -0.011278 -0.024304 0.016578 -0.000964 0.005358 -0.011962 -0.012112 -0.010202 -0.015868 0.025176 0.010651 0.041065 -0.015777 -0.020170 0.009937 0.058724 0.024599 0.017118 0.028525 0.010870 -0.020843 0.025103 0.023196 -0.015331 -0.011409 -0.017096 -0.002555 0.010428 0.047412 0.006665 -0.028588 0.004631 -0.020387 0.015339 0.012925 -0.013783 0.002598 -0.003380 0.012695 0.001575 -0.017436 0.026513 -0.016876 -0.026456 0.021373 0.011199 -0.006412 0.011028 -0.045805 -0.002492 0.007284 -0.021976 0.004119 -0.008011 0.005406 -0.021050 0.022863 -0.016033 -0.008327 -0.043290 0.000379 -0.028863 0.020254 -0.011334 -0.012231 0.037385 0.044589 0.005310 0.020372 0.011772 -0.015116 -0.018841 0.008103 -0.038718 -0.024574 -0.013844 -0.023634 -0.005562 -0.027548 -0.023502 0.016263 0.012723 -0.009277 -0.033122 0.012437 0.025147 -0.001383 -0.014739 0.031021 -0.001111 -0.000817 0.014197 0.008268 0.013590 0.012224 0.018940 0.005743 0.033867 0.000363 0.002554 
Ben -0.001196 -0.013826 0.008731 -0.003347 0.001412 -0.005777 -0.004350 -0.000634 -0.003891 0.021385 0.005778 0.026780 -0.008739 -0.012682 0.004677 0.033259 0.018260 0.005487 0.017234 0.009061 -0.015702 0.016828 0.006557 -0.005788 -0.002890 -0.007455 -0.001281 0.008267 0.030068 0.009249 -0.012646 0.002341 -0.009387 0.009100 0.002897 -0.009246 0.000500 0.000964 0.008180 -0.004597 -0.013791 0.012973 -0.012549 -0.020055 0.015593 0.011464 0.001223 0.002950 -0.022434 -0.005441 0.006829 -0.015585 0.003566 -0.007414 -0.002472 -0.015215 0.014400 -0.003471 -0.000210 -0.026128 0.005914 -0.012931 0.011669 -0.002694 -0.006702 0.026799 0.027409 0.005511 0.008920 0.011475 -0.003078 -0.010673 0.003290 -0.020774 -0.010181 -0.010577 -0.020408 -0.004596 -0.012900 -0.017965 0.008730 0.004543 -0.012385 -0.015742 0.003192 0.012221 0.003272 -0.009038 0.015697 -0.007736 -0.002643 0.008517 -0.000195 0.005276 0.009836 0.011673 0.002437 0.021822 -0.002299 0.004149 
ce -0.027366 -0.065435 0.050799 -0.004225 0.029331 -0.031929 -0.033492 -0.026771 -0.036701 0.077711 0.034520 0.114629 -0.044007 -0.060287 0.019035 0.158319 0.076597 0.042636 0.083128 0.036766 -0.056952 0.071172 0.051041 -0.042363 -0.018989 -0.041313 0.002423 0.026901 0.131244 0.026808 -0.083634 0.016709 -0.058497 0.035294 0.026518 -0.042168 -0.000523 -0.002870 0.040652 0.002594 -0.044532 0.061026 -0.050886 -0.089137 0.057505 0.038507 -0.014210 0.023958 -0.130496 -0.017928 0.013516 -0.054351 0.011723 -0.010144 0.006872 -0.074104 0.077216 -0.036266 -0.025411 -0.118481 0.006902 -0.067965 0.055347 -0.026558 -0.029000 0.107093 0.124895 0.005795 0.068687 0.049457 -0.028888 -0.045970 0.014241 -0.113597 -0.069834 -0.028267 -0.072653 -0.014832 -0.062230 -0.066613 0.043892 0.026057 -0.043652 -0.086363 0.032884 0.066683 0.002052 -0.049199 0.085109 -0.016384 -0.006782 0.038517 0.010641 0.024257 0.050069 0.056738 0.018957 0.088724 -0.016591 0.002774 
j'étais -0.016214 -0.037501 0.025945 0.002243 0.015290 -0.016213 -0.016356 -0.016876 -0.020510 0.039539 0.014182 0.061231 -0.020929 -0.027999 0.003839 0.084296 0.036568 0.017228 0.041751 0.017887 -0.022641 0.039337 0.026741 -0.018156 -0.010515 -0.019258 0.007789 0.012041 0.068951 0.010753 -0.043520 0.002191 -0.023541 0.015913 0.019219 -0.023599 -0.001552 -0.006920 0.024566 0.001280 -0.020333 0.032136 -0.029348 -0.039638 0.032713 0.022820 -0.004404 0.014587 -0.067618 -0.011106 0.002512 -0.031574 0.009208 -0.009181 0.000623 -0.041769 0.039050 -0.018838 -0.010177 -0.060595 0.002721 -0.033430 0.026283 -0.015401 -0.015333 0.058406 0.068974 0.007280 0.038016 0.023491 -0.020713 -0.024661 0.010241 -0.058588 -0.030996 -0.017516 -0.038182 -0.009957 -0.033061 -0.036720 0.026864 0.014151 -0.016783 -0.049223 0.016291 0.038750 0.002360 -0.023368 0.048046 -0.011823 -0.005933 0.020633 0.004232 0.013394 0.023441 0.034746 0.008140 0.047890 -0.008479 0.007690 
fois -0.012113 -0.032002 0.026060 0.001233 0.011251 -0.021781 -0.018529 -0.013670 -0.016904 0.033086 0.011388 0.056161 -0.017455 -0.029695 0.004071 0.071875 0.041126 0.019565 0.043785 0.014669 -0.028803 0.038774 0.029941 -0.022381 -0.011687 -0.013675 0.000762 0.015718 0.061259 0.011531 -0.039001 0.003877 -0.027171 0.011999 0.009649 -0.022321 -0.002161 -0.002683 0.020422 0.000168 -0.022570 0.033585 -0.026753 -0.043850 0.026760 0.021049 -0.000176 0.016633 -0.058743 -0.006817 0.002316 -0.025850 0.007858 -0.010311 0.001433 -0.032677 0.032676 -0.020958 -0.009173 -0.052879 0.000259 -0.030366 0.033034 -0.007634 -0.018391 0.056114 0.064908 0.006907 0.027467 0.026761 -0.011567 -0.027446 0.009581 -0.052864 -0.035933 -0.020713 -0.033420 -0.006158 -0.033565 -0.031564 0.024686 0.016159 -0.020461 -0.036703 0.021928 0.030459 -0.000983 -0.024222 0.040076 -0.012398 0.001387 0.019543 0.001604 0.010928 0.018722 0.032958 0.004087 0.041183 -0.007210 0.007915 
comme -0.019469 -0.030352 0.027940 0.003359 0.016778 -0.015521 -0.016428 -0.017247 -0.022720 0.045435 0.013678 0.065801 -0.024493 -0.030598 0.004022 0.087089 0.041027 0.023156 0.052493 0.015917 -0.027884 0.045121 0.027472 -0.026907 -0.015242 -0.018788 0.006770 0.012744 0.068645 0.015049 -0.045005 0.005948 -0.033961 0.021400 0.010866 -0.016273 0.005384 -0.007140 0.019299 0.001212 -0.023884 0.038146 -0.027547 -0.049178 0.033622 0.016372 -0.007932 0.018322 -0.075587 -0.011609 0.001419 -0.028794 0.012218 -0.007877 0.002714 -0.041570 0.035981 -0.017500 -0.017034 -0.062419 0.000567 -0.038813 0.036416 -0.018390 -0.021234 0.062129 0.073415 0.002376 0.033375 0.023204 -0.015594 -0.026699 0.007234 -0.056804 -0.034177 -0.012994 -0.039947 -0.004286 -0.040221 -0.041131 0.027777 0.020696 -0.019468 -0.050720 0.016225 0.040409 -0.002895 -0.022960 0.044680 -0.009100 0.003395 0.025682 0.003040 0.014501 0.030910 0.028837 0.007711 0.047158 -0.007585 0.000281 
qu'il -0.020403 -0.043382 0.038183 0.000166 0.024387 -0.026299 -0.022545 -0.023600 -0.024846 0.064255 0.022104 0.090572 -0.036794 -0.043764 0.006935 0.114248 0.057383 0.029503 0.065704 0.025370 -0.041112 0.053317 0.039551 -0.028919 -0.017278 -0.030618 0.006061 0.020864 0.101654 0.021521 -0.060104 0.006874 -0.046840 0.025769 0.019178 -0.024713 0.003095 -0.007726 0.030629 -0.000934 -0.032173 0.043454 -0.042435 -0.061005 0.041189 0.028466 -0.004598 0.020013 -0.092632 -0.014766 0.005648 -0.040466 0.014012 -0.009884 0.002311 -0.055513 0.054407 -0.024370 -0.014267 -0.095215 0.009991 -0.053293 0.040878 -0.018606 -0.024912 0.080690 0.094108 0.006689 0.049538 0.037606 -0.026554 -0.039181 0.008914 -0.087886 -0.047332 -0.028592 -0.052942 -0.006036 -0.053574 -0.048522 0.036551 0.019319 -0.029102 -0.071042 0.022421 0.054191 0.004032 -0.037281 0.067360 -0.017209 -0.000280 0.027331 0.005868 0.022068 0.033551 0.042998 0.017759 0.068391 -0.013824 0.007968 
une -0.018379 -0.035070 0.029378 -0.003442 0.014017 -0.018328 -0.012252 -0.012342 -0.018742 0.047498 0.014456 0.070306 -0.031869 -0.030016 0.010240 0.094011 0.043157 0.020758 0.056034 0.019402 -0.036081 0.041408 0.036913 -0.028323 -0.011308 -0.021208 0.008546 0.014502 0.079564 0.015913 -0.049043 0.003173 -0.035149 0.021798 0.016615 -0.022621 0.003240 -0.005193 0.023866 0.001231 -0.026635 0.035667 -0.030361 -0.046320 0.037352 0.019420 -0.010250 0.019054 -0.072807 -0.005321 0.006611 -0.037441 0.008726 -0.011964 0.007537 -0.039688 0.047914 -0.024251 -0.016222 -0.069806 0.002737 -0.044064 0.030996 -0.012596 -0.022353 0.066327 0.078876 0.000191 0.035552 0.030751 -0.016346 -0.023737 0.011482 -0.061234 -0.037855 -0.020791 -0.045479 -0.005347 -0.042614 -0.045286 0.027281 0.019413 -0.021274 -0.048609 0.025201 0.043093 -0.000492 -0.025761 0.050827 -0.009465 -0.005035 0.022016 0.011976 0.011540 0.027647 0.037562 0.007842 0.051329 -0.002852 0.000068 
ou -0.021080 -0.047235 0.038381 -0.000500 0.022205 -0.031052 -0.023967 -0.023914 -0.032240 0.065328 0.027026 0.093807 -0.032692 -0.047760 0.012974 0.128267 0.058916 0.034307 0.069039 0.030325 -0.046861 0.063072 0.044034 -0.039448 -0.013135 -0.027570 0.003553 0.027547 0.104777 0.023550 -0.063167 0.009070 -0.047181 0.029577 0.026021 -0.032449 0.004378 -0.005806 0.031744 -0.003154 -0.033672 0.052272 -0.048226 -0.066465 0.048640 0.029436 -0.004789 0.021068 -0.097891 -0.009314 0.012835 -0.044304 0.014889 -0.007559 0.004746 -0.059654 0.058851 -0.022705 -0.015114 -0.094074 0.007069 -0.053774 0.048658 -0.016005 -0.023528 0.090143 0.102758 0.004778 0.057145 0.037669 -0.028033 -0.036341 0.016348 -0.087942 -0.051393 -0.022146 -0.062363 -0.006576 -0.050784 -0.059126 0.040161 0.019909 -0.035649 -0.071381 0.028385 0.055452 -0.003187 -0.033710 0.068323 -0.016919 0.002229 0.034183 0.012156 0.015973 0.036069 0.051355 0.013423 0.070619 -0.013338 0.010739 
comment -0.012702 -0.025330 0.017933 -0.001781 0.011270 -0.016981 -0.013566 -0.009291 -0.007227 0.029069 0.007118 0.035296 -0.017268 -0.023035 0.008965 0.052467 0.022567 0.013796 0.026511 0.014061 -0.018860 0.021745 0.018920 -0.012762 -0.011758 -0.008593 0.002426 0.004770 0.042667 0.011185 -0.030364 0.007449 -0.018765 0.013180 0.009945 -0.014285 0.002370 -0.003147 0.008218 -0.002006 -0.013275 0.021465 -0.021236 -0.029168 0.016630 0.016433 -0.007118 0.013883 -0.048202 -0.001316 0.006996 -0.013809 0.005100 -0.000801 0.003735 -0.027330 0.023407 -0.010993 -0.009341 -0.040633 0.008072 -0.020675 0.022613 -0.004726 -0.007308 0.034106 0.047964 0.004259 0.024879 0.017685 -0.011449 -0.016169 0.007520 -0.041433 -0.019524 -0.014501 -0.021280 -0.003042 -0.017835 -0.021318 0.021020 0.007283 -0.018186 -0.029837 0.012807 0.022320 -0.000568 -0.020041 0.031794 -0.009726 0.001884 0.012995 0.007821 0.013796 0.019841 0.018556 0.003545 0.029543 0.000521 0.001269 
ben -0.012101 -0.034905 0.026780 -0.004736 0.015659 -0.019658 -0.011327 -0.017941 -0.017325 0.039789 0.015750 0.068205 -0.022130 -0.033460 0.012406 0.085953 0.045000 0.028579 0.051779 0.015510 -0.032845 0.041716 0.032340 -0.025449 -0.008261 -0.017503 0.004064 0.011969 0.078286 0.013541 -0.044065 0.005830 -0.035393 0.017502 0.011671 -0.018182 0.002360 -0.000548 0.024030 -0.001074 -0.024341 0.033745 -0.032516 -0.050813 0.038479 0.017854 -0.009151 0.015422 -0.068561 -0.013239 0.006364 -0.028884 0.011597 -0.007625 -0.000190 -0.037054 0.043597 -0.019585 -0.010185 -0.071227 0.003260 -0.044275 0.035631 -0.013311 -0.020430 0.058558 0.068239 0.008338 0.038892 0.031003 -0.013790 -0.031169 0.012243 -0.062953 -0.034806 -0.014273 -0.047004 -0.011007 -0.041855 -0.035218 0.024578 0.013839 -0.017974 -0.049134 0.019256 0.037252 -0.002261 -0.024875 0.051516 -0.004327 0.000173 0.024206 0.011207 0.018213 0.026039 0.031377 0.010889 0.051900 -0.003207 0.003209 
temps -0.002392 -0.011567 0.012669 0.004680 0.008344 -0.009325 -0.001248 -0.000814 -0.010822 0.016967 0.006864 0.025359 -0.008836 -0.016216 0.008312 0.033345 0.011071 0.006686 0.021652 0.009537 -0.007435 0.013352 0.016170 -0.011990 -0.002910 -0.009499 0.003014 0.001927 0.032947 0.008175 -0.019915 -0.000286 -0.015744 0.004846 0.002703 -0.010471 0.004351 0.003775 0.009360 -0.002083 -0.011510 0.017554 -0.009979 -0.015849 0.016836 0.008294 -0.002034 0.001168 -0.024367 0.000008 0.007364 -0.014709 -0.000730 -0.004057 0.005659 -0.018679 0.013507 -0.006219 -0.005451 -0.027011 0.001179 -0.012158 0.007394 -0.007601 -0.009220 0.025900 0.022866 0.003931 0.009790 0.010240 -0.003327 -0.005897 0.004974 -0.026612 -0.016621 -0.011376 -0.016157 -0.005990 -0.012534 -0.011306 0.010679 0.003176 -0.006014 -0.014498 0.005284 0.011491 -0.000650 -0.010136 0.014219 -0.001979 0.003315 0.012414 0.007134 0.006787 0.008580 0.013883 0.004750 0.014909 -0.001011 0.002634 
mère -0.003550 -0.002884 0.005783 0.003761 0.006931 -0.007129 -0.004249 -0.000152 0.000851 0.006544 0.000802 0.014609 -0.005345 -0.006499 -0.002893 0.019603 0.008391 -0.000007 0.008629 -0.000992 -0.010185 0.008141 0.008337 -0.002132 -0.002107 -0.004785 -0.000802 0.001110 0.018102 -0.000439 -0.005319 0.004205 -0.002554 0.008121 0.007787 -0.007416 -0.001607 0.004098 -0.000202 0.002586 -0.004417 0.006625 -0.004882 -0.011932 0.003869 0.002205 0.002825 0.000219 -0.008858 -0.000553 -0.002628 -0.010413 0.006288 -0.003691 -0.001246 -0.004090 0.002967 0.000459 0.001015 -0.013988 -0.000129 -0.011318 0.005693 -0.004886 -0.006791 0.015206 0.016632 0.003159 0.009347 0.005274 -0.004383 -0.009315 -0.001272 -0.011825 -0.008438 -0.000053 -0.009470 -0.003772 -0.008105 -0.003046 0.003427 0.007714 -0.006123 -0.011450 0.007961 0.009289 -0.001264 -0.006712 0.011389 -0.004910 0.004336 0.005829 0.005624 0.005764 0.006337 0.001578 0.002830 0.011150 -0.002863 0.001943 
moi -0.012295 -0.018577 0.015235 0.001490 0.013712 -0.016807 -0.008748 -0.006289 -0.015037 0.032899 0.009273 0.045879 -0.013696 -0.024492 0.001665 0.060988 0.032941 0.012561 0.027783 0.008125 -0.019520 0.026268 0.021305 -0.018809 -0.007547 -0.014756 0.001531 0.007200 0.045604 0.008154 -0.030469 0.008039 -0.016328 0.009546 0.012077 -0.013208 0.002323 -0.000200 0.015432 -0.004526 -0.018623 0.021631 -0.016409 -0.035641 0.021248 0.009465 -0.005149 0.012437 -0.051755 -0.008146 0.001146 -0.023540 0.004224 -0.007739 0.005103 -0.030057 0.022960 -0.010592 -0.006367 -0.043669 0.005103 -0.025399 0.027155 -0.010992 -0.011600 0.039186 0.048280 0.005900 0.024566 0.013582 -0.016249 -0.015836 0.007178 -0.039894 -0.030259 -0.010463 -0.022711 -0.000078 -0.027250 -0.022038 0.016005 0.008626 -0.010593 -0.031672 0.010502 0.019471 0.000960 -0.017893 0.034753 -0.002124 0.000850 0.013909 0.002746 0.013592 0.014247 0.019099 0.003905 0.030803 -0.007903 0.001899 
et -0.004512 -0.011570 0.002618 0.001273 0.005987 -0.002889 -0.002132 -0.002904 -0.002990 0.010321 0.005892 0.013897 -0.005711 -0.012445 0.000071 0.019251 0.006702 0.006788 0.015521 -0.000274 -0.006983 0.014066 0.003188 -0.006935 -0.007365 -0.000639 0.004776 0.002118 0.013189 0.007010 -0.013048 -0.000236 -0.008077 0.000903 0.006286 -0.001912 -0.004272 0.000064 0.009305 0.002669 -0.007578 0.013370 -0.004956 -0.015071 0.010950 0.005353 -0.004929 0.002517 -0.021502 0.002413 0.004078 -0.003048 0.001106 -0.000062 -0.002667 -0.007951 0.012294 -0.002219 -0.006918 -0.013337 0.004603 -0.011443 0.012872 -0.003279 -0.005162 0.018873 0.021183 -0.000116 0.007821 0.003769 -0.002212 -0.008902 -0.000766 -0.017902 -0.011549 -0.006885 -0.013106 -0.006598 -0.007547 -0.007202 0.003553 0.000484 -0.008331 -0.015946 0.002182 0.006328 0.002334 -0.007724 0.012449 -0.003641 0.004522 0.006312 0.004529 0.004832 0.003357 0.012865 0.002467 0.012553 -0.000340 -0.001897 
lui -0.020032 -0.050544 0.035733 -0.004401 0.016981 -0.032068 -0.025466 -0.019082 -0.028484 0.062832 0.026194 0.094768 -0.040457 -0.050845 0.010671 0.131393 0.059882 0.038152 0.077031 0.025641 -0.044601 0.066513 0.044550 -0.036129 -0.014230 -0.027969 0.009815 0.027053 0.112967 0.027094 -0.061423 0.009398 -0.048296 0.023043 0.018591 -0.034964 0.006099 -0.008544 0.027942 -0.001599 -0.043583 0.049857 -0.048808 -0.072258 0.050945 0.034705 -0.005413 0.023487 -0.110565 -0.009792 0.009464 -0.044577 0.012277 -0.015913 0.003651 -0.065910 0.063300 -0.027306 -0.021412 -0.095715 0.011119 -0.064248 0.052960 -0.017695 -0.024084 0.090089 0.105150 0.006937 0.059542 0.043986 -0.029197 -0.039770 0.015734 -0.095513 -0.058959 -0.026098 -0.059896 -0.008948 -0.051084 -0.056950 0.038461 0.030122 -0.030168 -0.075454 0.029569 0.052083 0.005162 -0.037205 0.074831 -0.014361 -0.004556 0.033949 0.006760 0.019122 0.037669 0.051736 0.013885 0.073179 -0.009634 0.005388 
eu -0.001635 -0.016446 0.006401 0.003621 0.003091 -0.005211 -0.011490 -0.008790 -0.012350 0.012502 0.008249 0.020940 -0.011092 -0.009412 0.005452 0.031733 0.017089 0.005486 0.024530 0.009986 -0.007240 0.011851 0.014015 -0.013596 -0.004676 -0.012462 -0.001276 0.008961 0.025972 0.010205 -0.020884 0.003334 -0.016056 0.008064 0.006002 -0.008402 0.004373 -0.003997 0.006277 -0.004144 -0.011037 0.011681 -0.007716 -0.016115 0.014171 0.007260 -0.006550 0.005695 -0.027571 -0.001005 0.003989 -0.016067 0.000474 -0.004484 0.003907 -0.020101 0.020110 -0.005512 -0.002584 -0.030465 0.005242 -0.016414 0.012354 -0.001513 -0.009784 0.026447 0.027402 0.001729 0.016236 0.010634 -0.011248 -0.012641 0.007510 -0.026064 -0.012548 -0.003816 -0.013012 0.001898 -0.019189 -0.010445 0.014425 0.004905 -0.005184 -0.017140 0.007609 0.015037 -0.001253 -0.010477 0.017828 -0.006953 0.003498 0.013230 0.003935 0.009553 0.007081 0.014672 0.003779 0.021564 0.001412 0.004943 
pour -0.006054 -0.012259 0.009314 0.003595 0.003699 -0.009872 -0.009593 -0.008023 -0.010542 0.013217 0.006862 0.026681 -0.012854 -0.010114 0.004764 0.033744 0.018102 0.009430 0.018094 0.003619 -0.006958 0.015004 0.011612 -0.004597 -0.004400 -0.011430 0.000608 0.007190 0.030071 0.003928 -0.021469 0.002305 -0.012335 0.006334 0.005075 -0.005844 0.004264 0.003071 0.003591 0.004341 -0.009318 0.011528 -0.009391 -0.012452 0.011774 0.009526 0.002792 0.010835 -0.030020 -0.004848 -0.000493 -0.013986 0.003235 -0.002308 0.004216 -0.017658 0.013483 -0.011251 -0.006956 -0.020037 -0.001928 -0.011099 0.013668 -0.006483 -0.008920 0.019339 0.030168 0.004843 0.013560 0.009023 -0.005586 -0.005374 0.008382 -0.024739 -0.015623 -0.006882 -0.011771 -0.000114 -0.009366 -0.013094 0.011336 0.010871 -0.008092 -0.017748 0.003638 0.012660 0.001231 -0.005607 0.015834 0.000643 0.001966 0.009458 0.003359 0.002859 0.013040 0.013380 0.001153 0.020925 -0.007703 -0.000485 
dans -0.011742 -0.018174 0.017128 -0.002492 0.008038 -0.016298 -0.009232 -0.010515 -0.013628 0.025166 0.008025 0.036781 -0.018247 -0.018969 0.003952 0.046561 0.027760 0.010815 0.032785 0.014264 -0.018358 0.024738 0.019692 -0.013675 -0.011015 -0.012463 0.002663 0.005781 0.041263 0.004195 -0.024186 0.000190 -0.012780 0.013944 0.007503 -0.008559 -0.004259 -0.001442 0.010360 -0.001318 -0.012278 0.016011 -0.018480 -0.025497 0.021686 0.012697 -0.000494 0.005168 -0.040518 -0.003196 0.007238 -0.020991 0.005039 0.000226 -0.000332 -0.020566 0.024138 -0.011938 -0.003867 -0.043484 0.002124 -0.026766 0.022702 -0.011602 -0.007627 0.038859 0.041075 0.005365 0.022839 0.019693 -0.009354 -0.012382 0.004108 -0.035748 -0.016931 -0.013484 -0.025105 -0.001770 -0.018670 -0.023750 0.015163 0.005574 -0.014223 -0.025403 0.013165 0.018748 -0.000818 -0.016417 0.024326 -0.008047 0.002018 0.010805 0.005012 0.005044 0.016408 0.020061 0.007089 0.029977 -0.005982 -0.001711 
t'étais -0.005163 -0.012833 0.006436 0.000598 -0.001661 -0.002707 -0.007603 -0.008346 -0.009064 0.010894 0.001789 0.019097 -0.007198 -0.010452 0.001193 0.022982 0.014034 0.004073 0.006780 0.001943 -0.003501 0.013274 0.004009 -0.003650 0.000752 -0.000229 0.005074 0.001839 0.018597 -0.000279 -0.009153 0.003413 -0.010849 -0.000357 0.008783 -0.004427 0.002201 0.001389 0.008668 -0.003208 -0.002767 0.006053 -0.007836 -0.008412 0.006115 0.001275 -0.006265 0.008431 -0.020826 -0.004973 -0.000494 -0.007483 0.003094 -0.004279 -0.002261 -0.010002 0.005725 -0.004222 -0.000127 -0.018037 0.001779 -0.009978 0.008605 -0.003256 0.000386 0.017849 0.011838 0.005478 0.008048 0.006497 -0.007898 -0.004979 0.003901 -0.011842 -0.013383 0.000222 -0.011200 0.003174 -0.011559 -0.009246 0.006455 0.008353 -0.009363 -0.006983 0.003488 0.008496 0.002743 -0.005005 0.011441 0.002244 -0.002766 0.007286 0.003266 0.005431 0.011724 0.010196 0.005352 0.011608 -0.000835 0.002407 
les -0.005468 -0.011025 0.000474 -0.000610 0.003942 -0.008761 -0.005686 -0.003684 -0.004830 0.009817 0.007837 0.012008 -0.001135 -0.007556 0.001791 0.022130 0.006445 0.005562 0.014368 -0.000877 -0.002403 0.005553 0.004331 -0.006901 0.000539 -0.002496 -0.004098 0.000764 0.019027 0.006793 -0.007122 0.002645 -0.009709 0.004971 0.002696 -0.004785 0.000353 -0.003939 0.000559 -0.002228 -0.004887 0.012684 -0.009314 -0.010465 0.006092 0.006195 -0.002104 0.008117 -0.019300 -0.002932 0.002089 -0.003995 0.001244 -0.004932 0.004205 -0.011125 0.013041 -0.004250 -0.002049 -0.019337 0.003763 -0.013146 0.007052 0.001004 -0.007373 0.017429 0.014363 0.005074 0.008332 0.001834 -0.004502 -0.006832 0.005243 -0.016362 -0.012312 0.000558 -0.004830 0.002280 -0.003732 -0.009281 0.002076 -0.000527 -0.001821 -0.007360 0.009223 0.003052 0.004757 -0.005012 0.007198 -0.005860 0.002181 0.002040 0.005074 -0.000700 0.008372 0.007248 -0.001494 0.015696 0.002487 0.001942 
ne -0.009039 -0.020588 0.016912 0.003511 0.005277 -0.016306 -0.010687 -0.007009 -0.013264 0.033103 0.015826 0.040707 -0.020629 -0.020414 0.007336 0.055848 0.029282 0.018248 0.035256 0.008716 -0.020452 0.029193 0.019888 -0.015788 -0.002411 -0.008936 0.003250 0.010052 0.048028 0.014251 -0.035292 0.006392 -0.017624 0.011382 0.014271 -0.013846 -0.000276 -0.006501 0.014737 0.003321 -0.021549 0.024659 -0.020040 -0.035101 0.020834 0.016875 -0.009097 0.014305 -0.051537 -0.010144 0.008010 -0.025367 0.010109 -0.002554 0.004427 -0.029238 0.023986 -0.011748 -0.004107 -0.043842 0.001981 -0.026954 0.024087 -0.004942 -0.007449 0.045462 0.051886 0.003916 0.027981 0.021282 -0.017317 -0.020778 0.010659 -0.045359 -0.022940 -0.011214 -0.028923 0.000521 -0.020848 -0.022565 0.023753 0.010316 -0.012942 -0.035498 0.011713 0.028931 0.000752 -0.018767 0.031709 -0.010272 0.003742 0.013081 0.005408 0.005419 0.021721 0.024171 0.004282 0.039817 -0.005094 -0.002234 
parce -0.011684 -0.024679 0.012520 0.004904 0.010654 -0.011485 -0.009886 -0.010221 -0.010412 0.030648 0.009850 0.036250 -0.012596 -0.019680 0.001923 0.056406 0.029064 0.017628 0.034314 0.014159 -0.015913 0.025188 0.018053 -0.019583 -0.003547 -0.013169 0.003933 0.010425 0.046748 0.014064 -0.025575 0.006385 -0.015445 0.011169 0.012656 -0.018038 0.000745 0.000408 0.016491 -0.001466 -0.011673 0.023164 -0.018736 -0.025971 0.022364 0.010518 -0.008079 0.011296 -0.045682 -0.006170 0.007083 -0.018576 0.001106 -0.004845 0.002801 -0.028064 0.021239 -0.011259 -0.013056 -0.037843 0.007954 -0.022332 0.019329 -0.006665 -0.012054 0.038798 0.038393 0.000956 0.021633 0.019399 -0.009241 -0.014456 0.004191 -0.041028 -0.027171 -0.009128 -0.024582 -0.008002 -0.021977 -0.020644 0.021697 0.014990 -0.015342 -0.029929 0.012870 0.021783 -0.002657 -0.014579 0.029793 -0.005770 0.003525 0.013809 0.003919 0.007968 0.018314 0.025733 0.001756 0.031602 -0.000909 -0.002392 
*** -0.017110 -0.036702 0.024080 -0.001832 0.018182 -0.020852 -0.018826 -0.010218 -0.020051 0.047569 0.018980 0.065763 -0.025540 -0.035617 0.008755 0.094950 0.039844 0.022120 0.051023 0.018953 -0.026532 0.042219 0.030603 -0.028482 -0.006840 -0.018219 0.003968 0.017748 0.082181 0.013569 -0.049755 0.012865 -0.033180 0.016011 0.012403 -0.025063 -0.001875 -0.001149 0.018767 -0.000282 -0.026812 0.041360 -0.034641 -0.054338 0.035325 0.020049 -0.010054 0.016193 -0.074650 -0.007798 0.003057 -0.031690 0.009032 -0.005254 0.002870 -0.043296 0.043394 -0.025215 -0.009695 -0.069845 0.006222 -0.040245 0.031137 -0.017039 -0.019140 0.067583 0.075702 0.004291 0.041399 0.031248 -0.019993 -0.029126 0.012597 -0.069088 -0.040259 -0.023111 -0.046605 -0.008272 -0.041379 -0.041533 0.026295 0.013351 -0.023493 -0.056029 0.017022 0.036402 -0.004365 -0.032955 0.047606 -0.013846 0.003109 0.028289 0.006506 0.011400 0.028977 0.039692 0.012289 0.058502 -0.004536 0.000154 
avec -0.003942 -0.005840 0.001610 0.000522 0.006601 -0.007469 -0.005573 -0.001764 -0.007111 0.002545 -0.001679 0.012434 0.000290 -0.008109 0.000704 0.017366 0.009089 0.003825 0.004550 0.006965 -0.000961 0.011957 0.004258 -0.005129 -0.003679 -0.005656 0.002373 0.005761 0.016944 0.007626 -0.007899 0.006557 -0.009370 -0.000972 0.004629 -0.008137 -0.003494 0.003286 0.003971 -0.002226 -0.009324 0.007446 -0.005845 -0.010307 0.007470 -0.000077 0.002896 0.006005 -0.013280 -0.001712 0.004905 -0.009867 0.003347 0.000470 0.001119 -0.009591 0.004162 -0.005945 -0.004732 -0.016205 -0.002002 -0.003187 0.007778 -0.005233 -0.000153 0.010443 0.013773 0.004500 0.005377 0.003655 -0.003810 -0.006517 -0.003167 -0.015093 -0.008506 -0.006923 -0.006723 -0.006230 -0.001909 -0.009567 0.001107 0.001073 -0.007477 -0.008397 0.003383 0.002536 -0.002749 -0.005187 0.005832 -0.006445 -0.000803 0.004579 0.002184 0.003118 0.004698 0.007875 0.002271 0.011302 -0.003658 0.005403 
j'avais -0.005473 -0.016211 0.018425 0.001685 0.003732 -0.013732 -0.006293 -0.009702 -0.012046 0.025408 0.009023 0.039023 -0.009192 -0.012755 -0.000093 0.045303 0.022361 0.013204 0.026768 0.013970 -0.017660 0.024311 0.013562 -0.014588 -0.001071 -0.015198 0.005743 0.008863 0.040772 0.011840 -0.025798 0.003025 -0.019290 0.005430 0.012607 -0.013763 -0.002522 -0.004733 0.014689 0.003348 -0.016413 0.014784 -0.015486 -0.022933 0.022497 0.009727 -0.004076 0.007187 -0.041283 -0.004259 0.000431 -0.014660 0.005489 -0.009345 0.001834 -0.022085 0.021821 -0.011559 -0.004151 -0.035274 0.001362 -0.020638 0.014042 -0.011541 -0.007809 0.030592 0.038378 -0.000318 0.019002 0.010694 -0.011838 -0.013068 0.003713 -0.036720 -0.022425 -0.014164 -0.019712 -0.001659 -0.021738 -0.018795 0.013968 0.009665 -0.011396 -0.023323 0.013801 0.017805 -0.001221 -0.019255 0.031342 -0.004680 -0.002496 0.009550 0.002328 0.006618 0.012856 0.015569 0.003206 0.032664 -0.003029 0.002667 
y -0.010610 -0.025161 0.019593 0.002958 0.009822 -0.017099 -0.011334 -0.008660 -0.011590 0.035504 0.016719 0.048467 -0.019694 -0.026279 0.006544 0.063858 0.027363 0.016031 0.039783 0.016899 -0.021869 0.031768 0.021324 -0.014707 -0.009744 -0.011749 -0.000864 0.012681 0.060731 0.012225 -0.035761 0.002024 -0.018509 0.009693 0.008797 -0.019144 0.000817 -0.005846 0.015971 0.001102 -0.015729 0.028153 -0.028093 -0.035910 0.026786 0.017900 0.000394 0.007554 -0.055927 -0.010918 0.007008 -0.018985 0.004229 -0.008779 0.007235 -0.026546 0.030253 -0.018234 -0.009780 -0.053589 0.004641 -0.035415 0.025924 -0.015242 -0.015470 0.045548 0.052840 0.007651 0.029899 0.023810 -0.010356 -0.016180 0.002888 -0.048075 -0.027073 -0.010763 -0.028099 -0.007854 -0.033238 -0.033003 0.023494 0.015777 -0.019050 -0.038504 0.019892 0.031058 -0.003031 -0.021840 0.037901 -0.009341 -0.001407 0.015161 0.003351 0.009336 0.019046 0.023086 0.009855 0.038030 -0.007659 -0.001314 
pendant -0.011437 -0.038921 0.030726 -0.000733 0.012604 -0.017001 -0.013000 -0.014819 -0.024438 0.044094 0.018231 0.066805 -0.029035 -0.035171 0.008047 0.085730 0.045972 0.022182 0.054979 0.014156 -0.027115 0.040490 0.035913 -0.025773 -0.014939 -0.021903 0.006162 0.019430 0.074873 0.013914 -0.044136 0.006996 -0.033848 0.019672 0.014707 -0.024468 0.001309 -0.006152 0.024201 -0.001348 -0.028349 0.035194 -0.029112 -0.052599 0.038071 0.020870 -0.010549 0.012383 -0.073603 -0.010628 0.002803 -0.036501 0.005809 -0.004338 -0.001467 -0.046370 0.046937 -0.022201 -0.011389 -0.067874 0.008405 -0.037151 0.035853 -0.018331 -0.017299 0.066369 0.072306 0.003315 0.041423 0.026946 -0.023877 -0.025438 0.013124 -0.067279 -0.039412 -0.022113 -0.044398 -0.004962 -0.040612 -0.040643 0.028388 0.016422 -0.028038 -0.051790 0.021265 0.038032 0.002230 -0.032170 0.053983 -0.014510 -0.003862 0.027435 0.006727 0.015037 0.024045 0.031565 0.006241 0.054450 -0.011638 0.008474 
était -0.009565 -0.017305 0.015720 -0.002203 0.003767 -0.005445 -0.004094 -0.006314 -0.013378 0.019243 0.003144 0.024146 -0.011166 -0.016293 0.003785 0.032915 0.022892 0.014162 0.024647 0.005930 -0.009141 0.018705 0.010607 -0.012837 -0.008534 -0.005644 -0.001212 0.006524 0.033732 0.005036 -0.021410 0.005619 -0.011297 0.003482 0.005582 -0.012353 0.003172 -0.003895 0.010853 -0.004003 -0.009436 0.012902 -0.013501 -0.024662 0.014959 0.012008 -0.002722 0.011858 -0.032084 -0.008885 0.003576 -0.009634 0.008514 0.000359 0.005637 -0.022775 0.021114 -0.003974 -0.002212 -0.033403 -0.000947 -0.013846 0.010135 -0.002706 -0.010993 0.028260 0.029526 0.000469 0.014391 0.011830 -0.012393 -0.016212 0.004419 -0.023658 -0.017328 -0.009155 -0.016810 -0.004406 -0.020730 -0.019145 0.016606 0.012412 -0.005933 -0.019055 0.004216 0.010802 -0.003681 -0.015503 0.022428 -0.000141 -0.004752 0.005601 0.006441 0.003503 0.010639 0.012298 0.006676 0.017901 -0.008157 0.005845 
elle -0.006914 -0.004076 -0.001722 -0.002222 -0.000130 -0.005742 0.001566 0.003096 0.000398 0.005637 -0.001409 0.011332 -0.002148 -0.000843 0.003966 0.015174 0.002698 0.007998 0.009639 0.002706 -0.003393 0.006497 0.006921 -0.004602 -0.001191 -0.003381 -0.001335 0.007064 0.008256 -0.000587 -0.008963 0.003233 -0.001016 0.001249 0.002784 0.000867 -0.002770 -0.002162 0.006743 0.004284 -0.008368 0.006051 -0.000130 -0.003531 0.001367 0.000942 -0.003733 0.001254 -0.009751 0.001716 -0.002243 -0.006263 0.001192 -0.003913 -0.003117 -0.001831 0.002513 -0.003691 0.000608 -0.013365 -0.003544 -0.007570 0.008408 0.002152 -0.002096 0.003139 0.010870 0.003104 0.001495 0.000880 -0.002245 -0.006985 -0.000689 -0.007334 -0.008831 0.001933 -0.000282 0.002278 -0.007336 -0.007580 0.006200 0.000813 -0.007608 -0.008625 0.002273 0.004954 -0.004434 -0.001032 0.001594 -0.004713 0.002767 0.001944 0.004780 -0.002557 0.000275 0.002732 -0.000387 0.007038 -0.002649 0.004669 
RIRE -0.021219 -0.047154 0.034148 0.001508 0.019244 -0.026662 -0.015565 -0.017384 -0.020952 0.048572 0.022791 0.075960 -0.034811 -0.035532 0.010540 0.105538 0.051130 0.031880 0.059495 0.025885 -0.031139 0.053688 0.035320 -0.034581 -0.011408 -0.021896 -0.000491 0.015268 0.087560 0.022341 -0.052540 0.007904 -0.038901 0.023324 0.018157 -0.025663 -0.003522 -0.001312 0.023718 -0.002923 -0.030805 0.038462 -0.033032 -0.054614 0.041782 0.029013 -0.006833 0.016685 -0.084975 -0.008745 0.007210 -0.037943 0.014365 -0.013096 0.004535 -0.054232 0.049608 -0.026668 -0.016686 -0.083544 0.003003 -0.053953 0.038499 -0.019880 -0.022415 0.070893 0.086962 0.006165 0.044690 0.028971 -0.024980 -0.032568 0.012135 -0.069421 -0.045165 -0.022342 -0.054806 -0.002624 -0.049244 -0.049220 0.036352 0.020969 -0.031063 -0.061278 0.028377 0.043366 -0.001800 -0.033957 0.058184 -0.011729 -0.002409 0.029495 0.005404 0.022201 0.033984 0.039131 0.013774 0.059823 -0.007428 0.001139 
qui -0.016698 -0.030947 0.022702 0.003581 0.011637 -0.014253 -0.009321 -0.010794 -0.014529 0.037933 0.010356 0.051198 -0.024357 -0.027643 0.004323 0.067705 0.037826 0.018536 0.038906 0.018766 -0.023254 0.033799 0.028312 -0.021704 -0.010768 -0.014249 0.004238 0.015286 0.063918 0.010322 -0.039778 0.009991 -0.022853 0.010899 0.014684 -0.015817 0.001340 -0.006106 0.018716 0.003758 -0.023678 0.027437 -0.019945 -0.041069 0.025804 0.017199 -0.000352 0.015815 -0.060780 -0.009152 0.003097 -0.020609 0.008021 -0.007117 -0.002048 -0.034128 0.031331 -0.018172 -0.014494 -0.052421 0.002193 -0.035667 0.021248 -0.015737 -0.016284 0.053577 0.054006 0.004820 0.030637 0.021229 -0.019115 -0.020055 0.011562 -0.043942 -0.033250 -0.019354 -0.030275 -0.001221 -0.032219 -0.029701 0.019481 0.018139 -0.015124 -0.042514 0.018576 0.025687 0.002499 -0.019311 0.039043 -0.006319 -0.004438 0.019640 0.007934 0.014631 0.021514 0.026235 0.002942 0.040294 -0.005061 -0.000944 
là -0.007713 -0.024351 0.023288 0.000771 0.011537 -0.016555 -0.016388 -0.012413 -0.016722 0.035081 0.006711 0.046856 -0.017396 -0.022670 0.008183 0.062512 0.033956 0.018877 0.038657 0.010663 -0.017007 0.032587 0.023563 -0.012474 -0.010998 -0.016111 0.004209 0.007906 0.055946 0.014386 -0.033817 0.008300 -0.025662 0.012640 0.010660 -0.011102 -0.000308 -0.003905 0.013990 0.002722 -0.016819 0.028212 -0.022140 -0.038050 0.027430 0.016031 -0.007014 0.011168 -0.053749 -0.001385 0.005958 -0.023997 0.003931 -0.002829 0.006691 -0.027554 0.030784 -0.012724 -0.011087 -0.050134 0.005119 -0.032828 0.024032 -0.006820 -0.014437 0.040749 0.049701 0.002756 0.023673 0.016325 -0.014805 -0.017735 0.004542 -0.043253 -0.027727 -0.010807 -0.031607 -0.001019 -0.027923 -0.025128 0.019474 0.008101 -0.020847 -0.034176 0.015268 0.026501 0.001705 -0.017442 0.031726 -0.004889 -0.000013 0.017189 0.006155 0.006036 0.017940 0.020089 0.008973 0.038785 -0.008839 0.001998 
fait -0.018299 -0.030946 0.029649 0.002439 0.018034 -0.024603 -0.011951 -0.011389 -0.017558 0.046130 0.021408 0.060897 -0.021553 -0.035374 0.013237 0.082888 0.037655 0.021334 0.053417 0.022609 -0.025412 0.042823 0.028857 -0.027946 -0.010150 -0.016309 0.007377 0.018783 0.070896 0.011666 -0.045734 0.008812 -0.033497 0.017351 0.019815 -0.024050 0.001542 -0.004735 0.026495 -0.004639 -0.029655 0.034744 -0.033806 -0.042606 0.032593 0.023467 -0.006891 0.010849 -0.070744 -0.007803 0.009023 -0.030221 0.010522 -0.010113 0.005398 -0.044009 0.041276 -0.019241 -0.009612 -0.064200 0.006412 -0.042581 0.028813 -0.016912 -0.020484 0.065006 0.070616 -0.001304 0.034763 0.027103 -0.017089 -0.024495 0.012387 -0.065921 -0.033517 -0.022664 -0.037557 -0.006840 -0.038020 -0.041295 0.024056 0.020898 -0.025588 -0.048487 0.019900 0.040224 0.002299 -0.026938 0.049526 -0.004580 -0.001937 0.028652 0.003631 0.012079 0.025564 0.029670 0.008449 0.055679 -0.004328 -0.000122 
ça, -0.014695 -0.026203 0.021854 0.001396 0.008789 -0.015041 -0.013583 -0.010169 -0.014336 0.034578 0.007035 0.048440 -0.014618 -0.017521 0.002896 0.064058 0.027839 0.013950 0.031508 0.008570 -0.017731 0.027260 0.021933 -0.016932 -0.005141 -0.018344 0.000564 0.008647 0.053974 0.015122 -0.031988 0.005293 -0.016367 0.009479 0.011975 -0.011194 -0.003839 -0.001901 0.012103 -0.002801 -0.023023 0.020505 -0.025111 -0.032858 0.024716 0.016920 -0.001996 0.009374 -0.054658 -0.008160 0.001042 -0.016831 0.002280 -0.007786 -0.000207 -0.030056 0.028222 -0.011672 -0.007121 -0.045196 0.006687 -0.027028 0.026930 -0.013045 -0.008639 0.046743 0.054431 0.002113 0.029104 0.019837 -0.011797 -0.021099 0.010018 -0.048330 -0.022696 -0.010745 -0.031417 -0.004429 -0.023253 -0.030271 0.016212 0.009953 -0.013163 -0.037497 0.012841 0.023051 0.000125 -0.017427 0.030929 -0.010747 0.001406 0.017418 0.001066 0.007944 0.020468 0.021714 0.011108 0.032606 -0.002213 0.001424 
ta -0.000382 -0.005727 0.004341 0.001384 0.001971 0.002129 -0.005192 -0.004871 -0.005796 0.009335 0.001422 0.005797 -0.005708 -0.007480 0.005692 0.012319 0.006785 0.006779 0.002781 -0.001511 0.001393 0.003225 0.001085 -0.000616 -0.001513 -0.000431 -0.003015 0.002852 0.013028 -0.000524 -0.007443 0.001337 -0.002600 0.006430 -0.000718 -0.004539 -0.001366 0.000171 -0.002707 0.004763 -0.007539 0.002026 -0.000839 -0.001355 0.001225 0.003621 0.001142 0.003221 -0.012085 -0.001843 0.001841 0.001791 0.004279 -0.001550 -0.000517 -0.008726 0.008244 0.001847 -0.005071 -0.010076 -0.003698 -0.006778 0.001818 -0.006292 -0.002046 0.004996 0.006856 -0.001621 0.001506 0.007710 -0.002806 -0.007410 -0.003894 -0.007390 -0.004102 -0.000112 -0.005104 -0.004750 0.001145 -0.001145 0.003918 0.004219 -0.002051 -0.009246 0.004727 0.001572 -0.004035 0.000469 0.003944 0.003203 0.002155 -0.000161 -0.001131 -0.002385 0.006932 0.007340 0.000804 0.006355 -0.004738 0.001257 
se -0.015510 -0.030783 0.020182 -0.000633 0.006920 -0.017195 -0.009457 -0.008122 -0.014137 0.033071 0.016627 0.048689 -0.024317 -0.021463 0.002377 0.069973 0.035681 0.023820 0.037679 0.018134 -0.019344 0.036253 0.027755 -0.019767 -0.008459 -0.013616 0.007712 0.017638 0.059707 0.013321 -0.036323 0.002775 -0.027259 0.012902 0.016809 -0.020322 -0.003228 -0.006680 0.019776 -0.002845 -0.016822 0.026561 -0.026930 -0.042271 0.029418 0.018999 -0.008724 0.011108 -0.054776 -0.008310 0.001180 -0.027167 0.007371 -0.007439 0.003447 -0.036896 0.035818 -0.018743 -0.008402 -0.053999 0.005692 -0.032847 0.023863 -0.015269 -0.016424 0.046760 0.051099 -0.000326 0.026798 0.023454 -0.017257 -0.016158 0.005320 -0.052038 -0.032756 -0.018179 -0.034476 -0.004242 -0.027392 -0.031718 0.025290 0.015901 -0.017740 -0.034576 0.013362 0.033135 0.003769 -0.016445 0.035463 -0.008189 0.003795 0.015710 0.009318 0.008264 0.022619 0.025179 0.007143 0.045351 -0.003803 0.003426 
fin -0.006249 -0.017995 0.007405 -0.004205 0.006971 -0.003540 -0.002821 -0.004752 -0.011229 0.012623 0.010362 0.027273 -0.014154 -0.008253 0.003235 0.036698 0.020511 0.005592 0.019773 0.003725 -0.009650 0.015939 0.014074 -0.011470 -0.007778 -0.006193 0.002553 0.009663 0.029630 0.005250 -0.012774 -0.000616 -0.008725 0.003732 0.009650 -0.008561 -0.003899 -0.002838 0.012226 -0.001975 -0.006214 0.013703 -0.009710 -0.017481 0.010067 0.009401 0.002457 0.003252 -0.024595 -0.006220 -0.002318 -0.008999 -0.000177 -0.004210 -0.001903 -0.014360 0.014320 -0.002942 -0.009139 -0.022972 0.005993 -0.012447 0.014234 -0.009167 -0.011297 0.020230 0.021720 -0.002238 0.015119 0.011390 -0.005935 -0.011651 0.006045 -0.020763 -0.009480 -0.006699 -0.015081 -0.002444 -0.018343 -0.010763 0.011473 0.002625 -0.003948 -0.017701 0.009331 0.009102 -0.003269 -0.011671 0.020958 -0.008308 -0.003361 0.012953 0.000013 0.009680 0.005172 0.011695 0.003368 0.014370 -0.000056 -0.002249 
ton -0.008367 -0.010509 0.012661 0.001795 0.006625 -0.004282 -0.002670 -0.001729 -0.003005 0.011002 0.007572 0.025825 -0.008441 -0.007980 0.002745 0.033544 0.013407 0.009523 0.019011 0.004657 -0.013294 0.019413 0.014160 -0.009743 -0.002766 -0.003243 0.005632 0.010783 0.030843 0.006746 -0.020345 0.002138 -0.006659 0.007639 0.007120 -0.009322 0.001497 -0.000374 0.005284 0.000046 -0.011109 0.011959 -0.007338 -0.021846 0.012450 0.005293 -0.001700 0.002752 -0.030891 0.000574 0.004475 -0.009545 0.005995 -0.001214 -0.003261 -0.017992 0.009941 -0.005418 -0.005558 -0.020434 0.000923 -0.019062 0.016307 -0.009616 -0.005079 0.020451 0.030069 -0.000456 0.014723 0.006588 -0.009348 -0.010035 0.006612 -0.021159 -0.012497 -0.005872 -0.013859 -0.000080 -0.016575 -0.008774 0.012364 0.001238 -0.009516 -0.019862 0.005383 0.010004 0.003617 -0.011636 0.017895 -0.005921 -0.001015 0.004202 -0.002272 0.003529 0.008022 0.016918 0.002480 0.022227 0.001439 0.002552 
au -0.002613 -0.010554 0.012083 0.002234 0.003420 -0.005893 -0.001276 -0.005597 -0.004890 0.018517 0.004398 0.017976 -0.008120 -0.005872 0.003845 0.027255 0.019060 0.008977 0.013482 0.008268 -0.013722 0.015573 0.005684 -0.007145 -0.001984 -0.008274 -0.000342 0.002839 0.022951 0.002586 -0.016392 -0.000349 -0.005972 0.010199 0.009706 -0.009188 0.004638 -0.002401 0.010153 0.001199 -0.005752 0.015123 -0.013851 -0.016383 0.010821 0.008363 -0.003813 0.005193 -0.022982 -0.000952 -0.002101 -0.011084 0.006088 0.000451 -0.002126 -0.014780 0.012243 -0.009237 -0.001316 -0.020171 -0.001680 -0.015391 0.010867 -0.008958 -0.009626 0.026346 0.025267 -0.001923 0.013621 0.014224 -0.009241 -0.013178 -0.000629 -0.020169 -0.012820 -0.009102 -0.015747 -0.004539 -0.010926 -0.017550 0.008410 0.007502 -0.007527 -0.017133 0.006780 0.015851 0.004300 -0.007888 0.012732 0.001081 0.004300 0.010088 -0.001596 0.003289 0.004334 0.009890 0.002777 0.021494 0.000916 0.000362 
te -0.011930 -0.024628 0.015094 0.004114 0.008987 -0.016472 -0.012481 -0.012275 -0.014677 0.030781 0.011313 0.047076 -0.020047 -0.021314 0.006383 0.061442 0.025544 0.017798 0.029455 0.007476 -0.015058 0.027199 0.021572 -0.012878 -0.011157 -0.017127 -0.000767 0.014618 0.052566 0.010901 -0.027983 0.008851 -0.024076 0.013728 0.013396 -0.019145 0.003757 -0.001297 0.017117 0.000228 -0.018275 0.026771 -0.025392 -0.035313 0.018657 0.009352 -0.007752 0.010873 -0.052082 -0.007988 -0.000733 -0.017389 0.009541 -0.003189 0.005663 -0.028778 0.024351 -0.010452 -0.004168 -0.042485 0.000242 -0.031516 0.017374 -0.007415 -0.017231 0.043563 0.050794 0.001730 0.021708 0.021395 -0.009354 -0.020446 0.006850 -0.037372 -0.030075 -0.010521 -0.032421 -0.004018 -0.026962 -0.025705 0.022969 0.014194 -0.015536 -0.028539 0.016718 0.027956 0.001763 -0.020983 0.030880 -0.009610 -0.002943 0.019743 0.006508 0.009054 0.022685 0.025818 0.010641 0.035001 -0.003786 -0.000319 
si -0.009296 -0.023028 0.018237 -0.003087 0.013055 -0.013339 -0.010824 -0.010796 -0.018999 0.035014 0.017194 0.050648 -0.015048 -0.027956 0.005536 0.062019 0.034816 0.020772 0.041399 0.011231 -0.021012 0.029902 0.018497 -0.020254 -0.011110 -0.014683 0.001976 0.009819 0.059592 0.008768 -0.029302 0.002846 -0.025336 0.014909 0.011695 -0.016058 0.005510 -0.004616 0.018755 0.000394 -0.023638 0.028871 -0.025213 -0.036082 0.029607 0.011094 -0.000223 0.006587 -0.049295 -0.006763 0.008383 -0.020628 0.010319 -0.007150 0.002986 -0.034366 0.033164 -0.014730 -0.009881 -0.053822 0.008301 -0.027778 0.025936 -0.009345 -0.009990 0.044472 0.048874 -0.001601 0.024991 0.022718 -0.013865 -0.024246 0.004677 -0.044136 -0.032202 -0.015303 -0.035999 -0.009372 -0.032277 -0.033434 0.015958 0.008212 -0.018039 -0.036332 0.012006 0.024624 0.000719 -0.022508 0.035245 -0.009504 -0.004711 0.014109 0.000948 0.006022 0.014943 0.022938 0.007570 0.041047 -0.005740 0.007540 
pas, -0.011978 -0.026232 0.025239 0.003069 0.011906 -0.019781 -0.013924 -0.011584 -0.020743 0.040635 0.016298 0.054786 -0.024710 -0.027765 0.006562 0.076152 0.037870 0.024970 0.038667 0.017075 -0.029093 0.040103 0.024235 -0.021622 -0.011743 -0.021362 0.007992 0.011407 0.063122 0.009039 -0.041038 0.003484 -0.030766 0.010977 0.014348 -0.015133 0.002613 0.000011 0.018593 -0.004180 -0.024838 0.028086 -0.023010 -0.046200 0.030131 0.018640 -0.010082 0.017901 -0.067140 -0.009560 0.001573 -0.028331 0.012398 -0.010450 -0.001843 -0.038481 0.034966 -0.021478 -0.011878 -0.057178 0.000284 -0.039308 0.030430 -0.010134 -0.015044 0.058859 0.065875 0.000611 0.026854 0.019799 -0.010848 -0.018413 0.009455 -0.052972 -0.031271 -0.011078 -0.032796 -0.004231 -0.035499 -0.032834 0.024991 0.016452 -0.016197 -0.043486 0.021166 0.031182 -0.000828 -0.025927 0.044127 -0.005229 -0.000441 0.017729 0.010732 0.008035 0.024319 0.030224 0.004946 0.045854 -0.002260 0.007664 
pense -0.013080 -0.030406 0.016084 -0.003620 0.015389 -0.013131 -0.016965 -0.013408 -0.017384 0.032887 0.017081 0.050586 -0.022800 -0.021554 0.002715 0.069524 0.034532 0.017540 0.035038 0.014513 -0.027021 0.030460 0.020255 -0.023096 -0.004478 -0.013149 -0.001112 0.014445 0.060347 0.007730 -0.035021 0.010125 -0.020189 0.009965 0.014600 -0.015202 -0.001418 -0.000817 0.020972 0.003212 -0.018329 0.022387 -0.026516 -0.032185 0.029690 0.016570 -0.000488 0.011228 -0.053195 -0.009699 0.005826 -0.026774 0.007009 -0.004295 0.001140 -0.033057 0.034719 -0.017072 -0.013170 -0.054678 0.003666 -0.032318 0.025524 -0.013314 -0.015686 0.051407 0.058973 0.001946 0.030793 0.020454 -0.015055 -0.018057 0.004787 -0.047771 -0.033590 -0.013719 -0.031369 -0.006098 -0.031355 -0.030541 0.023354 0.016513 -0.016015 -0.041130 0.010613 0.032162 -0.003369 -0.016257 0.041002 -0.006027 0.002721 0.023083 0.002298 0.011750 0.016604 0.030030 0.011456 0.038138 -0.003241 0.003471 
petite? -0.003312 -0.006818 0.000568 0.004648 0.003998 0.001306 -0.001472 -0.001281 -0.002719 0.006417 -0.002631 0.005294 0.002268 -0.003619 -0.002617 0.004171 0.003061 0.005207 0.001574 0.003606 -0.006357 0.005111 -0.003446 -0.005620 -0.005525 -0.000995 -0.001492 0.004263 0.004382 0.003019 -0.007061 0.005084 0.002066 0.000121 -0.003914 -0.001776 -0.000313 0.002740 0.000361 0.002288 -0.004671 -0.000377 -0.000004 -0.004643 0.006648 0.001500 -0.002286 -0.003730 -0.007675 0.001126 -0.001893 0.003099 -0.002418 0.002118 0.003024 -0.002800 0.005910 -0.003583 -0.004690 -0.008010 -0.002713 0.001548 0.006608 0.001051 -0.001056 0.004372 0.000625 -0.001781 -0.001493 0.002965 0.003872 -0.003796 -0.003764 -0.004044 -0.000236 -0.004027 -0.005009 0.001054 0.003293 0.002150 0.004869 -0.001121 0.001184 -0.003294 0.000602 0.001936 -0.004076 -0.004709 0.005761 0.002503 -0.000738 0.002766 0.005386 0.004414 0.000873 0.004021 -0.002804 0.004163 0.003705 -0.000347 
après 0.000438 -0.011256 0.002645 -0.003085 -0.001294 -0.006121 -0.006240 -0.004715 -0.005036 0.011657 0.001781 0.013374 -0.005932 -0.006536 0.005157 0.020696 0.013902 0.002504 0.017860 0.001773 -0.005321 0.008065 0.006142 -0.005979 0.000265 -0.003801 0.000480 -0.000157 0.024755 0.003529 -0.015367 0.006176 -0.004896 0.007965 0.006847 -0.007292 -0.004442 -0.003909 0.005580 0.004904 -0.003844 0.007218 -0.012596 -0.011565 0.007239 0.008887 -0.003812 0.003028 -0.023792 -0.002246 0.000802 -0.007665 0.006342 -0.003382 0.003891 -0.008837 0.012610 -0.007483 -0.008428 -0.015772 0.003898 -0.014963 0.004272 -0.002039 -0.002835 0.012785 0.023808 0.004553 0.006144 0.009878 -0.007845 -0.003954 0.000129 -0.014074 -0.011357 -0.005801 -0.014045 0.002959 -0.010571 -0.007059 0.007544 0.006913 -0.006924 -0.016174 0.010218 0.008709 0.003157 -0.009830 0.013881 -0.000605 -0.003684 0.008865 0.003688 0.004522 0.006842 0.011752 0.004040 0.011255 0.000597 0.002626 
du -0.005767 -0.012830 0.007357 0.004645 0.006553 -0.009909 -0.006101 -0.002894 -0.009184 0.015495 0.000520 0.018119 -0.011837 -0.005883 0.007711 0.020435 0.008233 0.003505 0.012307 0.000352 -0.007069 0.015320 0.012335 -0.011578 -0.001953 -0.002272 0.000103 0.000581 0.022469 0.001192 -0.016054 0.004862 -0.007917 0.004143 0.002956 -0.006245 -0.002288 -0.003735 0.009113 -0.004397 -0.011503 0.009660 -0.009735 -0.012160 0.009931 0.005910 -0.005294 0.003601 -0.020420 0.000788 0.002016 -0.011683 0.004418 0.002227 -0.002669 -0.010013 0.012451 -0.001089 0.000762 -0.014794 0.004095 -0.006844 0.004208 -0.006888 -0.001943 0.016624 0.022530 -0.001509 0.013719 0.004066 -0.001064 -0.004332 -0.000823 -0.021868 -0.013436 -0.000425 -0.014645 -0.004462 -0.006960 -0.014948 0.009789 0.001819 -0.008904 -0.012218 0.008618 0.012987 0.004996 -0.006703 0.014913 0.000702 -0.004544 0.010556 0.006000 0.003679 0.007055 0.013851 -0.000709 0.011983 0.000917 -0.000438 
sinon -0.011290 -0.022111 0.019657 0.003798 0.008424 -0.016620 -0.011434 -0.009008 -0.011163 0.034347 0.007939 0.052292 -0.022782 -0.023105 0.006099 0.063127 0.026302 0.017651 0.035665 0.016074 -0.018760 0.031410 0.024504 -0.020889 -0.012105 -0.011372 0.003227 0.007021 0.056231 0.015935 -0.034594 0.007972 -0.025205 0.013234 0.013394 -0.017981 -0.000137 -0.003378 0.016075 0.001110 -0.018878 0.030607 -0.018768 -0.038646 0.025726 0.015029 -0.006512 0.011108 -0.055584 -0.002500 0.002979 -0.024735 0.001966 -0.010927 0.006715 -0.027074 0.028541 -0.019049 -0.013098 -0.050919 -0.000963 -0.031161 0.024082 -0.010615 -0.018177 0.049874 0.051375 0.007541 0.028504 0.018862 -0.008844 -0.015388 0.006177 -0.050368 -0.030360 -0.011569 -0.035585 -0.005072 -0.025777 -0.025411 0.021028 0.009791 -0.013054 -0.039718 0.012777 0.025665 0.002504 -0.016463 0.037784 -0.011620 -0.002394 0.013416 0.005953 0.012757 0.015630 0.025126 0.011219 0.033989 -0.003207 0.007957 
père 0.004068 -0.005102 -0.003966 0.000495 -0.002150 0.004185 -0.003183 0.000010 0.000635 -0.002812 0.002021 0.001910 0.004200 -0.002541 0.004886 0.000760 0.002342 0.000794 -0.003400 -0.003648 -0.005161 0.004557 -0.004164 -0.004850 -0.003717 0.002578 -0.001427 0.004219 0.004820 -0.003975 -0.000244 -0.001827 -0.002588 0.001670 0.002204 -0.000868 -0.003193 0.001814 0.003042 0.001983 -0.003574 0.002572 -0.004011 -0.000913 -0.000142 -0.002245 0.000894 0.003847 -0.007069 -0.000583 0.004732 0.001005 0.000776 -0.000681 -0.001701 -0.002259 0.003982 0.001444 -0.003982 -0.001504 0.002651 0.003071 -0.003884 0.004303 0.001914 0.006296 0.005484 0.002346 -0.002430 -0.002550 0.002686 -0.004200 0.004473 0.003015 -0.003600 0.002922 0.003081 0.004657 0.002385 0.000240 0.000159 -0.002232 -0.001550 -0.000641 -0.003861 0.004801 -0.003242 -0.005860 0.001332 -0.001021 -0.000093 0.000572 0.003425 0.000580 -0.004021 0.004950 -0.002721 -0.002112 0.000999 -0.002352 
été -0.014779 -0.026244 0.019617 0.004297 0.012637 -0.019106 -0.008346 -0.010762 -0.015127 0.033495 0.013260 0.051039 -0.014755 -0.020723 0.005741 0.068309 0.033388 0.014842 0.038089 0.017778 -0.024577 0.036534 0.022106 -0.015829 -0.004292 -0.010472 0.003460 0.008561 0.058870 0.007933 -0.029209 0.002074 -0.024820 0.015714 0.013228 -0.020857 0.000029 -0.007131 0.012257 -0.000938 -0.024147 0.030423 -0.018641 -0.039260 0.026085 0.011890 -0.008962 0.010060 -0.056317 -0.010161 0.005146 -0.026355 0.003019 -0.008116 0.006773 -0.032097 0.026256 -0.017103 -0.008008 -0.048164 0.002419 -0.026200 0.028109 -0.012625 -0.013711 0.048446 0.051909 0.001941 0.026141 0.023514 -0.010343 -0.018259 0.010121 -0.051172 -0.025303 -0.009816 -0.034595 -0.005762 -0.031072 -0.032747 0.015616 0.008242 -0.020731 -0.034487 0.010413 0.027213 0.004887 -0.022288 0.033976 -0.008858 -0.002000 0.019120 0.000448 0.011961 0.017271 0.028305 0.009861 0.037903 -0.003259 -0.000514 
donc -0.013646 -0.026977 0.015707 -0.002147 0.010671 -0.019157 -0.013635 -0.005693 -0.010129 0.031019 0.016152 0.044246 -0.015643 -0.019995 0.003271 0.063526 0.025127 0.016715 0.036111 0.013152 -0.020541 0.027346 0.022909 -0.014524 -0.005374 -0.009680 0.000043 0.012387 0.049705 0.006079 -0.031242 0.002349 -0.024254 0.015255 0.007173 -0.019150 -0.001176 0.000795 0.013568 -0.002084 -0.017645 0.022787 -0.025010 -0.031444 0.025557 0.011493 -0.000350 0.014334 -0.056671 -0.009638 0.006360 -0.026535 0.010699 -0.001959 0.001746 -0.031186 0.029750 -0.016693 -0.006325 -0.045947 0.002973 -0.030385 0.019394 -0.009920 -0.015118 0.049016 0.050850 0.001058 0.023768 0.019040 -0.009320 -0.014345 0.006501 -0.040411 -0.031883 -0.013301 -0.029824 -0.004340 -0.030568 -0.029479 0.015797 0.015224 -0.016251 -0.031122 0.012914 0.025587 0.003551 -0.022487 0.033562 -0.009254 0.003475 0.013460 0.008624 0.011754 0.014631 0.021172 0.006606 0.041100 -0.004746 0.006243 
Est-ce -0.004689 -0.000040 -0.002096 0.004751 -0.000093 -0.003288 -0.002260 -0.000426 -0.002370 0.005684 0.005524 0.002355 -0.004531 -0.005899 0.003666 0.004326 0.007210 0.004686 0.006814 -0.000214 -0.004648 0.000457 0.004027 0.001684 -0.002653 -0.000299 0.001558 -0.002006 0.008530 0.003794 -0.008064 0.002288 -0.005937 -0.002464 0.004146 -0.004673 -0.001940 0.001090 0.001133 0.005083 -0.002772 0.004500 -0.005328 -0.007051 0.003100 0.001002 0.000704 0.002165 -0.008815 0.002829 -0.002430 -0.000278 -0.001016 0.002405 0.004083 0.000311 0.007817 -0.001907 0.001272 -0.007352 0.004110 -0.005456 0.001026 0.001565 -0.004176 0.001938 0.002232 0.004088 0.001545 0.004628 0.002831 -0.000488 0.001562 -0.007563 -0.007083 0.000097 -0.001262 -0.000941 -0.007890 -0.005204 0.007108 0.004770 -0.004688 -0.004658 0.000469 0.001398 0.001824 -0.004568 0.004660 -0.004418 -0.000507 -0.002525 -0.002288 0.004335 0.007565 0.000541 -0.000269 0.009619 0.002931 0.003185 
t'as -0.001762 -0.000262 -0.003857 0.002509 0.002323 0.003398 0.000765 -0.001343 -0.004684 -0.000504 -0.004106 0.001511 0.000313 -0.000355 0.004154 0.004117 0.001042 0.001844 -0.002895 0.005444 -0.004150 0.002513 0.003202 0.003640 0.000131 -0.005091 -0.002422 0.005398 0.003291 0.001814 -0.003811 -0.004631 -0.000618 -0.001391 0.002579 -0.005229 0.004123 -0.002348 0.002340 -0.000014 -0.000749 0.006157 -0.000043 0.002047 -0.000793 -0.003154 -0.004607 0.005640 -0.001468 0.001880 0.005073 0.003707 0.004586 0.003680 0.000545 -0.005077 0.006099 -0.004465 -0.004700 -0.006867 0.003366 -0.005358 -0.001385 0.000098 0.001733 0.005147 0.006655 0.002438 -0.002088 0.000356 -0.002970 0.002763 0.005047 -0.002521 0.000601 0.000099 -0.005259 -0.000027 0.001850 0.000764 0.004518 0.002089 -0.000939 -0.003834 0.003027 0.005912 0.004342 0.000689 0.001340 0.004491 -0.000505 0.000195 -0.003173 -0.000647 0.003719 0.000254 0.005269 -0.001815 0.001692 0.001964 
criais -0.000557 -0.002011 0.000400 0.000621 0.000331 0.001777 -0.002130 0.000582 0.003878 0.003733 -0.003226 0.004689 -0.004435 -0.002604 0.001062 0.007598 0.002624 0.004890 0.005599 0.000924 -0.006027 0.003546 0.000180 -0.004391 -0.000201 -0.000596 0.003693 0.001597 0.001129 -0.001472 -0.006468 0.004751 0.003094 -0.001765 -0.002713 -0.000347 -0.004185 0.003383 0.001733 0.004884 0.002650 0.003924 0.003666 -0.006470 0.001251 0.004775 -0.003457 0.003914 -0.003126 0.000568 -0.000993 0.000397 0.002220 -0.003333 0.004475 -0.005434 0.006275 -0.001585 -0.000660 -0.007192 0.002018 -0.004124 0.006043 -0.000177 -0.001930 0.005829 0.002466 0.003936 0.003723 0.003354 -0.001947 0.000268 0.003945 -0.001926 -0.002495 0.000833 0.002622 -0.002520 -0.002745 -0.005805 0.001169 -0.003164 -0.001720 -0.005769 -0.000720 0.001463 -0.004900 -0.001641 0.001552 -0.003918 0.001844 0.004417 -0.003021 -0.004393 0.000494 0.000681 0.004343 -0.000053 -0.002311 -0.000005 
chaque -0.006094 -0.013230 0.012145 0.001086 0.008959 -0.010312 -0.006764 -0.003908 -0.008178 0.015433 0.002226 0.024610 -0.008794 -0.011760 -0.001027 0.035680 0.011218 0.009992 0.019632 0.002347 -0.015774 0.016990 0.010744 -0.004029 -0.002130 -0.006229 0.000991 0.007080 0.027157 0.006289 -0.013980 0.001804 -0.013439 0.011437 0.007667 -0.003587 0.004855 0.000178 0.012401 0.004194 -0.005399 0.012281 -0.011759 -0.017341 0.013944 0.007829 -0.004411 0.000534 -0.022301 -0.002529 0.005851 -0.016012 0.005110 -0.007499 0.004348 -0.016020 0.011872 -0.002063 -0.009255 -0.027892 -0.001911 -0.013840 0.013953 -0.003461 -0.010783 0.021054 0.022470 0.001424 0.009344 0.014153 -0.011285 -0.010016 0.003996 -0.025149 -0.015402 -0.005187 -0.011912 -0.001658 -0.018473 -0.015071 0.012854 0.004339 -0.007001 -0.020136 0.005799 0.010413 0.002265 -0.013569 0.021057 -0.006554 -0.003095 0.013758 0.005933 0.004814 0.006928 0.009575 0.008473 0.018585 -0.005459 0.000713 
exemple -0.005848 -0.004437 0.009359 -0.001319 0.000890 -0.001605 -0.001775 -0.007337 -0.009528 0.009908 0.002826 0.013030 -0.004551 -0.004303 0.006833 0.026599 0.007311 0.003165 0.009674 0.001318 -0.007069 0.008126 0.012646 -0.009842 -0.002100 -0.008766 -0.000663 0.000142 0.024199 0.003723 -0.008640 0.003250 -0.006502 0.008585 0.009085 -0.005115 0.004767 -0.003169 0.007801 0.004662 -0.008133 0.013691 -0.010656 -0.015832 0.010844 0.002747 0.001927 0.006830 -0.014896 0.002606 -0.001641 -0.007914 0.000722 -0.006684 -0.001917 -0.009782 0.009942 -0.003669 -0.008251 -0.019869 0.005968 -0.013454 0.013963 -0.007138 0.000186 0.016832 0.021729 -0.003244 0.012037 0.007308 -0.006948 -0.011359 0.004998 -0.017996 -0.008069 -0.004818 -0.008130 -0.002230 -0.011881 -0.005772 0.010577 0.005413 -0.003084 -0.016110 0.002010 0.011657 -0.004312 -0.008312 0.010705 0.002017 -0.002786 0.009081 -0.002531 0.007300 0.009569 0.003800 0.001459 0.009166 -0.005336 0.005227 
où -0.002834 -0.008086 0.005679 0.000262 0.000152 -0.004428 -0.002138 -0.007113 -0.000908 0.010020 0.002065 0.015255 -0.003391 -0.012696 0.006671 0.018109 0.005733 0.002267 0.011741 0.003792 -0.009787 0.005942 0.002727 -0.005069 -0.005403 -0.007296 -0.003950 0.000731 0.022240 0.002730 -0.015101 -0.002758 -0.007073 0.003697 0.000178 -0.007776 0.001723 -0.000078 0.002997 -0.003700 -0.010919 0.006511 -0.003545 -0.014123 0.010715 0.001682 0.000034 0.003695 -0.022926 -0.003089 0.000686 -0.003897 0.000254 -0.006997 -0.000381 -0.007864 0.009169 -0.004752 0.000567 -0.014913 0.000351 -0.009882 0.009344 -0.003448 -0.004591 0.011214 0.016147 -0.001048 0.005933 0.005824 -0.005624 -0.007654 0.000573 -0.011156 -0.014064 -0.005722 -0.006775 -0.003834 -0.004841 -0.013610 0.001839 0.004013 -0.000817 -0.011566 0.003793 0.011647 -0.002037 -0.010087 0.013810 -0.002201 -0.002055 0.005527 -0.003048 0.003246 0.007984 0.005838 0.002715 0.013422 -0.004961 0.002680 
beaucoup -0.000019 -0.011891 0.001340 0.005181 0.003930 -0.005764 -0.001027 0.000262 0.000434 0.005251 0.006206 0.018508 -0.009496 -0.007620 -0.002461 0.019412 0.009180 0.003030 0.013078 0.007811 -0.011021 0.007265 0.004515 -0.004430 -0.000396 -0.006863 -0.001442 0.001508 0.017125 0.007193 -0.008816 -0.000100 -0.006107 0.003988 0.001776 -0.000367 0.005007 0.000273 0.009345 0.000814 -0.008940 0.010462 -0.009777 -0.012542 0.004121 -0.000304 0.000835 0.007715 -0.012962 -0.000036 0.004387 -0.001917 0.001728 -0.006507 0.004264 -0.004140 0.007394 -0.000870 -0.003425 -0.012018 0.004297 -0.013973 0.007372 -0.004748 -0.006167 0.016110 0.011775 -0.002914 0.006748 0.007170 -0.000724 -0.003826 0.001040 -0.015270 -0.011467 -0.001175 -0.009493 -0.000249 -0.003437 -0.007357 0.000887 0.007335 -0.005817 -0.012006 0.008609 0.007636 0.004782 -0.003667 0.006849 -0.005095 -0.003387 0.004402 -0.003150 0.007235 0.000767 0.008298 -0.002557 0.014698 -0.001183 0.002429 
mère, 0.001457 -0.006820 0.002163 -0.004867 0.004866 -0.003164 -0.002058 -0.001224 -0.001948 0.012845 0.005365 0.013440 -0.006484 -0.002476 0.002858 0.012933 0.008079 0.007656 0.011294 0.006175 -0.011040 0.007353 0.005692 -0.005131 -0.003922 -0.002444 -0.003306 0.000600 0.019460 0.006205 -0.009163 0.001447 -0.005850 0.000734 -0.000306 -0.001804 -0.004475 0.001180 0.006607 0.003519 -0.010452 0.002881 -0.010476 -0.006715 0.009143 0.005046 -0.003094 -0.001553 -0.019636 0.001984 0.005412 -0.010435 0.006716 -0.002596 -0.000882 -0.005841 0.010067 -0.006741 -0.001210 -0.017037 0.004501 -0.008226 0.001768 -0.001323 -0.007398 0.014461 0.016256 0.003430 0.007452 0.006319 -0.004960 -0.007447 0.001228 -0.016980 -0.002749 -0.005044 -0.011292 -0.003643 -0.006455 -0.009084 0.007089 0.006170 -0.003330 -0.007618 0.008277 0.004257 0.002803 -0.006420 0.005465 -0.001278 0.003577 0.003933 0.005012 -0.002347 0.000940 0.003084 0.004779 0.005598 0.001060 -0.003578 
est -0.014742 -0.024266 0.017730 -0.004307 0.012572 -0.009312 -0.010727 -0.011100 -0.010170 0.029859 0.009930 0.045391 -0.017368 -0.020199 0.000594 0.057133 0.031239 0.019149 0.033935 0.009861 -0.018040 0.029273 0.020332 -0.011052 -0.003349 -0.014198 0.004493 0.013980 0.047361 0.006167 -0.029033 0.006506 -0.018135 0.015168 0.008478 -0.016539 -0.000972 -0.003161 0.013374 -0.000232 -0.018901 0.027066 -0.015438 -0.025905 0.018417 0.008012 0.000583 0.014983 -0.050212 -0.007815 0.001974 -0.018489 0.001744 -0.002802 0.006540 -0.022640 0.030491 -0.012113 -0.004355 -0.037553 0.001652 -0.029671 0.022271 -0.007679 -0.014251 0.036078 0.046376 0.003386 0.027751 0.019994 -0.016138 -0.021690 0.010419 -0.043942 -0.020501 -0.015303 -0.031189 -0.005389 -0.024418 -0.023517 0.014360 0.011464 -0.014810 -0.034220 0.015097 0.023710 0.003525 -0.021976 0.027194 -0.006301 0.000836 0.013887 0.001491 0.013001 0.015719 0.025214 0.010621 0.031084 -0.003562 0.001064 
jamais -0.003080 -0.003597 0.003558 0.003587 0.004872 -0.000771 -0.005163 -0.001410 -0.000431 0.010749 0.003769 0.015837 -0.006891 -0.006060 -0.001688 0.016834 0.009306 0.002547 0.009652 0.004240 -0.008513 0.007897 0.012096 -0.009700 -0.006123 -0.005572 0.003081 0.003555 0.020053 0.002233 -0.015355 0.000605 -0.009385 -0.000491 0.008412 -0.000139 -0.000821 -0.000085 0.005145 0.001111 -0.002661 0.008907 -0.011565 -0.009093 0.010415 0.004742 -0.002786 0.001421 -0.021197 -0.001496 -0.001037 -0.009538 0.004294 0.001368 0.004560 -0.013764 0.006019 -0.001644 -0.002320 -0.017979 0.001185 -0.013461 0.004079 -0.000759 -0.009081 0.018306 0.014420 0.000597 0.006259 0.002325 -0.008311 -0.003914 0.006645 -0.017487 -0.011425 -0.006971 -0.014635 -0.004406 -0.012367 -0.006460 0.011302 0.007153 -0.002447 -0.012936 0.000467 0.006334 -0.001811 -0.006950 0.008718 0.002468 -0.004724 0.005971 0.000460 0.005891 0.007937 0.007549 0.006356 0.012057 -0.006254 -0.001874 
Mais -0.012535 -0.021437 0.013767 -0.002376 0.003152 -0.007296 -0.004131 -0.011670 -0.011406 0.027276 0.010090 0.037892 -0.011845 -0.014319 0.009305 0.053058 0.023909 0.013505 0.026265 0.006503 -0.018830 0.029009 0.012752 -0.019032 -0.007723 -0.014823 0.005363 0.008119 0.044777 0.013064 -0.025377 0.002250 -0.021347 0.010205 0.005651 -0.016433 -0.002934 -0.003807 0.010199 -0.002254 -0.010655 0.015590 -0.017578 -0.024263 0.021374 0.013533 -0.002128 0.009906 -0.036409 -0.005517 0.007174 -0.021751 0.005123 -0.001561 0.003404 -0.019776 0.021376 -0.012139 -0.007260 -0.035692 0.004741 -0.026276 0.018258 -0.005932 -0.014211 0.034777 0.040153 -0.001035 0.019676 0.015919 -0.014072 -0.012465 0.005275 -0.038156 -0.016935 -0.013355 -0.021940 -0.004783 -0.017262 -0.020552 0.015812 0.007929 -0.017607 -0.029058 0.014186 0.020487 0.003442 -0.010389 0.026188 -0.006040 0.002330 0.011605 0.005866 0.006006 0.019925 0.018577 0.002703 0.025942 -0.004724 0.003537 
peu -0.008793 -0.022537 0.017720 0.000498 0.005157 -0.016582 -0.015085 -0.004248 -0.010186 0.032300 0.013056 0.037144 -0.020195 -0.015809 0.007993 0.061373 0.023032 0.019534 0.031947 0.011112 -0.019529 0.025196 0.021162 -0.019204 -0.004097 -0.016564 -0.002088 0.009918 0.047062 0.012420 -0.024766 0.003607 -0.024944 0.010728 0.010963 -0.012402 0.002942 0.001952 0.015629 -0.004556 -0.013953 0.019783 -0.024430 -0.028984 0.025312 0.012033 0.000991 0.013982 -0.047576 -0.009698 0.006443 -0.023202 0.007882 -0.000693 -0.002356 -0.027189 0.030461 -0.008791 -0.006326 -0.040765 0.003968 -0.030721 0.026132 -0.009825 -0.012987 0.036097 0.041900 -0.002157 0.023405 0.017541 -0.008742 -0.017732 0.001434 -0.042293 -0.029675 -0.009965 -0.026580 -0.001987 -0.021237 -0.029201 0.021618 0.007907 -0.014079 -0.034461 0.017919 0.023530 -0.004473 -0.022352 0.027384 -0.007193 0.003838 0.014773 0.007697 0.007448 0.017807 0.025213 0.009978 0.033830 -0.007345 0.005475 
besoin -0.010933 -0.015268 0.015060 -0.003416 0.005278 -0.013624 -0.008551 -0.002573 -0.012088 0.026677 0.005585 0.035903 -0.014979 -0.021233 0.009545 0.047412 0.020404 0.015466 0.027030 0.013071 -0.017242 0.024785 0.018387 -0.014637 -0.009408 -0.013025 0.004080 0.008522 0.039562 0.011681 -0.020065 0.007480 -0.020562 0.004820 0.011966 -0.014715 0.000461 0.002735 0.012382 0.001026 -0.017264 0.020795 -0.020176 -0.025934 0.022560 0.012955 0.001328 0.006491 -0.036827 -0.001494 0.004575 -0.021244 0.006962 -0.000818 -0.002407 -0.020736 0.022146 -0.014377 -0.007666 -0.036271 0.007912 -0.017493 0.013667 -0.010922 -0.014961 0.029329 0.039967 0.001915 0.023310 0.014744 -0.012773 -0.013987 0.001933 -0.034055 -0.018653 -0.008871 -0.021554 -0.005424 -0.020739 -0.022263 0.010822 0.011321 -0.014460 -0.025833 0.006553 0.022365 0.004651 -0.017085 0.020480 -0.002925 0.002200 0.015750 0.005250 0.010893 0.018097 0.021616 0.009885 0.031460 -0.007342 -0.001639 
m'a -0.015456 -0.026767 0.021760 0.002678 0.008496 -0.012800 -0.011611 -0.016109 -0.019193 0.038517 0.014147 0.056570 -0.020893 -0.027129 0.007029 0.072401 0.036319 0.021796 0.041584 0.011972 -0.025222 0.032521 0.026705 -0.021879 -0.010847 -0.016682 0.000914 0.016500 0.059154 0.013592 -0.041706 0.002285 -0.023324 0.010780 0.009725 -0.020018 -0.002283 -0.004970 0.016624 0.003346 -0.017759 0.031880 -0.029849 -0.042789 0.026098 0.012539 -0.007812 0.012722 -0.066364 -0.011238 0.004699 -0.028070 0.003959 -0.008272 0.008215 -0.036681 0.031184 -0.021027 -0.014259 -0.061117 0.000332 -0.030267 0.030681 -0.013699 -0.017271 0.048421 0.059799 0.000016 0.029315 0.022832 -0.015608 -0.017932 0.011228 -0.051270 -0.033859 -0.018468 -0.032755 -0.006638 -0.030954 -0.029531 0.024871 0.015175 -0.023726 -0.038038 0.020066 0.030838 0.005487 -0.021780 0.045822 -0.008935 0.000688 0.022244 0.003886 0.009873 0.026198 0.033054 0.012710 0.047390 -0.008022 0.002252 
t'es -0.015676 -0.036280 0.024539 -0.001517 0.016298 -0.020800 -0.019828 -0.014109 -0.019528 0.044135 0.016000 0.064710 -0.028075 -0.028706 0.006037 0.088460 0.041504 0.021845 0.048845 0.014512 -0.025769 0.042375 0.032811 -0.023538 -0.011149 -0.022232 0.003371 0.019100 0.075445 0.014430 -0.041299 0.011119 -0.028441 0.014889 0.017010 -0.025462 0.001927 0.001573 0.020977 -0.004936 -0.028802 0.035123 -0.026378 -0.045880 0.038441 0.022708 -0.001433 0.019328 -0.073970 -0.004345 0.007351 -0.035246 0.012313 -0.007561 0.001556 -0.037559 0.043271 -0.022170 -0.010406 -0.071486 0.003591 -0.037147 0.035679 -0.012938 -0.022956 0.064715 0.070080 -0.000545 0.037491 0.025323 -0.019797 -0.021820 0.004844 -0.062717 -0.033187 -0.012992 -0.039004 -0.005050 -0.039701 -0.040034 0.022882 0.016503 -0.024575 -0.051266 0.023518 0.035057 0.000805 -0.027373 0.043805 -0.004959 -0.000096 0.023875 0.003214 0.010982 0.024935 0.036110 0.008231 0.047948 -0.002595 0.003725 
suis -0.005827 -0.016731 0.015740 -0.003274 0.011043 -0.005206 -0.007017 -0.005496 -0.008999 0.018716 0.003507 0.026753 -0.007433 -0.011936 0.004283 0.043664 0.024958 0.015902 0.021323 0.005616 -0.013895 0.019170 0.018912 -0.013094 -0.000163 -0.013214 0.001427 0.004552 0.039134 0.006124 -0.017132 -0.000268 -0.011430 0.008870 0.010947 -0.008660 0.004199 -0.003662 0.012365 0.001388 -0.013473 0.019217 -0.014855 -0.026420 0.020311 0.013116 -0.005188 0.008101 -0.038754 -0.006184 0.003277 -0.015809 -0.000360 -0.001811 0.005475 -0.020054 0.023337 -0.014104 -0.009852 -0.027800 0.000354 -0.020828 0.016371 -0.011160 -0.004046 0.028701 0.032976 0.001434 0.021386 0.013929 -0.009975 -0.008439 0.003610 -0.024676 -0.018498 -0.008315 -0.015657 0.000509 -0.016384 -0.016516 0.011443 0.008725 -0.011887 -0.019834 0.010176 0.021095 -0.000911 -0.008216 0.026873 -0.002624 -0.001403 0.016499 0.006703 0.004171 0.014199 0.014703 0.001880 0.029733 -0.003161 0.002948 
sauf -0.010445 -0.033303 0.027472 -0.000006 0.013036 -0.023399 -0.010552 -0.015662 -0.023571 0.043171 0.016329 0.058322 -0.023905 -0.029341 0.011803 0.085387 0.037359 0.026608 0.046870 0.019814 -0.024504 0.037403 0.026191 -0.025287 -0.011112 -0.015568 0.002199 0.019708 0.072511 0.014128 -0.045513 0.002577 -0.033432 0.017118 0.015328 -0.020851 0.000298 0.001679 0.016546 -0.002143 -0.029101 0.030259 -0.034133 -0.042062 0.037323 0.018635 -0.002535 0.017806 -0.066671 -0.008224 0.001295 -0.026889 0.004030 -0.008256 0.004187 -0.044508 0.035663 -0.020482 -0.012005 -0.061208 0.008778 -0.037694 0.032057 -0.010961 -0.019805 0.056147 0.072227 0.005574 0.036384 0.028304 -0.015555 -0.024293 0.007935 -0.059254 -0.041005 -0.013527 -0.041862 -0.010157 -0.037542 -0.040454 0.026980 0.012681 -0.024928 -0.050466 0.016339 0.036029 0.000895 -0.030492 0.050086 -0.007809 -0.001888 0.018660 0.005331 0.016472 0.023788 0.036271 0.009917 0.050676 -0.003019 0.001358 
soit -0.020816 -0.057022 0.044954 -0.002650 0.023756 -0.028382 -0.022620 -0.023162 -0.026900 0.067581 0.025038 0.102219 -0.041200 -0.047680 0.017852 0.136072 0.063252 0.036881 0.070377 0.025775 -0.043541 0.066257 0.049776 -0.037366 -0.013609 -0.030235 0.007655 0.021619 0.117566 0.027594 -0.068036 0.006911 -0.051638 0.027991 0.026228 -0.035393 0.006480 -0.003021 0.036659 0.004229 -0.041915 0.056834 -0.050190 -0.067950 0.048715 0.032877 -0.011331 0.027877 -0.107061 -0.016561 0.004514 -0.042856 0.013391 -0.011427 0.007705 -0.063004 0.060581 -0.032012 -0.018011 -0.097218 0.005197 -0.057149 0.050522 -0.024044 -0.029343 0.096469 0.102440 0.005283 0.055179 0.041876 -0.027113 -0.035209 0.019103 -0.089366 -0.059482 -0.030111 -0.067844 -0.007324 -0.061037 -0.061763 0.037384 0.028613 -0.032051 -0.070600 0.030381 0.054461 -0.001097 -0.039822 0.068077 -0.011424 -0.004795 0.040628 0.012585 0.026434 0.036949 0.053760 0.017873 0.079353 -0.005595 0.002067 
j'aime 0.001290 -0.009126 0.007570 -0.002138 0.002874 0.000771 -0.005603 0.002442 -0.007394 0.006991 0.002958 0.013152 -0.003762 -0.007893 0.005523 0.008885 0.005846 0.007171 0.005838 -0.001750 -0.002636 0.002274 0.002329 -0.006059 -0.004755 -0.001559 -0.000861 0.002589 0.008643 0.001233 -0.007167 0.005973 -0.005855 0.003069 0.004435 0.001075 -0.002156 0.000477 0.003455 0.004246 -0.008388 0.002051 -0.003935 -0.004102 0.009877 0.000884 0.000511 0.004047 -0.010712 -0.004297 0.005886 -0.001160 0.000765 -0.003692 0.004755 -0.002281 0.008661 -0.005957 -0.005890 -0.008526 0.003262 -0.001315 0.004545 -0.005250 0.001582 0.012294 0.006837 0.004089 0.001113 0.000189 -0.003071 -0.006910 -0.001589 -0.007629 -0.009476 -0.007043 -0.005910 -0.002810 -0.000783 -0.005132 0.005371 0.000745 -0.006719 -0.002909 0.000203 0.002098 -0.003702 -0.000466 0.005773 -0.000909 -0.000479 -0.000723 -0.000438 0.000561 -0.000431 0.007267 0.002402 0.011218 -0.005040 -0.003382 
mon -0.000063 -0.009670 0.011500 0.003156 0.002191 -0.001319 -0.006969 -0.002223 -0.008649 0.007517 0.007800 0.019133 -0.003598 -0.010308 0.006569 0.021214 0.007021 0.010842 0.017058 0.000543 -0.012360 0.013074 0.006465 -0.003620 0.001936 -0.004679 -0.001698 0.004777 0.017496 0.006321 -0.010346 0.003553 -0.004780 0.006007 0.009092 -0.003497 0.000986 0.003959 0.009761 0.000262 -0.003907 0.011682 -0.010414 -0.015491 0.004337 0.000859 -0.004120 -0.000442 -0.023708 -0.002341 -0.001364 -0.006463 0.005657 -0.000374 0.004188 -0.007499 0.012163 -0.004314 0.001127 -0.015602 -0.003219 -0.011676 0.011217 -0.003330 -0.001931 0.017247 0.019658 0.005375 0.013130 0.010705 -0.008513 -0.004593 0.003026 -0.019930 -0.012299 -0.009888 -0.012497 0.000076 -0.013550 -0.014432 0.002737 0.008245 -0.010081 -0.012591 0.006870 0.009492 0.003718 -0.010218 0.011857 -0.003394 -0.002961 0.002768 0.005831 0.007786 0.006236 0.011249 0.005696 0.012275 0.000771 0.000657 
ans -0.005843 -0.005743 0.008995 -0.002464 0.000665 -0.004525 0.000736 -0.006374 -0.001189 0.003258 0.003815 0.010723 -0.008488 -0.009869 0.002202 0.017789 0.007848 0.000004 0.008028 0.006872 -0.008087 0.002914 0.001174 -0.000006 0.001184 -0.006548 0.002170 0.000052 0.017381 0.007166 -0.008039 -0.000348 -0.004055 -0.001239 0.001189 -0.007950 -0.003211 -0.001096 0.008546 0.000514 -0.008479 0.004338 -0.004418 -0.012489 0.003040 -0.001207 -0.000321 0.000227 -0.013351 -0.001543 0.001952 -0.001935 -0.001994 -0.001276 0.000487 -0.012233 0.009542 -0.005242 -0.003112 -0.016678 -0.003675 -0.008676 0.008978 -0.002785 -0.007181 0.009905 0.010263 -0.002029 0.002287 0.002620 -0.001919 -0.006618 0.002871 -0.012852 -0.010179 -0.007839 -0.008299 0.002849 -0.010037 -0.011161 0.004471 0.005311 -0.006423 -0.012252 -0.000669 0.009384 -0.000171 -0.005580 0.011155 -0.004021 0.002601 0.000815 -0.001245 0.003652 0.006185 0.010656 0.003015 0.009360 0.000979 0.002410 
