141 100
</s> 0.004003 0.004419 -0.003830 -0.003278 0.001367 0.003021 0.000941 0.000211 -0.003604 0.002218 -0.004356 0.001250 -0.000751 -0.000957 -0.003316 -0.001882 0.002579 0.003025 0.002969 0.001597 0.001545 -0.003803 -0.004096 0.004970 0.003801 0.003090 -0.000604 0.004016 -0.000495 0.000735 -0.000149 -0.002983 0.001312 -0.001337 -0.003825 0.004754 0.004379 -0.001095 -0.000226 0.000509 -0.003638 -0.004007 0.004555 0.000063 -0.002582 -0.003042 -0.003076 0.001697 0.000201 0.001331 -0.004214 -0.003808 -0.000130 0.001144 0.002550 -0.003170 0.004080 0.000927 0.001120 -0.000608 0.002986 -0.002288 -0.002097 0.002158 -0.000753 0.001031 0.001805 -0.004089 -0.001983 0.002914 0.004232 0.003932 -0.003047 -0.002108 -0.000909 0.002001 -0.003788 0.002998 0.002788 -0.001599 -0.001552 -0.002238 0.004229 0.003912 -0.001180 0.004215 0.004820 0.001815 0.004983 -0.003111 -0.001532 -0.002107 -0.002907 0.002815 0.001579 0.000425 -0.002194 0.001524 0.003059 0.000194 
je -0.014571 -0.078488 0.044389 -0.005548 0.007644 -0.012489 -0.038413 -0.035320 -0.036848 0.058836 0.016217 0.127484 -0.058659 -0.043913 0.006513 0.141852 0.080940 0.042843 0.101721 0.050946 -0.069411 0.086361 0.036613 -0.030926 -0.023588 -0.039160 0.010466 0.040183 0.097990 0.023203 -0.062408 0.002862 -0.051689 0.023941 0.023396 -0.016642 0.012808 -0.008251 0.056806 0.012840 -0.041522 0.058458 -0.050154 -0.041428 0.074324 0.053057 -0.002544 0.014096 -0.119294 -0.012342 0.022066 -0.066263 -0.007726 -0.000372 0.016470 -0.049172 0.062984 -0.047692 -0.044086 -0.113128 -0.018420 -0.059840 0.067147 -0.040100 -0.024131 0.090368 0.101297 0.014194 0.063594 0.030181 -0.043657 -0.020944 0.014453 -0.096398 -0.055582 -0.047620 -0.101974 0.006995 -0.068103 -0.077097 0.028945 0.028549 -0.049196 -0.066738 0.033936 0.084753 0.042042 -0.050098 0.088295 -0.002934 -0.035758 0.034636 -0.000259 0.045432 0.012215 0.068549 0.026342 0.075854 -0.010818 0.009133 
que -0.018672 -0.064168 0.036924 -0.003580 0.005592 -0.010209 -0.028257 -0.030738 -0.029720 0.055895 0.014536 0.102777 -0.045473 -0.040411 0.006835 0.116398 0.072765 0.040712 0.085831 0.045188 -0.054244 0.074612 0.032025 -0.020364 -0.022624 -0.024413 0.012353 0.030497 0.079365 0.023898 -0.050537 0.002412 -0.041461 0.022444 0.015197 -0.015954 0.009865 -0.008856 0.047433 0.013060 -0.031799 0.050327 -0.041704 -0.035720 0.066793 0.041281 0.000156 0.016059 -0.097989 -0.015589 0.020628 -0.058380 -0.008325 -0.002518 0.018070 -0.045454 0.054271 -0.041413 -0.028313 -0.092268 -0.009383 -0.048901 0.052287 -0.031668 -0.018033 0.072015 0.086932 0.008386 0.052768 0.023192 -0.037055 -0.010055 0.015760 -0.082501 -0.046164 -0.041300 -0.085792 0.012332 -0.062338 -0.062880 0.027758 0.025258 -0.036185 -0.046905 0.031776 0.071152 0.033173 -0.047139 0.072782 -0.004939 -0.027752 0.026979 0.002899 0.034570 0.012918 0.050409 0.020937 0.061185 -0.009130 0.011213 
pas -0.015132 -0.041971 0.025503 -0.000548 0.009666 -0.006076 -0.022101 -0.024071 -0.020836 0.040144 0.005884 0.082142 -0.035146 -0.031713 0.002110 0.088016 0.052821 0.024732 0.064527 0.026625 -0.044751 0.054185 0.020773 -0.020541 -0.015925 -0.023782 0.008238 0.027252 0.064895 0.009734 -0.039555 0.003086 -0.030529 0.021012 0.016109 -0.005906 0.004610 -0.000998 0.041471 0.008428 -0.019437 0.037016 -0.035489 -0.021449 0.051120 0.025963 -0.000657 0.007861 -0.068807 -0.014272 0.018898 -0.041601 -0.005050 -0.004004 0.005365 -0.035219 0.038435 -0.022616 -0.026282 -0.070753 -0.008764 -0.033525 0.042336 -0.022906 -0.012619 0.055546 0.058965 0.005838 0.037787 0.018026 -0.020848 -0.006569 0.008363 -0.060742 -0.037465 -0.029896 -0.058322 0.003150 -0.045430 -0.049373 0.019848 0.020358 -0.029200 -0.042345 0.022890 0.050585 0.020381 -0.032458 0.050270 -0.000378 -0.021188 0.018477 -0.001211 0.030152 0.011107 0.043433 0.014855 0.045822 -0.004561 0.003356 
de -0.020511 -0.067893 0.034841 -0.002481 0.011906 -0.007806 -0.037591 -0.026104 -0.031535 0.059528 0.011956 0.121749 -0.048506 -0.041185 0.004864 0.129512 0.072457 0.046238 0.094485 0.051103 -0.059704 0.080850 0.037132 -0.029238 -0.019108 -0.036825 0.008540 0.034726 0.096132 0.016606 -0.058081 0.003363 -0.044675 0.030875 0.019151 -0.020605 0.010022 0.000379 0.056578 0.018053 -0.037448 0.052059 -0.046169 -0.041494 0.073843 0.039125 0.002657 0.011946 -0.103656 -0.012476 0.021377 -0.057712 -0.004962 0.002110 0.011108 -0.050009 0.062597 -0.036679 -0.033274 -0.100534 -0.013107 -0.052146 0.060620 -0.032271 -0.028199 0.077536 0.094972 0.010038 0.061031 0.029968 -0.035377 -0.020686 0.020827 -0.085049 -0.058932 -0.036895 -0.094581 0.007815 -0.060423 -0.063140 0.025943 0.025097 -0.043317 -0.061435 0.031449 0.077896 0.038206 -0.044573 0.078892 0.002187 -0.028989 0.029209 -0.000040 0.041038 0.012206 0.060119 0.027186 0.069611 -0.012270 0.007556 
puis -0.005909 -0.031455 0.015123 -0.001209 0.007667 -0.001024 -0.022339 -0.012630 -0.017941 0.027503 0.006844 0.063677 -0.030495 -0.024440 0.004816 0.065161 0.043663 0.024760 0.044298 0.024047 -0.030590 0.038306 0.019625 -0.016885 -0.007164 -0.016075 0.000325 0.018613 0.047499 0.011501 -0.026857 0.002722 -0.022969 0.013633 0.008339 -0.008276 0.008961 0.001525 0.031434 0.003600 -0.017308 0.025379 -0.020553 -0.015669 0.040150 0.023925 0.001149 0.005761 -0.058737 -0.010229 0.008462 -0.031789 -0.001894 -0.000152 0.009852 -0.029594 0.034276 -0.022738 -0.023135 -0.047931 -0.010244 -0.027440 0.026971 -0.013245 -0.014525 0.036385 0.051210 0.007168 0.032303 0.014154 -0.015143 -0.007619 0.012433 -0.041240 -0.026401 -0.022086 -0.045468 0.009105 -0.036618 -0.035211 0.014981 0.014717 -0.020714 -0.025917 0.016804 0.041582 0.014757 -0.026866 0.042088 0.004699 -0.013919 0.014981 -0.003167 0.016311 0.009857 0.034544 0.009916 0.034278 -0.008394 0.001076 
ça -0.001074 -0.027599 0.014036 -0.002714 0.000372 -0.003841 -0.017484 -0.013064 -0.011054 0.024661 0.001890 0.047227 -0.022772 -0.011353 0.003564 0.046215 0.030390 0.019133 0.030151 0.020400 -0.021020 0.027509 0.014607 -0.008980 -0.004345 -0.011521 0.001547 0.016214 0.030361 0.007196 -0.017140 0.006591 -0.019799 0.010727 0.011730 -0.004968 0.006518 0.001338 0.025421 0.005252 -0.013415 0.023020 -0.022146 -0.012934 0.026074 0.019998 -0.003844 0.005462 -0.035563 -0.004385 0.011638 -0.021311 -0.000535 -0.000022 0.006017 -0.014655 0.025645 -0.012301 -0.015609 -0.039571 -0.008666 -0.020006 0.019471 -0.016848 -0.010764 0.032509 0.036066 -0.000702 0.017949 0.012985 -0.013929 -0.002114 0.004971 -0.032432 -0.022484 -0.013642 -0.036980 0.006516 -0.025947 -0.021423 0.006417 0.006697 -0.011218 -0.018091 0.012845 0.028695 0.015976 -0.017995 0.032066 0.003839 -0.007662 0.014598 -0.001430 0.010882 0.000500 0.022894 0.009883 0.029375 -0.006576 0.006644 
quand -0.002203 -0.022168 0.013794 -0.000546 0.002033 0.001249 -0.017628 -0.016085 -0.009206 0.020131 0.008567 0.043446 -0.019137 -0.014011 0.003764 0.044495 0.032060 0.016573 0.035435 0.016503 -0.018061 0.032595 0.016127 -0.005446 -0.009925 -0.009981 0.005115 0.011225 0.039091 0.010184 -0.025069 0.006299 -0.015988 0.010812 0.004555 -0.003978 0.004297 -0.003657 0.020809 0.008032 -0.014097 0.024745 -0.020299 -0.016719 0.030343 0.020789 0.003501 0.010445 -0.046184 -0.009342 0.004282 -0.022286 -0.006042 -0.001342 0.006881 -0.020795 0.023726 -0.020010 -0.012074 -0.039821 -0.007229 -0.020675 0.024956 -0.015019 -0.011445 0.026593 0.032678 0.000079 0.022785 0.007763 -0.015413 -0.003955 0.002410 -0.036767 -0.024978 -0.015927 -0.036065 -0.000738 -0.022500 -0.029911 0.007863 0.010656 -0.010874 -0.024826 0.009168 0.032701 0.016319 -0.014055 0.033383 -0.002638 -0.013525 0.012647 0.004017 0.019049 0.007322 0.018899 0.005195 0.026716 -0.007827 0.006723 
le -0.006494 -0.049486 0.029911 -0.008730 0.010658 -0.008987 -0.025249 -0.025671 -0.018053 0.043859 0.003340 0.082277 -0.035075 -0.025367 0.005150 0.082770 0.053642 0.028750 0.064868 0.036741 -0.045257 0.052172 0.022232 -0.020315 -0.018330 -0.026038 0.005815 0.020627 0.069173 0.017579 -0.041771 0.006514 -0.034469 0.013318 0.018919 -0.009411 0.010855 -0.006437 0.038265 0.014713 -0.025145 0.038982 -0.037659 -0.031691 0.054716 0.026428 0.000541 0.006380 -0.071863 -0.011479 0.020836 -0.046827 -0.002477 -0.006875 0.007456 -0.035682 0.046845 -0.031545 -0.023160 -0.071633 -0.006826 -0.033368 0.038680 -0.028141 -0.016549 0.056822 0.065024 0.007924 0.041640 0.021721 -0.021762 -0.016092 0.016979 -0.065872 -0.037678 -0.033211 -0.064194 0.012173 -0.048659 -0.045189 0.016681 0.015895 -0.025332 -0.037211 0.016438 0.053744 0.023656 -0.031787 0.055651 -0.003458 -0.020132 0.015386 0.004791 0.028910 0.009257 0.045689 0.022485 0.053361 -0.003691 0.009121 
à -0.012873 -0.065407 0.040281 -0.005172 0.010170 -0.010461 -0.031352 -0.029375 -0.024352 0.056252 0.010112 0.112176 -0.046948 -0.043516 0.004936 0.121292 0.072650 0.036803 0.084559 0.042596 -0.059180 0.078398 0.035112 -0.031070 -0.019348 -0.033501 0.009373 0.036066 0.088218 0.016246 -0.054553 0.002769 -0.040659 0.027248 0.021299 -0.017372 0.010616 -0.003418 0.051424 0.010119 -0.032372 0.048736 -0.048152 -0.037224 0.065247 0.045393 -0.001900 0.017060 -0.105883 -0.016634 0.024914 -0.061160 -0.009379 -0.003869 0.016901 -0.048250 0.061939 -0.037506 -0.037396 -0.090891 -0.018021 -0.053143 0.059529 -0.036895 -0.019611 0.080699 0.090273 0.007561 0.051477 0.024233 -0.035012 -0.020334 0.011804 -0.082606 -0.051321 -0.033991 -0.082996 0.006238 -0.057912 -0.065140 0.028958 0.021895 -0.036890 -0.054312 0.032512 0.073649 0.030826 -0.040961 0.070185 0.004484 -0.029640 0.027168 0.003501 0.042554 0.012531 0.056975 0.018767 0.070161 -0.007338 0.011085 
il -0.013770 -0.044690 0.020239 -0.005698 0.008648 -0.003377 -0.021809 -0.016190 -0.019081 0.033755 0.002567 0.070558 -0.031679 -0.029032 0.002047 0.073622 0.050333 0.031159 0.054557 0.032720 -0.039515 0.043908 0.014730 -0.017837 -0.016817 -0.019908 0.001677 0.025689 0.055241 0.014267 -0.031830 0.002942 -0.032547 0.019203 0.013867 -0.006526 0.007905 -0.000008 0.039552 0.012279 -0.024614 0.032210 -0.025999 -0.025363 0.041907 0.031799 -0.001920 0.013194 -0.064393 -0.005988 0.019077 -0.042194 -0.002741 0.002000 0.006872 -0.029000 0.032736 -0.021104 -0.026263 -0.060543 -0.007978 -0.034678 0.039059 -0.021659 -0.020143 0.046203 0.056207 0.008491 0.033772 0.016066 -0.017853 -0.013701 0.014491 -0.057466 -0.038057 -0.022237 -0.059633 0.005930 -0.045263 -0.045099 0.019594 0.016945 -0.029265 -0.033675 0.023107 0.047046 0.016806 -0.033215 0.051772 -0.003146 -0.016305 0.020337 0.005730 0.026165 0.003773 0.041449 0.011205 0.041756 -0.001097 0.009589 
tu -0.013828 -0.052144 0.027117 -0.000926 0.009134 -0.003506 -0.020658 -0.020467 -0.026605 0.043422 0.005679 0.086523 -0.033554 -0.032923 0.008764 0.090692 0.052802 0.027069 0.064349 0.038759 -0.041356 0.053527 0.027242 -0.022825 -0.018478 -0.020145 0.002599 0.025809 0.063883 0.013568 -0.036390 0.002427 -0.035593 0.019719 0.017010 -0.008551 0.009632 -0.004865 0.039042 0.012621 -0.019602 0.042428 -0.038713 -0.029049 0.046643 0.033572 -0.003748 0.011663 -0.073822 -0.012087 0.015657 -0.048379 -0.003071 -0.005943 0.010709 -0.030512 0.047246 -0.026103 -0.023013 -0.072956 -0.011009 -0.040656 0.042792 -0.028229 -0.020569 0.060275 0.064847 0.002556 0.042010 0.019357 -0.027977 -0.015720 0.006679 -0.059998 -0.040514 -0.028579 -0.067402 0.011328 -0.051914 -0.052179 0.017719 0.018024 -0.025649 -0.040276 0.022248 0.056513 0.027186 -0.039291 0.055406 0.002193 -0.016552 0.022643 0.002955 0.032210 0.009799 0.042098 0.015271 0.053659 -0.004198 0.008259 
Puis -0.003871 -0.018343 0.014191 0.001468 -0.001843 -0.002337 -0.012267 -0.013836 -0.008764 0.020761 0.002653 0.038849 -0.010330 -0.012537 0.006410 0.035567 0.023471 0.010304 0.027324 0.012771 -0.022601 0.021337 0.010512 -0.009342 -0.002489 -0.011811 0.001139 0.013846 0.026322 0.008127 -0.016511 0.002579 -0.011791 0.008002 0.010728 -0.001733 0.000859 -0.005031 0.019328 0.007115 -0.006281 0.018775 -0.014761 -0.016425 0.021906 0.010420 -0.000051 0.003720 -0.029621 -0.003964 0.011612 -0.022375 0.000448 0.002416 0.008097 -0.016946 0.015876 -0.012135 -0.009236 -0.028977 -0.003093 -0.017098 0.021579 -0.006858 -0.004122 0.020833 0.027857 -0.000411 0.015696 0.007200 -0.007559 -0.001486 0.002652 -0.026339 -0.011517 -0.012737 -0.028256 0.006542 -0.017194 -0.016417 0.011808 0.009093 -0.008117 -0.021236 0.008238 0.017689 0.012094 -0.014348 0.025394 0.001029 -0.008953 0.009641 0.004319 0.015175 0.007418 0.016690 0.012101 0.023366 0.000879 0.005933 
plus -0.007493 -0.038640 0.021212 -0.006150 0.008458 -0.001947 -0.024801 -0.021248 -0.021721 0.030965 0.005752 0.070632 -0.034382 -0.024296 0.002912 0.073555 0.042098 0.022273 0.049461 0.032764 -0.038008 0.045937 0.023081 -0.021374 -0.017572 -0.023102 0.003925 0.018685 0.053185 0.008791 -0.033130 0.005409 -0.031678 0.017017 0.013330 -0.005981 0.004650 -0.005531 0.036055 0.006045 -0.015649 0.031216 -0.025424 -0.022908 0.041442 0.024533 -0.000711 0.013081 -0.067919 -0.013512 0.009336 -0.033600 -0.000041 -0.005536 0.011861 -0.027311 0.036296 -0.027329 -0.021535 -0.060904 -0.007301 -0.033431 0.039788 -0.025579 -0.015331 0.047030 0.052748 0.009952 0.037177 0.013261 -0.016887 -0.009617 0.013826 -0.053023 -0.031348 -0.020990 -0.050992 0.009843 -0.043380 -0.036037 0.011491 0.017288 -0.024113 -0.029192 0.016943 0.045391 0.018436 -0.026396 0.051319 -0.003753 -0.020994 0.020627 0.006237 0.021016 0.010232 0.037338 0.018605 0.037142 -0.003965 0.002092 
me -0.007735 -0.037442 0.021396 -0.005411 0.007739 -0.006778 -0.022511 -0.015243 -0.018398 0.026038 0.003031 0.056466 -0.031101 -0.023263 0.004384 0.062918 0.034676 0.026771 0.044944 0.018923 -0.030432 0.043160 0.014813 -0.011843 -0.012798 -0.011513 0.002507 0.017892 0.045997 0.010575 -0.029522 0.005774 -0.025307 0.017467 0.007238 -0.010913 0.009795 0.001797 0.023910 0.007632 -0.015415 0.026674 -0.028731 -0.017887 0.031646 0.023755 -0.003303 0.004676 -0.051443 -0.012261 0.007267 -0.029701 -0.007444 -0.002532 0.004165 -0.022057 0.035018 -0.020459 -0.019935 -0.049169 -0.002463 -0.023835 0.033927 -0.015499 -0.017443 0.039640 0.041895 0.004782 0.033417 0.011317 -0.017653 -0.005639 0.005627 -0.045942 -0.029637 -0.020442 -0.049062 0.008450 -0.033905 -0.035615 0.015343 0.007328 -0.023115 -0.027908 0.016999 0.040146 0.017370 -0.027272 0.039932 0.004697 -0.010539 0.011295 0.002650 0.023370 0.009002 0.036057 0.016304 0.038559 -0.003886 0.000617 
tout -0.018725 -0.064183 0.038415 -0.007562 0.012462 -0.012687 -0.036354 -0.026243 -0.030627 0.057919 0.007354 0.116626 -0.049715 -0.038387 0.001952 0.124780 0.071959 0.046414 0.086217 0.049811 -0.061763 0.072202 0.027451 -0.031601 -0.024384 -0.029258 0.006957 0.034486 0.092214 0.025231 -0.053975 0.009555 -0.045480 0.026812 0.018973 -0.018345 0.011415 -0.001277 0.055683 0.012198 -0.032173 0.052570 -0.045827 -0.038921 0.068364 0.041314 -0.001948 0.012694 -0.107614 -0.011177 0.025960 -0.055018 -0.001808 -0.006489 0.017681 -0.050239 0.054574 -0.041137 -0.034579 -0.098349 -0.011186 -0.045543 0.054004 -0.036905 -0.022305 0.077666 0.089872 0.008378 0.051706 0.022334 -0.033802 -0.020715 0.020230 -0.089026 -0.054096 -0.040045 -0.087746 0.012529 -0.066235 -0.066887 0.030617 0.025042 -0.035993 -0.056831 0.029717 0.066757 0.029030 -0.045002 0.080309 0.003539 -0.031593 0.027783 0.004617 0.040988 0.009493 0.061334 0.019354 0.064827 -0.008781 0.012402 
sais -0.019287 -0.063223 0.031532 -0.008510 0.005875 -0.008819 -0.028626 -0.024538 -0.027295 0.056717 0.012025 0.109989 -0.043970 -0.041313 0.006053 0.111525 0.069195 0.041552 0.088660 0.042700 -0.052667 0.069234 0.028946 -0.030271 -0.018497 -0.031849 0.004151 0.033759 0.085107 0.022409 -0.049975 0.006536 -0.038315 0.024272 0.018045 -0.014163 0.012690 -0.001491 0.055779 0.014274 -0.029912 0.054198 -0.042085 -0.042022 0.068526 0.043345 0.000099 0.008270 -0.102072 -0.018799 0.020273 -0.057081 -0.001946 -0.005266 0.010571 -0.041569 0.061161 -0.036229 -0.034132 -0.090368 -0.008714 -0.051796 0.057196 -0.028856 -0.019907 0.073422 0.080541 0.007236 0.049178 0.026619 -0.034706 -0.015419 0.019179 -0.079414 -0.052925 -0.034753 -0.080994 0.014188 -0.062802 -0.063990 0.022695 0.020980 -0.039875 -0.048260 0.031098 0.066248 0.032338 -0.049327 0.069615 0.004069 -0.029374 0.023254 0.001611 0.034543 0.007554 0.054884 0.025612 0.060104 -0.009925 0.006809 
on -0.007813 -0.042668 0.023945 -0.001349 0.001347 -0.007827 -0.023136 -0.014707 -0.015991 0.041380 0.007686 0.080268 -0.035283 -0.028159 0.008492 0.082679 0.053205 0.032637 0.057596 0.030027 -0.038991 0.055589 0.022824 -0.022874 -0.019844 -0.024160 0.003567 0.018385 0.062648 0.014031 -0.041167 0.005674 -0.030785 0.014460 0.010889 -0.012138 0.006382 0.000692 0.032440 0.008915 -0.017117 0.038238 -0.031438 -0.021698 0.044175 0.027143 0.003865 0.011021 -0.074675 -0.009849 0.019302 -0.042814 -0.000632 0.001378 0.011739 -0.035729 0.040925 -0.022267 -0.019601 -0.068226 -0.004844 -0.030161 0.037751 -0.023309 -0.020728 0.053703 0.059029 0.003738 0.038815 0.011934 -0.024862 -0.013597 0.007281 -0.057062 -0.032558 -0.031108 -0.058661 0.001986 -0.040806 -0.038043 0.014932 0.019885 -0.022119 -0.038693 0.016781 0.047998 0.019857 -0.030655 0.049614 0.000171 -0.023363 0.018858 -0.002599 0.030541 0.006445 0.038652 0.018816 0.039648 -0.007546 0.005444 
j'ai -0.009534 -0.032593 0.012555 -0.004825 0.002638 0.001427 -0.011940 -0.011692 -0.010712 0.024500 0.008125 0.051689 -0.021461 -0.022311 0.003916 0.054541 0.034079 0.022845 0.037057 0.017026 -0.028657 0.037140 0.016896 -0.014357 -0.011848 -0.010004 0.007886 0.016987 0.040075 0.004616 -0.022439 0.006832 -0.016856 0.015670 0.010144 -0.005391 0.007025 -0.003947 0.022050 0.006618 -0.009860 0.027014 -0.018820 -0.015443 0.033734 0.014140 0.002044 0.004364 -0.048746 -0.009645 0.004897 -0.028158 -0.007145 -0.005358 0.002784 -0.023385 0.026989 -0.016397 -0.010692 -0.044281 -0.006527 -0.016798 0.026468 -0.011936 -0.012931 0.035464 0.039284 0.002288 0.019995 0.009449 -0.016867 -0.005158 0.004989 -0.042090 -0.018712 -0.013837 -0.040612 0.007988 -0.028319 -0.029660 0.014479 0.008432 -0.019961 -0.022694 0.017152 0.027722 0.019926 -0.019416 0.037621 -0.003350 -0.011856 0.009350 -0.000764 0.019091 0.000949 0.030779 0.014568 0.026025 -0.007915 0.001860 
a -0.006171 -0.030966 0.010728 -0.005984 0.005128 0.001184 -0.011415 -0.013255 -0.010695 0.023876 0.006889 0.052069 -0.022167 -0.020755 -0.001440 0.051540 0.036942 0.022883 0.037851 0.017296 -0.026944 0.033703 0.016368 -0.011566 -0.011883 -0.016539 0.000728 0.014720 0.040172 0.008704 -0.027942 0.003688 -0.023393 0.006327 0.006397 -0.002525 0.000936 0.001156 0.022186 0.005194 -0.017022 0.027507 -0.018933 -0.018610 0.026853 0.023136 -0.001252 0.004208 -0.041693 -0.006078 0.009539 -0.029671 0.001516 0.001047 0.006912 -0.025680 0.024562 -0.017020 -0.012092 -0.045931 -0.008038 -0.020828 0.028354 -0.017383 -0.009070 0.034506 0.033816 -0.000466 0.025284 0.009079 -0.017235 -0.006076 0.010322 -0.040803 -0.028212 -0.020636 -0.033869 0.004296 -0.029459 -0.027601 0.006949 0.005752 -0.012615 -0.024604 0.011735 0.033387 0.018118 -0.016406 0.033234 0.002379 -0.017384 0.009945 -0.002679 0.017768 -0.000185 0.023161 0.008092 0.033846 -0.005252 0.003370 
des -0.014875 -0.048474 0.032369 -0.007913 0.006485 -0.009770 -0.021538 -0.022798 -0.019591 0.046101 0.011394 0.086016 -0.041470 -0.034311 0.001232 0.089437 0.052063 0.032670 0.070564 0.030850 -0.043588 0.061200 0.027396 -0.018746 -0.012987 -0.026031 0.008894 0.026555 0.074611 0.011472 -0.045724 0.000457 -0.030340 0.024317 0.011872 -0.007436 0.005341 -0.007071 0.042607 0.007080 -0.023704 0.045612 -0.032053 -0.034076 0.053064 0.031642 0.002459 0.014418 -0.079486 -0.016331 0.014271 -0.045491 -0.000104 -0.002609 0.007520 -0.038037 0.049859 -0.027135 -0.031368 -0.080407 -0.008583 -0.043147 0.046377 -0.029177 -0.018311 0.064701 0.072141 0.003109 0.047143 0.022211 -0.026081 -0.008020 0.014119 -0.061532 -0.041442 -0.032870 -0.066002 0.005017 -0.054029 -0.054438 0.019443 0.018500 -0.033859 -0.044161 0.019391 0.051699 0.021025 -0.036658 0.063050 -0.002158 -0.017064 0.024994 0.002075 0.033943 0.010544 0.046875 0.016765 0.055482 -0.010300 0.006791 
c'est -0.008988 -0.051652 0.024975 -0.007849 0.008585 -0.004605 -0.023933 -0.018507 -0.026172 0.045775 0.011264 0.087743 -0.040598 -0.028513 0.007251 0.091952 0.056081 0.031179 0.067186 0.037868 -0.040115 0.058192 0.023875 -0.024959 -0.018697 -0.024670 0.004567 0.023815 0.065916 0.014998 -0.038303 0.001521 -0.032255 0.020303 0.016194 -0.011034 0.011523 -0.004375 0.041011 0.013596 -0.025466 0.039830 -0.038546 -0.029841 0.048735 0.036345 0.003230 0.014991 -0.085884 -0.010194 0.017153 -0.046627 -0.008203 -0.002646 0.010438 -0.035875 0.043642 -0.027165 -0.027381 -0.077922 -0.015275 -0.034620 0.042905 -0.027768 -0.017219 0.061610 0.066625 0.006402 0.046686 0.021580 -0.025567 -0.008551 0.016924 -0.063412 -0.044882 -0.029756 -0.062855 0.009364 -0.048740 -0.048565 0.020377 0.020024 -0.035280 -0.043717 0.020109 0.053190 0.021118 -0.036605 0.057021 -0.003931 -0.025476 0.021098 0.006562 0.026923 0.006720 0.048635 0.019978 0.053308 -0.004618 0.006928 
la -0.013459 -0.037493 0.023461 -0.005176 0.005872 -0.002112 -0.020661 -0.023292 -0.014504 0.033934 0.009556 0.076174 -0.036628 -0.026295 0.001520 0.080991 0.047629 0.030974 0.053236 0.029937 -0.038170 0.045411 0.020012 -0.021020 -0.010385 -0.022752 0.008898 0.022014 0.060309 0.011765 -0.035052 0.007730 -0.029259 0.011590 0.017883 -0.013774 0.003328 0.001179 0.036809 0.012732 -0.026303 0.037142 -0.028779 -0.028471 0.045915 0.024402 0.003419 0.007056 -0.064159 -0.011443 0.018548 -0.043456 -0.003110 0.003272 0.006924 -0.035003 0.033463 -0.029562 -0.018081 -0.062919 -0.004928 -0.027904 0.032419 -0.020106 -0.012745 0.053298 0.061603 0.003419 0.038098 0.016986 -0.025189 -0.006440 0.006441 -0.058599 -0.029681 -0.022950 -0.058113 0.007772 -0.044589 -0.044847 0.013863 0.015729 -0.029045 -0.033031 0.020747 0.048132 0.023266 -0.032097 0.045496 0.003601 -0.017313 0.020901 -0.002664 0.023175 0.002878 0.040755 0.012308 0.043646 -0.005358 0.007017 
un -0.006907 -0.031711 0.015203 -0.004361 0.001276 -0.006669 -0.010306 -0.010182 -0.016928 0.028015 0.009063 0.048846 -0.019750 -0.016426 0.008139 0.056031 0.036756 0.014440 0.039551 0.023057 -0.026504 0.031248 0.017106 -0.011640 -0.011239 -0.013715 0.005469 0.011363 0.040684 0.013995 -0.023291 0.000663 -0.021258 0.011415 0.006125 -0.002148 0.004767 -0.005057 0.022719 0.002472 -0.010782 0.017972 -0.021771 -0.012028 0.026024 0.018668 -0.001565 0.003249 -0.047512 -0.007018 0.006644 -0.023925 -0.000844 0.000635 0.007607 -0.021255 0.027123 -0.017582 -0.011706 -0.039134 -0.009295 -0.024223 0.022555 -0.015704 -0.013931 0.036209 0.038989 0.009427 0.026470 0.014984 -0.015886 -0.005161 0.009555 -0.032845 -0.025479 -0.014562 -0.035905 0.001314 -0.029308 -0.023762 0.013372 0.010825 -0.019845 -0.020394 0.017214 0.034628 0.019136 -0.017741 0.028411 -0.002083 -0.011582 0.015404 0.003721 0.015502 0.005098 0.028179 0.005539 0.031953 -0.004714 0.002167 
, -0.010532 -0.031444 0.012453 -0.001266 0.005478 -0.003102 -0.013109 -0.009095 -0.015472 0.027844 0.007938 0.058307 -0.026913 -0.019579 0.007358 0.055645 0.033057 0.022870 0.045045 0.019589 -0.027311 0.039802 0.018368 -0.016045 -0.011773 -0.016825 0.001900 0.015163 0.047186 0.010648 -0.023029 0.007080 -0.019520 0.015031 0.007478 -0.003758 0.006811 -0.005419 0.029121 0.006692 -0.020365 0.020274 -0.017371 -0.020501 0.033552 0.016549 -0.004344 0.002771 -0.046394 -0.006610 0.009298 -0.031204 -0.006861 -0.003032 0.009407 -0.019741 0.023490 -0.013822 -0.015078 -0.047292 -0.011183 -0.026318 0.030069 -0.011835 -0.015816 0.041164 0.036852 0.003725 0.027358 0.011320 -0.017049 -0.010339 0.010299 -0.043651 -0.024341 -0.015400 -0.044529 0.007128 -0.025900 -0.032755 0.010303 0.007357 -0.020000 -0.026693 0.014809 0.034562 0.012523 -0.020068 0.039555 0.000257 -0.012740 0.014517 -0.002296 0.019930 0.003465 0.024744 0.012884 0.036503 -0.005547 0.001894 
ma -0.006401 -0.039829 0.024561 -0.005583 0.006703 -0.010255 -0.018756 -0.014910 -0.015256 0.030400 0.003663 0.073860 -0.027762 -0.025758 0.009078 0.081255 0.043998 0.027977 0.051560 0.033276 -0.034270 0.051404 0.015600 -0.019300 -0.016583 -0.015178 0.004785 0.024250 0.053736 0.016015 -0.037601 0.002582 -0.022979 0.017124 0.011949 -0.007833 0.006611 0.001198 0.034591 0.004977 -0.021016 0.030167 -0.032606 -0.025236 0.043715 0.029340 -0.004272 0.011241 -0.060938 -0.009411 0.016315 -0.037691 -0.001975 -0.006454 0.005117 -0.033221 0.036834 -0.030089 -0.025560 -0.060132 -0.004644 -0.032760 0.037713 -0.017058 -0.017656 0.047244 0.058397 0.005159 0.033013 0.015139 -0.018499 -0.008796 0.008013 -0.056667 -0.032598 -0.025618 -0.058086 0.008912 -0.036729 -0.037213 0.019156 0.011615 -0.022474 -0.036182 0.019546 0.040195 0.023083 -0.030337 0.050699 0.004220 -0.018703 0.020551 0.002810 0.027444 0.008480 0.039621 0.015303 0.047135 -0.003460 0.004789 
même -0.009142 -0.030490 0.020186 -0.002557 -0.000232 -0.009256 -0.016156 -0.011530 -0.009478 0.028143 0.001072 0.056440 -0.023853 -0.018818 0.002679 0.062256 0.038677 0.023933 0.047780 0.027781 -0.033070 0.039429 0.012537 -0.014645 -0.012809 -0.020173 0.001601 0.020486 0.049087 0.008661 -0.032120 0.005408 -0.022483 0.017620 0.007256 -0.005695 0.010175 -0.000435 0.024536 0.007236 -0.012795 0.023598 -0.018148 -0.022176 0.034350 0.026195 0.001100 0.003227 -0.050988 -0.008944 0.013104 -0.027112 -0.001907 -0.005322 0.008441 -0.027542 0.027035 -0.024398 -0.019575 -0.051094 -0.008650 -0.024283 0.024908 -0.017699 -0.011641 0.043451 0.041355 0.002337 0.031287 0.007410 -0.019516 -0.008153 0.010375 -0.041098 -0.027888 -0.023115 -0.044764 0.000944 -0.032266 -0.028637 0.016772 0.015116 -0.015622 -0.022740 0.010025 0.035363 0.017250 -0.025447 0.034808 0.004591 -0.019735 0.008826 0.004737 0.020973 0.006948 0.028975 0.014665 0.036742 -0.001343 0.000022 
c'était -0.005021 -0.041767 0.016917 -0.000770 0.007049 -0.001157 -0.021946 -0.015793 -0.017951 0.028307 0.009165 0.073586 -0.033621 -0.029626 0.007317 0.072203 0.044598 0.025969 0.057514 0.029908 -0.038458 0.046785 0.016668 -0.020363 -0.015162 -0.019038 0.008042 0.022162 0.058477 0.011525 -0.028627 -0.000405 -0.021439 0.013406 0.010361 -0.010730 0.008324 -0.006996 0.036546 0.007489 -0.019362 0.034333 -0.025304 -0.023395 0.040056 0.020768 -0.003248 0.005512 -0.066140 -0.008992 0.009302 -0.035475 -0.006304 -0.005461 0.004845 -0.029227 0.039985 -0.028037 -0.021047 -0.060583 -0.010092 -0.026056 0.035709 -0.018875 -0.018156 0.042469 0.049889 0.003819 0.034879 0.018911 -0.016269 -0.010759 0.011749 -0.052807 -0.035048 -0.027178 -0.050499 0.009982 -0.041026 -0.040665 0.018857 0.011731 -0.022230 -0.031965 0.015365 0.042119 0.019517 -0.032065 0.047302 0.000578 -0.014583 0.013121 0.003289 0.019708 0.010338 0.034167 0.012733 0.043157 -0.004168 0.005153 
mais -0.007809 -0.048374 0.028335 -0.002226 0.010779 -0.004878 -0.028096 -0.024222 -0.025922 0.042280 0.010472 0.089315 -0.037161 -0.027697 0.008785 0.097118 0.055375 0.032193 0.065611 0.030585 -0.045165 0.060831 0.024802 -0.021831 -0.021828 -0.026792 0.008621 0.025175 0.069002 0.013457 -0.041813 -0.000927 -0.037277 0.015430 0.018693 -0.013221 0.004880 0.001014 0.044806 0.012766 -0.024218 0.034799 -0.030847 -0.029517 0.050741 0.029870 0.000612 0.012102 -0.077156 -0.012146 0.021632 -0.046243 -0.006958 0.001878 0.015434 -0.032067 0.045335 -0.034891 -0.030280 -0.070483 -0.006240 -0.036605 0.038567 -0.021743 -0.019683 0.058333 0.068406 0.005326 0.041367 0.022688 -0.021936 -0.013792 0.008549 -0.066408 -0.040006 -0.030276 -0.069394 0.006625 -0.044129 -0.046842 0.024755 0.014320 -0.025176 -0.046364 0.017432 0.057504 0.029285 -0.032593 0.053649 0.002662 -0.025835 0.020410 -0.000522 0.031435 0.004159 0.040622 0.019953 0.052001 -0.001565 0.007013 
Ok. 0.001367 -0.008717 0.007967 -0.002751 0.003347 -0.002361 -0.003070 -0.001309 -0.008922 0.008319 0.004378 0.014420 -0.009677 -0.004368 0.002134 0.024573 0.017053 0.007419 0.013728 0.011741 -0.007045 0.010119 0.006270 -0.004104 -0.001924 -0.004028 0.004132 0.006496 0.010408 0.003994 -0.005384 -0.002555 -0.008614 0.002335 -0.001614 -0.001307 0.000333 -0.002458 0.009655 0.002578 -0.009750 0.006325 -0.010491 -0.004429 0.014227 0.002911 0.002798 -0.000859 -0.012514 -0.006891 0.003716 -0.011144 -0.001444 0.000406 0.004202 -0.004523 0.006622 -0.008221 -0.000755 -0.017786 -0.002201 -0.009959 0.008124 -0.010118 -0.000266 0.015156 0.018134 -0.000899 0.004705 -0.000735 -0.001670 -0.002631 -0.001303 -0.010325 -0.011730 -0.005346 -0.016858 -0.000529 -0.010141 -0.008242 -0.000454 0.002757 -0.010273 -0.012530 0.001670 0.013879 0.003652 -0.008030 0.015238 0.003991 -0.001922 0.004185 -0.004442 0.010686 0.000436 0.007312 0.003486 0.016125 -0.003575 -0.001797 
en -0.004664 -0.033345 0.022013 -0.000048 0.001443 -0.006337 -0.015054 -0.011061 -0.012036 0.026165 0.009336 0.060889 -0.029415 -0.020899 0.001992 0.061056 0.033004 0.023279 0.046151 0.022719 -0.031495 0.036847 0.012773 -0.010018 -0.011133 -0.018163 0.008930 0.020830 0.042993 0.006122 -0.031369 0.001749 -0.020994 0.017377 0.008801 -0.009229 0.004404 -0.000997 0.031977 0.007666 -0.018037 0.022968 -0.021429 -0.017083 0.034089 0.022302 -0.004490 0.008619 -0.050633 -0.008975 0.010125 -0.029717 -0.006871 -0.002283 0.002741 -0.023556 0.027873 -0.020605 -0.021855 -0.049671 -0.003839 -0.022013 0.032768 -0.012919 -0.011720 0.035913 0.044987 0.002671 0.029465 0.014491 -0.018104 -0.009307 0.004096 -0.042822 -0.030853 -0.022963 -0.045023 0.002918 -0.034239 -0.034932 0.016662 0.016583 -0.019264 -0.031539 0.018394 0.036433 0.017186 -0.022520 0.043626 0.000393 -0.011337 0.016798 0.001787 0.021428 0.009320 0.034233 0.013165 0.030658 0.000688 0.004756 
vraiment -0.003072 -0.030186 0.019701 -0.001581 0.006507 -0.008156 -0.019179 -0.017720 -0.009933 0.029517 0.002758 0.053217 -0.020583 -0.020972 0.003416 0.053121 0.036142 0.016649 0.041276 0.016520 -0.025491 0.034243 0.010823 -0.015157 -0.011647 -0.018882 0.004560 0.011325 0.042842 0.012775 -0.029393 -0.002165 -0.022869 0.009360 0.010508 -0.010950 0.006298 -0.003392 0.028312 0.004171 -0.017996 0.022380 -0.019213 -0.015128 0.036145 0.020155 0.004239 0.004493 -0.048768 -0.004491 0.006495 -0.026155 -0.002344 -0.006441 0.011719 -0.027308 0.025501 -0.019813 -0.013642 -0.045367 -0.004765 -0.024313 0.031050 -0.012183 -0.009662 0.038941 0.045850 0.008604 0.025163 0.010221 -0.013153 -0.005534 0.009074 -0.040199 -0.022510 -0.019953 -0.036270 0.004998 -0.025129 -0.027231 0.011896 0.008097 -0.021371 -0.023818 0.012674 0.033569 0.014576 -0.026096 0.033364 0.000415 -0.012792 0.011115 0.004226 0.021591 0.001771 0.023461 0.007530 0.027901 -0.000163 -0.000286 
est-ce -0.006981 -0.025964 0.013161 -0.002932 -0.000422 -0.003143 -0.014230 -0.011737 -0.013992 0.017995 0.004386 0.042484 -0.017844 -0.015398 0.007013 0.048819 0.024807 0.017382 0.029970 0.016205 -0.023122 0.026523 0.015706 -0.009674 -0.012790 -0.015716 -0.001594 0.012956 0.033702 0.004651 -0.021209 0.001765 -0.017149 0.013219 0.010363 -0.006166 0.005908 -0.002756 0.018949 0.007016 -0.012831 0.023570 -0.014487 -0.010970 0.025275 0.014516 -0.003015 0.005961 -0.038930 -0.002242 0.012188 -0.024571 -0.003144 -0.003767 0.008416 -0.012894 0.018895 -0.018510 -0.012742 -0.037026 -0.007379 -0.021626 0.020305 -0.014810 -0.009315 0.026724 0.033036 0.006484 0.017544 0.003866 -0.016487 -0.008198 0.007937 -0.031520 -0.020070 -0.017046 -0.029544 0.001851 -0.027270 -0.023127 0.008662 0.010717 -0.009648 -0.022854 0.010411 0.028296 0.010158 -0.015010 0.028530 0.004702 -0.010328 0.009262 0.004890 0.018460 -0.000456 0.019372 0.008365 0.026492 0.001974 0.002970 
Ben -0.002895 -0.033277 0.017102 -0.006078 0.000497 -0.003185 -0.015181 -0.009875 -0.010821 0.032640 0.004932 0.059999 -0.024300 -0.021574 0.004665 0.061632 0.039077 0.017450 0.042506 0.025024 -0.033663 0.039032 0.010856 -0.010347 -0.010249 -0.015768 0.001469 0.019469 0.046994 0.013801 -0.023526 0.001806 -0.020166 0.014933 0.007370 -0.009195 0.006185 0.000340 0.027562 0.002681 -0.020160 0.025934 -0.024053 -0.021367 0.037338 0.026043 0.003291 0.003855 -0.047508 -0.009706 0.016039 -0.033937 -0.002435 -0.005798 0.003454 -0.023560 0.028440 -0.016332 -0.012649 -0.049627 -0.002690 -0.022458 0.027704 -0.014456 -0.011805 0.042160 0.045236 0.008693 0.022885 0.013714 -0.013811 -0.008740 0.007697 -0.040256 -0.022464 -0.023582 -0.048639 0.002669 -0.030752 -0.036320 0.011548 0.010145 -0.023504 -0.024958 0.010134 0.034602 0.019603 -0.022395 0.035725 -0.004141 -0.016765 0.013059 -0.001741 0.019518 0.005392 0.028566 0.010961 0.036062 -0.003480 0.006840 
ce -0.014969 -0.069888 0.040754 -0.009390 0.012827 -0.006181 -0.039411 -0.031968 -0.031944 0.056502 0.016202 0.118064 -0.049796 -0.046548 0.010872 0.129190 0.077062 0.042522 0.086137 0.051116 -0.063544 0.074289 0.029612 -0.025719 -0.023110 -0.037257 0.004508 0.033718 0.091368 0.020839 -0.061854 0.008450 -0.048954 0.029298 0.019683 -0.020100 0.009602 -0.001253 0.058564 0.018558 -0.031372 0.052366 -0.043721 -0.044290 0.067827 0.047387 -0.004261 0.009847 -0.109979 -0.017089 0.026719 -0.060883 -0.009486 0.001238 0.015636 -0.050050 0.065562 -0.042760 -0.038049 -0.100168 -0.015736 -0.047083 0.055121 -0.036550 -0.020568 0.076505 0.091273 0.009225 0.059742 0.026385 -0.032754 -0.015282 0.013539 -0.092071 -0.056748 -0.036972 -0.088805 0.006940 -0.061106 -0.065125 0.022402 0.020114 -0.044108 -0.056483 0.026895 0.075489 0.035168 -0.049424 0.078002 0.000585 -0.034062 0.024196 0.000629 0.038281 0.013833 0.057641 0.026353 0.066909 -0.012342 0.004572 
j'étais -0.010245 -0.041873 0.021961 -0.000972 0.007099 -0.003077 -0.020389 -0.020391 -0.018937 0.030304 0.004765 0.066710 -0.025260 -0.022156 -0.000096 0.073149 0.039278 0.018730 0.046097 0.027068 -0.028214 0.043550 0.016576 -0.010417 -0.013540 -0.018196 0.009219 0.016801 0.050884 0.008360 -0.034037 -0.002180 -0.020065 0.013509 0.016208 -0.012578 0.004169 -0.006078 0.035657 0.010121 -0.014474 0.029380 -0.027121 -0.017424 0.040447 0.028932 0.000706 0.007627 -0.060332 -0.011111 0.010459 -0.037068 -0.001971 -0.003210 0.005534 -0.030993 0.034722 -0.023503 -0.017973 -0.054241 -0.009447 -0.023959 0.028041 -0.021568 -0.011759 0.044872 0.054424 0.009235 0.035164 0.012103 -0.023933 -0.009199 0.010557 -0.050091 -0.025804 -0.023326 -0.049566 0.001470 -0.034659 -0.037930 0.016586 0.011825 -0.018325 -0.035356 0.013850 0.045621 0.020670 -0.024981 0.046673 -0.002849 -0.021203 0.014137 -0.000983 0.022149 0.004925 0.037133 0.012926 0.038561 -0.006439 0.008934 
fois -0.010997 -0.053640 0.031939 -0.002948 0.006203 -0.012437 -0.031151 -0.024587 -0.023075 0.039603 0.005902 0.091617 -0.034991 -0.035459 0.001945 0.093907 0.063003 0.031977 0.071147 0.035228 -0.049110 0.062700 0.029112 -0.022831 -0.020434 -0.020984 0.003975 0.029114 0.068651 0.014573 -0.044874 0.001295 -0.035750 0.016584 0.012259 -0.016563 0.006258 -0.003297 0.045122 0.012094 -0.025723 0.044866 -0.036856 -0.033755 0.052265 0.038556 0.004507 0.013749 -0.079638 -0.011080 0.015342 -0.046936 -0.003978 -0.005748 0.010017 -0.035264 0.044609 -0.035956 -0.025165 -0.072972 -0.014613 -0.035152 0.049826 -0.022590 -0.021494 0.064436 0.075111 0.011413 0.039691 0.023029 -0.023785 -0.017262 0.014140 -0.067675 -0.045471 -0.036420 -0.067007 0.007350 -0.052027 -0.050160 0.022138 0.020375 -0.032408 -0.038498 0.027715 0.056290 0.024611 -0.038048 0.059294 -0.004335 -0.019991 0.020552 -0.002641 0.029414 0.004601 0.050651 0.014815 0.050628 -0.007549 0.011049 
comme -0.013015 -0.033890 0.022798 0.000232 0.007700 -0.001573 -0.020171 -0.020235 -0.020239 0.034639 0.003848 0.069387 -0.028276 -0.023831 -0.000349 0.073076 0.042637 0.023948 0.055423 0.024987 -0.032630 0.048343 0.016240 -0.018557 -0.017964 -0.017153 0.008095 0.017016 0.047739 0.012053 -0.033651 0.001361 -0.029527 0.018348 0.007414 -0.004482 0.011390 -0.006293 0.030041 0.010051 -0.016978 0.034409 -0.024248 -0.025107 0.040537 0.022222 -0.002404 0.010829 -0.066109 -0.011370 0.008971 -0.033562 0.000427 -0.001520 0.007956 -0.029187 0.030644 -0.022016 -0.024376 -0.053670 -0.012210 -0.028070 0.037111 -0.024555 -0.017206 0.046165 0.056079 0.004281 0.029440 0.010743 -0.018188 -0.009829 0.007258 -0.046375 -0.027987 -0.018508 -0.050111 0.007739 -0.040657 -0.041356 0.016259 0.017920 -0.020292 -0.034824 0.013509 0.046479 0.016151 -0.024154 0.041759 -0.000016 -0.012443 0.017966 -0.002312 0.022899 0.011066 0.030068 0.012280 0.036105 -0.005266 0.001348 
qu'il -0.011345 -0.048190 0.031404 -0.004008 0.011944 -0.006944 -0.027704 -0.027935 -0.021541 0.049544 0.008571 0.095821 -0.042297 -0.034396 0.000625 0.094608 0.059207 0.030677 0.070162 0.037282 -0.047505 0.057680 0.024008 -0.017215 -0.020895 -0.028379 0.007820 0.026864 0.073136 0.017147 -0.044713 0.000657 -0.040644 0.021818 0.014359 -0.008176 0.011280 -0.006718 0.045380 0.011347 -0.022708 0.038282 -0.037853 -0.027942 0.050831 0.036616 0.003001 0.009490 -0.079283 -0.014659 0.016170 -0.047074 -0.002353 -0.001141 0.009456 -0.038142 0.047032 -0.030200 -0.024659 -0.083455 -0.007632 -0.038509 0.042288 -0.026909 -0.019326 0.059071 0.070384 0.009188 0.044298 0.020561 -0.030307 -0.016215 0.008780 -0.073569 -0.038610 -0.036124 -0.067232 0.010533 -0.054249 -0.049056 0.020744 0.015186 -0.030182 -0.049522 0.018581 0.062684 0.029998 -0.038735 0.063732 -0.004462 -0.021780 0.016917 -0.001852 0.033784 0.005967 0.044950 0.024196 0.053257 -0.010674 0.009406 
une -0.010539 -0.036198 0.022776 -0.006461 0.004171 -0.002871 -0.014932 -0.014804 -0.015134 0.033860 0.003179 0.069734 -0.034216 -0.020861 0.005011 0.073860 0.041914 0.019913 0.055834 0.026866 -0.038680 0.041505 0.023409 -0.017979 -0.013240 -0.018236 0.009675 0.017711 0.053864 0.011916 -0.034850 -0.001967 -0.028584 0.017540 0.012322 -0.009091 0.009143 -0.004271 0.033324 0.010497 -0.018079 0.029293 -0.025167 -0.018835 0.042121 0.023874 -0.004311 0.010152 -0.058057 -0.004535 0.013950 -0.040095 -0.003853 -0.005239 0.012534 -0.024321 0.039502 -0.027252 -0.022903 -0.056746 -0.010279 -0.030484 0.029424 -0.017767 -0.016928 0.046489 0.056863 0.001952 0.029002 0.016590 -0.017813 -0.005114 0.010709 -0.046563 -0.028689 -0.025025 -0.053233 0.007384 -0.040564 -0.042943 0.014032 0.015357 -0.020678 -0.029525 0.020932 0.046655 0.018301 -0.024816 0.044802 0.000568 -0.020591 0.012820 0.005914 0.019064 0.005649 0.036681 0.011769 0.036776 -0.000072 0.000934 
ou -0.009133 -0.041649 0.025406 -0.003799 0.007608 -0.009160 -0.024243 -0.023980 -0.024178 0.040752 0.010714 0.080771 -0.030295 -0.031136 0.005293 0.088194 0.049182 0.028807 0.059264 0.035643 -0.044086 0.055252 0.022278 -0.022505 -0.013359 -0.020014 0.004158 0.028368 0.060327 0.015861 -0.038157 0.001831 -0.033386 0.020939 0.017934 -0.012557 0.010852 -0.003718 0.038476 0.007649 -0.018542 0.038190 -0.036357 -0.025149 0.047661 0.030603 0.003303 0.007835 -0.067137 -0.006619 0.020290 -0.041267 -0.001422 0.001937 0.009834 -0.034043 0.041269 -0.022534 -0.020615 -0.066052 -0.009200 -0.029998 0.040649 -0.019325 -0.013621 0.054762 0.063504 0.006336 0.042435 0.015591 -0.026262 -0.009558 0.013553 -0.058960 -0.033625 -0.023665 -0.063086 0.009263 -0.040975 -0.048967 0.019349 0.012048 -0.030651 -0.039929 0.019396 0.052412 0.018684 -0.027437 0.052042 -0.003390 -0.015715 0.018838 0.003927 0.021894 0.005601 0.043989 0.016239 0.043891 -0.008785 0.010918 
comment -0.013594 -0.049235 0.026678 -0.005559 0.008681 -0.011477 -0.026960 -0.020794 -0.015622 0.040551 0.004678 0.075253 -0.036187 -0.032341 0.008421 0.084035 0.047541 0.027931 0.057306 0.034562 -0.040624 0.048394 0.022520 -0.016580 -0.021009 -0.017927 0.005819 0.018791 0.059439 0.016137 -0.041456 0.005965 -0.030674 0.019598 0.014371 -0.012190 0.009992 -0.003938 0.032728 0.008246 -0.019691 0.036143 -0.034489 -0.026990 0.043650 0.034542 -0.003834 0.013687 -0.076661 -0.006220 0.018990 -0.036452 -0.003991 0.002131 0.011703 -0.035454 0.039552 -0.026996 -0.025256 -0.067417 -0.004154 -0.030504 0.041959 -0.019783 -0.012681 0.049879 0.066637 0.008674 0.040857 0.018397 -0.024763 -0.010931 0.012863 -0.062946 -0.033283 -0.030912 -0.056489 0.007685 -0.039097 -0.042890 0.022479 0.013389 -0.031741 -0.038347 0.020608 0.050045 0.022072 -0.035988 0.055298 -0.004200 -0.017241 0.017309 0.005178 0.031790 0.011378 0.038776 0.014345 0.044990 -0.000664 0.004680 
ben -0.005119 -0.037464 0.020929 -0.007738 0.006179 -0.005090 -0.014875 -0.020699 -0.014223 0.027748 0.005361 0.070063 -0.025392 -0.025842 0.007584 0.069172 0.045334 0.028911 0.053397 0.023910 -0.036634 0.043701 0.019934 -0.016268 -0.010814 -0.015075 0.005349 0.015747 0.055377 0.010070 -0.031615 0.001205 -0.030146 0.014106 0.007758 -0.005764 0.008167 0.000441 0.034135 0.007938 -0.016587 0.028898 -0.028394 -0.025475 0.044453 0.023122 -0.003570 0.007334 -0.057031 -0.012804 0.013873 -0.032685 -0.000421 -0.000965 0.004992 -0.023438 0.037027 -0.023494 -0.017195 -0.060561 -0.009620 -0.032219 0.035371 -0.018832 -0.015993 0.040726 0.048810 0.010085 0.033947 0.017679 -0.015822 -0.013531 0.011876 -0.050804 -0.027503 -0.019179 -0.056304 0.001330 -0.041157 -0.034607 0.012287 0.010513 -0.018200 -0.031896 0.016085 0.042164 0.016644 -0.025348 0.047342 0.005175 -0.015605 0.015781 0.005848 0.026187 0.005348 0.031782 0.015269 0.039287 -0.000566 0.004037 
temps -0.008510 -0.049078 0.031355 0.000532 0.010472 -0.009579 -0.021180 -0.018228 -0.026042 0.044222 0.009174 0.090410 -0.038596 -0.036708 0.010220 0.095370 0.052300 0.030353 0.071718 0.037816 -0.041157 0.056734 0.029665 -0.024671 -0.016593 -0.026428 0.007613 0.022433 0.075205 0.018277 -0.046364 0.000431 -0.039023 0.018000 0.012795 -0.014593 0.013405 0.001411 0.043893 0.009422 -0.026995 0.045170 -0.034573 -0.028207 0.058193 0.035299 -0.000150 0.005344 -0.078237 -0.008645 0.022410 -0.050038 -0.008548 -0.003480 0.015970 -0.040470 0.044411 -0.030387 -0.027171 -0.077799 -0.011108 -0.035858 0.039093 -0.029039 -0.021146 0.063234 0.065609 0.009703 0.039421 0.019730 -0.023667 -0.008136 0.013977 -0.070003 -0.043964 -0.035564 -0.069011 0.004398 -0.048237 -0.047884 0.021161 0.014944 -0.028025 -0.039066 0.020128 0.054271 0.024945 -0.036619 0.055578 0.001534 -0.018349 0.024316 0.005912 0.031890 0.007127 0.046937 0.019970 0.048520 -0.004514 0.007427 
mère -0.008197 -0.028487 0.018836 0.001204 0.009023 -0.008402 -0.017842 -0.011880 -0.009930 0.026085 0.003114 0.059226 -0.025550 -0.020944 -0.001146 0.063478 0.036595 0.016031 0.042968 0.017951 -0.033019 0.037773 0.018469 -0.011094 -0.011461 -0.016506 0.002576 0.014682 0.048820 0.006875 -0.024388 0.004973 -0.018926 0.017409 0.014921 -0.011073 0.004129 0.002586 0.022687 0.009898 -0.015773 0.025774 -0.022111 -0.022007 0.031764 0.020016 0.003952 0.003995 -0.046863 -0.006485 0.007154 -0.034310 0.001886 -0.003827 0.005211 -0.019886 0.024559 -0.015851 -0.013556 -0.049588 -0.007516 -0.028526 0.027445 -0.019075 -0.015453 0.042091 0.047381 0.007019 0.029828 0.012678 -0.018160 -0.012142 0.004717 -0.042528 -0.027620 -0.016126 -0.045082 0.002529 -0.032657 -0.028326 0.011380 0.016249 -0.021151 -0.029615 0.018533 0.038188 0.015167 -0.024817 0.039965 -0.003005 -0.009385 0.014678 0.005486 0.022511 0.006732 0.024314 0.012837 0.035091 -0.005300 0.005463 
moi -0.006309 -0.014466 0.008230 0.000222 0.006587 -0.006322 -0.008053 -0.005705 -0.010536 0.020133 0.001498 0.037247 -0.011420 -0.015797 -0.002202 0.039418 0.026684 0.008849 0.021264 0.009484 -0.017005 0.020716 0.010353 -0.010190 -0.006969 -0.010612 0.001587 0.006773 0.022829 0.003942 -0.017533 0.004545 -0.008807 0.005008 0.007808 -0.003480 0.005079 0.000730 0.017324 0.000241 -0.010746 0.013872 -0.009631 -0.015423 0.019225 0.008885 -0.001341 0.005777 -0.034908 -0.006560 0.004024 -0.020867 -0.003298 -0.003224 0.007200 -0.016933 0.013357 -0.009443 -0.008058 -0.028358 -0.002252 -0.013203 0.022132 -0.011678 -0.006479 0.020862 0.027824 0.006469 0.016400 0.002657 -0.014551 -0.002909 0.005560 -0.024386 -0.020705 -0.010268 -0.020999 0.007101 -0.021273 -0.015803 0.005681 0.004375 -0.007179 -0.015667 0.005703 0.016579 0.010461 -0.013833 0.025409 0.004157 -0.006883 0.006102 -0.001188 0.015385 -0.000339 0.014266 0.004637 0.016734 -0.005587 0.001784 
et -0.006503 -0.027777 0.009772 -0.000879 0.006249 -0.001761 -0.010928 -0.010362 -0.009439 0.020629 0.005675 0.041486 -0.018221 -0.020206 0.000710 0.044086 0.023885 0.016588 0.036800 0.012592 -0.021491 0.032314 0.007931 -0.011278 -0.013395 -0.007463 0.006959 0.011223 0.029116 0.011223 -0.022994 -0.000180 -0.017429 0.006065 0.010279 -0.002766 -0.000135 -0.000706 0.024606 0.008402 -0.013843 0.024483 -0.014967 -0.017839 0.028831 0.016883 -0.003541 0.003644 -0.043181 -0.000942 0.011417 -0.018187 -0.003171 0.000704 0.001865 -0.015855 0.024621 -0.012646 -0.016784 -0.033783 -0.001434 -0.020259 0.026153 -0.012775 -0.009754 0.033002 0.037774 0.002596 0.019638 0.006642 -0.011138 -0.008504 0.002982 -0.035184 -0.022297 -0.017446 -0.036153 -0.001094 -0.022432 -0.022410 0.006765 0.005200 -0.017820 -0.024769 0.008206 0.024630 0.014896 -0.018683 0.029307 -0.001159 -0.005804 0.010879 0.003764 0.016054 0.000893 0.027036 0.009285 0.025497 -0.001487 0.000349 
lui -0.006297 -0.039498 0.019254 -0.007517 0.001239 -0.008553 -0.022968 -0.016775 -0.017865 0.032766 0.008261 0.072185 -0.033903 -0.030025 0.002094 0.079730 0.044008 0.028924 0.060035 0.027656 -0.037358 0.052142 0.019432 -0.016112 -0.012442 -0.017484 0.009866 0.025025 0.059617 0.017523 -0.031061 0.001560 -0.030266 0.012158 0.008338 -0.012995 0.011831 -0.006143 0.030782 0.008736 -0.025396 0.030919 -0.032556 -0.026229 0.044362 0.032292 0.003094 0.008232 -0.070091 -0.005664 0.015678 -0.036801 -0.004216 -0.005671 0.007905 -0.035248 0.040083 -0.023688 -0.024259 -0.058749 -0.004743 -0.035506 0.040007 -0.018312 -0.011803 0.046955 0.057356 0.007982 0.039537 0.019097 -0.024578 -0.010611 0.011659 -0.058680 -0.036050 -0.024673 -0.053952 0.006888 -0.036055 -0.041200 0.014703 0.019809 -0.021847 -0.038210 0.017950 0.043198 0.025292 -0.027069 0.051901 -0.000216 -0.020985 0.015935 -0.002230 0.022071 0.004581 0.039443 0.015006 0.039776 -0.004314 0.004837 
eu 0.000872 -0.019363 0.005383 0.002274 -0.000171 0.000209 -0.013826 -0.010858 -0.012023 0.009566 0.004356 0.025268 -0.013978 -0.007510 0.003616 0.028510 0.019370 0.006833 0.027838 0.014312 -0.010607 0.014810 0.010059 -0.011049 -0.006165 -0.012711 -0.000704 0.011425 0.019649 0.009445 -0.017426 0.001494 -0.015413 0.007392 0.005354 -0.003591 0.007235 -0.003870 0.012246 -0.000136 -0.009122 0.011365 -0.007580 -0.007101 0.018869 0.010681 -0.004246 0.002676 -0.025821 -0.001327 0.007535 -0.019564 -0.004642 -0.002173 0.006402 -0.016070 0.019144 -0.008369 -0.006518 -0.029205 -0.000296 -0.013056 0.013980 -0.004962 -0.008678 0.022035 0.022393 0.002608 0.016004 0.006223 -0.012962 -0.006048 0.007791 -0.023982 -0.011229 -0.007006 -0.019385 0.007286 -0.020914 -0.012335 0.010395 0.004112 -0.006523 -0.011817 0.007016 0.019313 0.007234 -0.012006 0.018431 -0.003135 -0.003507 0.010702 0.001653 0.013987 -0.001134 0.016635 0.006270 0.018776 0.002244 0.005596 
pour -0.005268 -0.020870 0.011558 0.001931 0.001479 -0.005654 -0.014774 -0.012438 -0.013035 0.015327 0.004158 0.040807 -0.020067 -0.012089 0.003882 0.041642 0.026762 0.014287 0.029105 0.011715 -0.015216 0.024479 0.010870 -0.004593 -0.007886 -0.014401 0.001749 0.012544 0.032281 0.004905 -0.023339 0.000939 -0.015531 0.008097 0.006011 -0.003029 0.007882 0.002852 0.013852 0.009312 -0.010402 0.015717 -0.013237 -0.007608 0.022101 0.016590 0.004903 0.009314 -0.037820 -0.006668 0.004722 -0.022386 -0.002040 -0.000331 0.007673 -0.018163 0.018047 -0.017295 -0.013630 -0.027440 -0.008248 -0.012497 0.020354 -0.012623 -0.010091 0.022214 0.033618 0.006619 0.018460 0.007206 -0.010176 -0.000819 0.010167 -0.030207 -0.019096 -0.013253 -0.025347 0.005642 -0.016620 -0.020492 0.009988 0.012361 -0.012637 -0.017872 0.005838 0.023284 0.011957 -0.011211 0.023205 0.004348 -0.006950 0.009618 0.001362 0.010471 0.006795 0.020519 0.005511 0.024380 -0.007520 0.000656 
dans -0.005841 -0.011539 0.009454 -0.003565 0.001416 -0.006760 -0.007079 -0.008369 -0.008199 0.011489 0.000755 0.023805 -0.013986 -0.009527 0.000239 0.021862 0.018912 0.005903 0.023005 0.013478 -0.013382 0.016524 0.008713 -0.005111 -0.009495 -0.007223 0.002324 0.003836 0.016903 -0.000434 -0.010162 -0.003062 -0.004107 0.008812 0.002835 0.000727 -0.002259 -0.000317 0.009520 0.002031 -0.003776 0.006849 -0.010476 -0.006226 0.016748 0.010423 0.002914 -0.001170 -0.020909 -0.001073 0.008628 -0.015787 -0.001306 0.004410 0.000804 -0.006941 0.013185 -0.009198 -0.003746 -0.025479 -0.003736 -0.013528 0.015682 -0.010774 -0.002153 0.019211 0.018938 0.005145 0.013388 0.008957 -0.006181 -0.000198 0.001884 -0.018287 -0.006075 -0.011466 -0.019482 0.004161 -0.010430 -0.015377 0.004834 0.000558 -0.009577 -0.008741 0.007460 0.012657 0.005863 -0.011048 0.012672 -0.002711 -0.003321 0.002528 0.001457 0.004835 0.003048 0.013046 0.006596 0.014772 -0.003624 -0.002206 
t'étais -0.004418 -0.016925 0.007207 -0.000372 -0.003271 0.000134 -0.010004 -0.010499 -0.010054 0.011179 -0.000141 0.025885 -0.010781 -0.010787 0.000318 0.025452 0.017951 0.006426 0.012267 0.006385 -0.007431 0.017800 0.002883 -0.002999 -0.001040 -0.001388 0.005917 0.004586 0.018288 0.000189 -0.009261 0.002561 -0.012092 0.000068 0.008987 -0.002264 0.004123 0.001322 0.014073 -0.000233 -0.002981 0.007751 -0.009441 -0.004515 0.011437 0.004787 -0.004919 0.007064 -0.023789 -0.005662 0.002568 -0.011715 -0.000059 -0.002879 -0.000350 -0.009362 0.007291 -0.007285 -0.003711 -0.020891 -0.001721 -0.009843 0.011558 -0.006490 0.000061 0.018015 0.012185 0.006611 0.009937 0.004844 -0.010422 -0.001813 0.004802 -0.013794 -0.014446 -0.003144 -0.018188 0.006708 -0.015106 -0.012673 0.005001 0.008758 -0.011619 -0.005924 0.004250 0.013533 0.009017 -0.007665 0.014581 0.004465 -0.007856 0.006823 0.002062 0.009428 0.007290 0.013560 0.007772 0.012347 -0.000592 0.003040 
les -0.012734 -0.048914 0.019808 -0.004576 0.007446 -0.011186 -0.025327 -0.020648 -0.021053 0.038846 0.011829 0.077554 -0.030648 -0.029392 0.004813 0.087962 0.047992 0.029269 0.064732 0.027066 -0.035925 0.049012 0.019793 -0.020834 -0.013113 -0.019885 0.000565 0.021169 0.065446 0.017837 -0.035841 0.004252 -0.034080 0.018811 0.013108 -0.011285 0.008239 -0.005796 0.033617 0.007913 -0.022028 0.040957 -0.034567 -0.026956 0.046627 0.032480 -0.001018 0.014079 -0.075910 -0.011470 0.016682 -0.038969 -0.004304 -0.005170 0.013139 -0.035302 0.045398 -0.028103 -0.023312 -0.072268 -0.006402 -0.039039 0.039231 -0.019819 -0.020065 0.057894 0.060706 0.010623 0.039056 0.013531 -0.024884 -0.012115 0.014265 -0.061968 -0.041070 -0.023040 -0.056661 0.010601 -0.039933 -0.046357 0.014163 0.012230 -0.024064 -0.035178 0.024943 0.045352 0.027753 -0.031557 0.049589 -0.003509 -0.017378 0.015803 0.005093 0.023324 0.010380 0.041035 0.012896 0.051656 -0.001141 0.006825 
ne -0.006954 -0.033580 0.019173 0.000309 0.000155 -0.007856 -0.018578 -0.014038 -0.016046 0.034154 0.010670 0.061619 -0.031098 -0.022328 0.005493 0.065510 0.042006 0.025443 0.051435 0.021884 -0.033074 0.043583 0.017093 -0.014338 -0.008083 -0.012898 0.005432 0.018392 0.047622 0.015329 -0.036291 0.003752 -0.021379 0.013387 0.015047 -0.007882 0.005787 -0.006694 0.030735 0.012070 -0.021624 0.030426 -0.024957 -0.024618 0.036524 0.028034 -0.005275 0.011634 -0.061699 -0.012486 0.016934 -0.038201 0.000771 0.001289 0.010406 -0.028050 0.029738 -0.021285 -0.015168 -0.053429 -0.009173 -0.027508 0.034199 -0.014761 -0.008267 0.046911 0.053988 0.006579 0.034291 0.016421 -0.024893 -0.011218 0.013160 -0.051479 -0.027073 -0.021349 -0.049815 0.010520 -0.031227 -0.032784 0.019652 0.012125 -0.020004 -0.033239 0.014564 0.044743 0.019363 -0.026806 0.042019 -0.004157 -0.011872 0.012175 0.002041 0.017622 0.009665 0.034522 0.011209 0.042805 -0.004616 0.000078 
parce -0.011102 -0.041998 0.017969 0.001740 0.007322 -0.005077 -0.020303 -0.018835 -0.015879 0.036918 0.006126 0.065362 -0.026935 -0.025058 0.000569 0.076038 0.046948 0.027887 0.056665 0.030224 -0.032448 0.044782 0.018472 -0.020676 -0.010548 -0.019519 0.006769 0.021079 0.054907 0.016850 -0.031408 0.004669 -0.023128 0.015362 0.015196 -0.014424 0.007181 0.000072 0.035940 0.007453 -0.015133 0.032700 -0.027408 -0.019877 0.042846 0.024345 -0.004647 0.009603 -0.063991 -0.009597 0.016998 -0.035427 -0.007477 -0.001460 0.009339 -0.031276 0.031625 -0.023288 -0.025704 -0.055020 -0.003109 -0.027204 0.033104 -0.018313 -0.015294 0.046924 0.048478 0.004412 0.032143 0.017707 -0.019091 -0.007726 0.007897 -0.054382 -0.035662 -0.021741 -0.051566 0.001915 -0.037125 -0.036048 0.020580 0.018708 -0.024908 -0.033137 0.017994 0.042465 0.016914 -0.026080 0.045940 0.000234 -0.012799 0.015452 0.000883 0.022326 0.008505 0.040419 0.010351 0.040339 -0.001473 0.000109 
*** -0.013918 -0.056871 0.027628 -0.006537 0.010609 -0.008001 -0.031216 -0.020821 -0.024799 0.049634 0.011054 0.098335 -0.042223 -0.038545 0.005710 0.110098 0.059577 0.033389 0.076039 0.039421 -0.046061 0.064502 0.026238 -0.026265 -0.015323 -0.024211 0.007337 0.031038 0.082068 0.015219 -0.051303 0.008909 -0.039206 0.019397 0.013588 -0.016369 0.007299 -0.001110 0.044043 0.013060 -0.027397 0.049955 -0.042447 -0.037985 0.059646 0.037168 -0.004324 0.011364 -0.090316 -0.011329 0.016795 -0.051366 -0.004872 0.000853 0.011828 -0.041784 0.052288 -0.039569 -0.026376 -0.084546 -0.010881 -0.040975 0.046153 -0.031976 -0.020632 0.069727 0.079290 0.008602 0.050951 0.024312 -0.031640 -0.014961 0.016654 -0.078765 -0.046844 -0.038565 -0.079556 0.007061 -0.057540 -0.057909 0.020426 0.016175 -0.034531 -0.053030 0.021346 0.060869 0.024128 -0.045551 0.063660 -0.003916 -0.020974 0.026989 0.000906 0.030092 0.010559 0.055953 0.023513 0.063161 -0.004259 0.003176 
avec -0.006207 -0.021095 0.009152 -0.001372 0.007519 -0.007388 -0.013684 -0.008752 -0.013399 0.013539 -0.001186 0.038987 -0.011773 -0.015949 0.001387 0.042183 0.025921 0.013376 0.025042 0.018900 -0.014725 0.029440 0.009765 -0.009945 -0.009246 -0.012375 0.004344 0.014041 0.033825 0.011860 -0.018619 0.006864 -0.018694 0.004275 0.008405 -0.009515 0.000040 0.002417 0.018018 0.002728 -0.015709 0.018263 -0.015641 -0.014881 0.024358 0.010783 0.003805 0.007398 -0.034853 -0.005047 0.011428 -0.024307 0.000209 0.000843 0.005254 -0.018222 0.016518 -0.015595 -0.013683 -0.036839 -0.007159 -0.012628 0.020589 -0.014111 -0.004890 0.025325 0.030883 0.007040 0.017138 0.007439 -0.012157 -0.007336 0.000562 -0.032505 -0.019223 -0.016907 -0.028447 -0.001768 -0.016535 -0.024300 0.005175 0.005704 -0.016353 -0.018060 0.009321 0.019801 0.007799 -0.015726 0.022528 -0.004750 -0.009639 0.009384 0.001685 0.013252 0.003525 0.021296 0.008539 0.024759 -0.005095 0.007465 
j'avais -0.006266 -0.037102 0.026134 -0.001776 0.001296 -0.008629 -0.018153 -0.019771 -0.018961 0.035343 0.006529 0.073977 -0.025983 -0.020963 -0.000674 0.072422 0.044178 0.025743 0.053629 0.032201 -0.036821 0.047985 0.016320 -0.017785 -0.009224 -0.023321 0.008775 0.021162 0.054883 0.015907 -0.035237 0.001732 -0.029603 0.011156 0.016334 -0.011816 0.004275 -0.005483 0.036286 0.012452 -0.021647 0.027561 -0.026850 -0.020470 0.046229 0.025921 -0.001043 0.006983 -0.065785 -0.008553 0.011273 -0.034540 -0.002708 -0.006557 0.008948 -0.028807 0.035884 -0.025669 -0.018285 -0.058410 -0.009758 -0.028730 0.030920 -0.024776 -0.012401 0.043766 0.054184 0.003383 0.032975 0.010901 -0.023470 -0.008034 0.008399 -0.055117 -0.034194 -0.028603 -0.050733 0.008024 -0.040296 -0.037655 0.014890 0.014932 -0.023332 -0.030237 0.020582 0.042001 0.018978 -0.033321 0.051802 0.000430 -0.019572 0.013006 -0.000174 0.022757 0.005084 0.033206 0.012804 0.045795 -0.004041 0.005592 
y -0.001091 -0.009060 0.005139 0.002242 -0.000033 -0.003376 -0.004524 -0.002571 -0.001065 0.010914 0.005904 0.018259 -0.007979 -0.009005 0.001103 0.017803 0.007290 0.004739 0.016887 0.010692 -0.008863 0.012292 0.003119 -0.000137 -0.005015 -0.001419 -0.002076 0.006183 0.018493 0.003943 -0.011094 -0.002896 -0.001983 -0.000047 0.000370 -0.005383 0.001914 -0.003827 0.008571 0.003850 -0.000877 0.010193 -0.012009 -0.006106 0.012252 0.009526 0.004603 -0.002235 -0.018509 -0.006208 0.006456 -0.005251 -0.003296 -0.003000 0.007125 -0.003336 0.009025 -0.010089 -0.005776 -0.018662 -0.001508 -0.012495 0.010169 -0.009955 -0.005373 0.010766 0.013716 0.006429 0.010808 0.006622 -0.002241 0.001526 -0.001809 -0.015155 -0.006660 -0.003506 -0.010664 -0.001390 -0.015019 -0.014301 0.006851 0.006625 -0.008554 -0.010346 0.009293 0.014679 0.001969 -0.009193 0.013654 -0.002223 -0.005379 0.001256 -0.001395 0.004490 0.000309 0.007208 0.006431 0.009997 -0.003466 -0.002939 
pendant -0.000233 -0.024931 0.015511 -0.002366 0.000281 0.000627 -0.008050 -0.010384 -0.014103 0.017520 0.004828 0.039714 -0.019621 -0.016748 0.001557 0.037751 0.027638 0.011749 0.034360 0.011057 -0.016469 0.023109 0.015102 -0.008811 -0.011695 -0.011614 0.005329 0.014925 0.028548 0.005143 -0.017417 0.000993 -0.016919 0.009542 0.005501 -0.007605 0.004139 -0.004002 0.020787 0.004387 -0.012243 0.017060 -0.013126 -0.016546 0.026531 0.014979 -0.004563 0.000852 -0.035132 -0.006284 0.005022 -0.024930 -0.005082 0.003197 0.000060 -0.020171 0.025101 -0.015663 -0.010207 -0.032473 -0.001509 -0.012245 0.021309 -0.015439 -0.006497 0.028539 0.029951 0.002798 0.022146 0.006920 -0.017062 -0.003375 0.008711 -0.032793 -0.018315 -0.017226 -0.031652 0.004861 -0.023713 -0.023103 0.009109 0.007145 -0.018280 -0.020183 0.010353 0.024583 0.013115 -0.020581 0.030369 -0.004740 -0.012636 0.012072 0.000254 0.013269 0.000077 0.017130 0.004679 0.024360 -0.007104 0.007372 
était -0.011758 -0.040540 0.025509 -0.005407 0.003145 -0.002499 -0.016847 -0.017203 -0.022169 0.033116 0.002321 0.063762 -0.029498 -0.027031 0.004034 0.066884 0.047692 0.028437 0.055024 0.024774 -0.030105 0.045123 0.016330 -0.018452 -0.017364 -0.015380 0.001774 0.019710 0.054301 0.010450 -0.034614 0.005046 -0.024308 0.010564 0.010721 -0.012453 0.009702 -0.004873 0.033595 0.004703 -0.017146 0.028549 -0.027193 -0.026895 0.040890 0.029074 -0.000516 0.012918 -0.062189 -0.013903 0.014369 -0.031698 0.001464 0.002109 0.012721 -0.032978 0.038329 -0.019150 -0.016811 -0.061777 -0.010840 -0.025564 0.029229 -0.016618 -0.017412 0.046871 0.051292 0.004299 0.031128 0.014718 -0.025046 -0.014069 0.009821 -0.047198 -0.032274 -0.024511 -0.050506 0.004322 -0.042159 -0.040764 0.020189 0.018873 -0.019240 -0.030342 0.012568 0.037433 0.015594 -0.031450 0.046346 0.003990 -0.020968 0.011135 0.004601 0.020230 0.005583 0.032294 0.016978 0.035171 -0.009659 0.008954 
elle -0.010334 -0.022889 0.008260 -0.004075 0.001700 -0.006818 -0.008227 -0.005523 -0.007625 0.020259 0.000244 0.044120 -0.017062 -0.011707 0.005147 0.047269 0.023501 0.019936 0.034918 0.016405 -0.020136 0.028239 0.014302 -0.011447 -0.007911 -0.011981 0.000999 0.017235 0.031005 0.004775 -0.023145 0.003988 -0.013285 0.008062 0.008130 -0.001774 0.001371 -0.003321 0.023488 0.009529 -0.016915 0.020134 -0.012872 -0.011245 0.021804 0.014357 -0.003161 0.003871 -0.037422 -0.002691 0.005031 -0.024001 -0.002131 -0.003998 0.001472 -0.013472 0.018380 -0.015616 -0.010098 -0.039620 -0.008970 -0.020120 0.024214 -0.008361 -0.008420 0.023240 0.033447 0.005802 0.016800 0.006439 -0.012379 -0.009196 0.003614 -0.030007 -0.023102 -0.009967 -0.026476 0.006843 -0.025400 -0.026266 0.012135 0.006824 -0.018547 -0.022145 0.009911 0.026219 0.007385 -0.014218 0.022811 -0.003229 -0.007136 0.008413 0.004709 0.009739 0.000629 0.019602 0.006708 0.025049 -0.004352 0.007282 
RIRE -0.014516 -0.056615 0.030746 -0.002657 0.008838 -0.010060 -0.022737 -0.023639 -0.020380 0.039574 0.011561 0.089193 -0.043377 -0.030390 0.005640 0.097762 0.058632 0.035937 0.069744 0.040203 -0.041391 0.063001 0.023850 -0.026170 -0.016525 -0.022250 0.001768 0.023269 0.069068 0.020237 -0.043130 0.002560 -0.036850 0.021804 0.015456 -0.012488 0.004508 -0.000609 0.040946 0.009284 -0.024802 0.037781 -0.032536 -0.028062 0.055319 0.039440 -0.000186 0.008481 -0.081300 -0.009601 0.018159 -0.048227 -0.000372 -0.005662 0.011908 -0.042712 0.047489 -0.034956 -0.028363 -0.080406 -0.013449 -0.044623 0.043781 -0.029758 -0.019201 0.057327 0.072823 0.009281 0.044090 0.015775 -0.031159 -0.013315 0.013358 -0.063080 -0.041627 -0.032021 -0.074205 0.012828 -0.054607 -0.054306 0.024403 0.019482 -0.035347 -0.046339 0.027155 0.056419 0.023886 -0.038598 0.060757 -0.000443 -0.023837 0.022242 -0.001277 0.035608 0.010835 0.045314 0.021374 0.051287 -0.005284 0.003068 
qui -0.008366 -0.020333 0.011188 0.002395 0.002385 -0.000940 -0.005592 -0.007408 -0.006594 0.017838 0.000178 0.030860 -0.017280 -0.013826 -0.000713 0.031261 0.024059 0.010525 0.023397 0.016584 -0.015246 0.020672 0.012570 -0.009113 -0.008173 -0.006544 0.003579 0.011756 0.028965 0.003643 -0.019635 0.005502 -0.009944 0.003208 0.007740 -0.003104 0.003548 -0.004453 0.016184 0.008107 -0.011524 0.013659 -0.007815 -0.013859 0.017298 0.012785 0.004362 0.006808 -0.031822 -0.005836 0.004615 -0.012109 -0.000369 -0.001328 -0.000785 -0.014342 0.014910 -0.013323 -0.013357 -0.025707 -0.005452 -0.016662 0.010266 -0.013627 -0.008125 0.024897 0.022022 0.004636 0.016164 0.006048 -0.014176 -0.003353 0.008238 -0.018096 -0.017287 -0.015593 -0.020537 0.006399 -0.019573 -0.016559 0.004775 0.011017 -0.007974 -0.018680 0.010294 0.015795 0.010879 -0.010668 0.021333 0.001128 -0.011249 0.008002 0.002928 0.013437 0.003332 0.015331 0.001852 0.017685 -0.001727 -0.001885 
là -0.006375 -0.041600 0.027724 -0.002886 0.007535 -0.008660 -0.026632 -0.021240 -0.021759 0.039942 0.002024 0.075157 -0.031488 -0.026991 0.006438 0.079641 0.051424 0.028796 0.060438 0.027142 -0.033344 0.051627 0.022686 -0.012536 -0.018135 -0.021900 0.006788 0.018823 0.061168 0.016829 -0.037968 0.005914 -0.032577 0.016177 0.012619 -0.006081 0.006533 -0.004346 0.033898 0.012466 -0.019337 0.037192 -0.030040 -0.029448 0.047970 0.029987 -0.003174 0.008732 -0.070221 -0.004653 0.016507 -0.040871 -0.005768 0.000959 0.013572 -0.029324 0.040141 -0.024936 -0.024166 -0.065736 -0.006862 -0.036236 0.037317 -0.018803 -0.016888 0.046763 0.057450 0.006247 0.033266 0.013207 -0.024378 -0.009166 0.008299 -0.054747 -0.035102 -0.023489 -0.058795 0.010077 -0.042671 -0.039994 0.017183 0.011178 -0.030413 -0.035151 0.019727 0.047013 0.022744 -0.028709 0.046715 0.001670 -0.017494 0.017847 0.002628 0.020785 0.006157 0.034308 0.017807 0.045867 -0.008886 0.004479 
fait -0.010291 -0.029024 0.021680 -0.000049 0.008324 -0.009583 -0.013045 -0.012353 -0.012866 0.030616 0.010341 0.055297 -0.021375 -0.024871 0.007984 0.058344 0.033127 0.018497 0.049284 0.027591 -0.025319 0.039369 0.014666 -0.016939 -0.010792 -0.011976 0.008118 0.020236 0.042587 0.006851 -0.029867 0.003907 -0.025246 0.012187 0.014771 -0.010649 0.006458 -0.003635 0.032964 0.003355 -0.020116 0.026475 -0.026645 -0.014934 0.033834 0.025500 -0.001276 0.001816 -0.052244 -0.006266 0.014868 -0.030054 -0.001041 -0.003484 0.009581 -0.027346 0.030755 -0.020122 -0.014202 -0.047591 -0.005535 -0.027508 0.024806 -0.020262 -0.014398 0.042693 0.045942 -0.000021 0.026037 0.012504 -0.016896 -0.006163 0.010920 -0.048345 -0.022507 -0.024834 -0.040897 0.004703 -0.033323 -0.036176 0.010358 0.015882 -0.023207 -0.028046 0.014513 0.040366 0.018613 -0.023994 0.040341 0.005044 -0.015214 0.018755 -0.002329 0.017328 0.004279 0.026176 0.011177 0.038900 -0.001378 0.000290 
ça, -0.009322 -0.025884 0.016757 -0.000485 0.001661 -0.004401 -0.015047 -0.011377 -0.011135 0.024260 -0.000855 0.046278 -0.015554 -0.010782 -0.000741 0.048550 0.025741 0.012829 0.029851 0.012815 -0.018745 0.026565 0.012137 -0.009752 -0.006321 -0.015932 0.001042 0.010285 0.034744 0.011699 -0.021262 0.001811 -0.011076 0.006142 0.008875 -0.001556 0.000149 -0.001020 0.017728 0.003193 -0.016280 0.015502 -0.020896 -0.013485 0.026981 0.019487 0.002158 0.003465 -0.043129 -0.007745 0.005355 -0.017741 -0.006322 -0.003283 0.002872 -0.018724 0.021782 -0.013437 -0.011510 -0.034699 -0.002293 -0.017007 0.025290 -0.016212 -0.004709 0.031974 0.037764 0.002969 0.023974 0.009474 -0.011948 -0.007945 0.008902 -0.036785 -0.015915 -0.012979 -0.034954 0.003938 -0.020752 -0.027783 0.006710 0.006913 -0.011945 -0.023480 0.009492 0.024525 0.012481 -0.016253 0.025549 -0.003993 -0.008858 0.010396 -0.002967 0.012646 0.005713 0.020154 0.013417 0.021774 -0.000101 0.001790 
ta -0.002101 -0.016319 0.009563 0.000161 0.002512 0.002151 -0.010914 -0.009746 -0.010096 0.016995 0.001811 0.024040 -0.014088 -0.013059 0.006187 0.029464 0.018287 0.013368 0.016883 0.006592 -0.008173 0.015194 0.004727 -0.003891 -0.005408 -0.005076 -0.001826 0.008624 0.024792 0.002345 -0.014832 0.001610 -0.009087 0.009999 0.002053 -0.005475 0.001178 -0.000213 0.007053 0.008181 -0.011735 0.009516 -0.007920 -0.004454 0.012903 0.011214 0.001820 0.004253 -0.026994 -0.004208 0.006294 -0.008086 0.002036 -0.001283 0.002287 -0.014670 0.016818 -0.004800 -0.011199 -0.024299 -0.007121 -0.013253 0.010655 -0.012298 -0.005476 0.015423 0.018537 0.000159 0.009817 0.010304 -0.008542 -0.007949 -0.001434 -0.019449 -0.011760 -0.006732 -0.019998 -0.001697 -0.008890 -0.011305 0.006865 0.007577 -0.008134 -0.015985 0.008705 0.013516 0.003304 -0.006800 0.015482 0.004459 -0.003803 0.003114 -0.001420 0.004846 0.006360 0.016655 0.005175 0.015807 -0.005660 0.002724 
se -0.010023 -0.034312 0.016372 -0.003110 -0.000451 -0.006025 -0.013024 -0.010975 -0.012630 0.024934 0.008674 0.052883 -0.027871 -0.016180 -0.001052 0.059639 0.037550 0.024800 0.040967 0.025582 -0.023791 0.039241 0.018792 -0.013017 -0.010878 -0.012635 0.008828 0.021503 0.043704 0.011193 -0.027852 -0.000922 -0.024020 0.010545 0.014091 -0.010795 0.001657 -0.005933 0.029023 0.004701 -0.011591 0.023837 -0.024604 -0.023135 0.035605 0.024110 -0.004276 0.005204 -0.048128 -0.008208 0.007471 -0.031466 -0.002138 -0.002413 0.007721 -0.027134 0.031905 -0.022625 -0.014906 -0.047935 -0.004753 -0.024642 0.025189 -0.020396 -0.013431 0.034884 0.038135 0.001464 0.023894 0.013743 -0.019596 -0.002612 0.005520 -0.044243 -0.028181 -0.022923 -0.043608 0.005723 -0.028219 -0.032250 0.016217 0.013758 -0.018948 -0.022345 0.011286 0.038537 0.019342 -0.017700 0.034046 -0.000812 -0.008999 0.009906 0.004995 0.015272 0.006616 0.026926 0.011118 0.037113 -0.002202 0.004395 
fin -0.008885 -0.040913 0.017555 -0.007235 0.006715 -0.001488 -0.015543 -0.015444 -0.019997 0.026927 0.010104 0.066370 -0.032273 -0.019301 0.003595 0.071451 0.045052 0.019787 0.049682 0.022095 -0.030431 0.042275 0.020120 -0.017532 -0.016579 -0.015912 0.005486 0.022725 0.051233 0.010695 -0.026569 -0.000787 -0.022058 0.010967 0.015083 -0.009270 0.002415 -0.003649 0.034462 0.006066 -0.014203 0.029356 -0.023939 -0.020784 0.035600 0.026359 0.004482 0.004755 -0.055201 -0.011353 0.007858 -0.030561 -0.006341 -0.002792 0.004571 -0.025225 0.031794 -0.018048 -0.023263 -0.051489 -0.003258 -0.024628 0.033070 -0.022769 -0.017828 0.039742 0.044135 0.001408 0.031997 0.014941 -0.018595 -0.010581 0.011264 -0.044809 -0.024877 -0.021827 -0.047915 0.005313 -0.039587 -0.032527 0.015668 0.009324 -0.017069 -0.029800 0.017755 0.035369 0.014892 -0.027609 0.044845 -0.004633 -0.018842 0.018751 -0.001306 0.025998 0.001291 0.031691 0.013082 0.032413 -0.001769 0.000783 
ton -0.004077 -0.003950 0.006498 0.001284 0.002264 0.001916 0.000025 0.000674 0.001389 0.000328 0.002469 0.013458 -0.003785 -0.000415 0.000412 0.013725 0.005146 0.004771 0.009718 0.002436 -0.008072 0.011276 0.006205 -0.003337 -0.000935 0.001072 0.005242 0.008193 0.012495 0.003261 -0.009623 -0.000079 0.000360 0.003397 0.003449 -0.003011 0.002154 0.000562 0.002649 0.001523 -0.004784 0.004193 -0.000533 -0.008402 0.006727 0.002031 0.000372 -0.001735 -0.014850 0.002582 0.004628 -0.004010 0.002255 0.001501 -0.003072 -0.007730 0.000819 -0.002167 -0.004256 -0.005578 -0.002010 -0.009031 0.009742 -0.007611 -0.000747 0.005353 0.013161 -0.000831 0.006577 -0.000968 -0.006021 -0.001963 0.004664 -0.007148 -0.003611 -0.003145 -0.007194 0.003167 -0.009156 -0.001068 0.005017 -0.002775 -0.005192 -0.007499 0.000834 0.003373 0.006430 -0.006501 0.007665 -0.002526 -0.003342 -0.001843 -0.004555 0.001813 -0.000781 0.010417 0.001332 0.010047 0.003386 0.001886 
au -0.000354 -0.011055 0.009765 0.001198 -0.000115 -0.000774 -0.002444 -0.006421 -0.003478 0.013840 0.000746 0.017724 -0.008698 -0.003249 0.002081 0.020696 0.018613 0.008655 0.013194 0.010856 -0.014711 0.015802 0.001090 -0.003826 -0.002890 -0.007280 -0.000142 0.003915 0.014224 0.001108 -0.011685 -0.002076 -0.003840 0.008651 0.008270 -0.004984 0.006612 -0.001722 0.013342 0.004057 -0.002436 0.013322 -0.012093 -0.007390 0.012437 0.009924 -0.001662 0.002655 -0.018627 -0.000778 0.000169 -0.011849 0.002078 0.002946 -0.000533 -0.009808 0.009608 -0.010426 -0.003463 -0.015576 -0.006121 -0.010549 0.010518 -0.010640 -0.007938 0.019442 0.017682 -0.001529 0.011567 0.009283 -0.009765 -0.006924 -0.000885 -0.015307 -0.010270 -0.010612 -0.017941 -0.000552 -0.010103 -0.016661 0.003753 0.006393 -0.007475 -0.010734 0.005261 0.017025 0.010650 -0.007993 0.010684 0.004169 -0.001208 0.006802 -0.003463 0.005999 -0.002559 0.009618 0.004019 0.016593 0.001766 0.000536 
te -0.008923 -0.032526 0.014748 0.001657 0.003602 -0.007827 -0.017885 -0.016821 -0.015582 0.028243 0.005740 0.059443 -0.026893 -0.020096 0.003837 0.062253 0.032736 0.021946 0.039197 0.017354 -0.023183 0.035677 0.016732 -0.009410 -0.014706 -0.018642 0.000748 0.020531 0.046325 0.010450 -0.025189 0.006103 -0.024685 0.013967 0.012765 -0.012404 0.008621 -0.001120 0.029041 0.007700 -0.016445 0.028685 -0.027072 -0.022423 0.029223 0.016936 -0.003961 0.006776 -0.054534 -0.009218 0.006412 -0.025820 0.001169 0.000877 0.010301 -0.024464 0.025764 -0.016828 -0.012099 -0.045101 -0.009552 -0.028593 0.022946 -0.014437 -0.016356 0.039529 0.046928 0.003893 0.023764 0.015194 -0.014159 -0.010443 0.008217 -0.037703 -0.030358 -0.017700 -0.046773 0.005047 -0.032898 -0.031626 0.017396 0.014168 -0.019463 -0.022845 0.017260 0.038364 0.017298 -0.025771 0.035539 -0.003351 -0.015869 0.016853 0.002895 0.018019 0.010042 0.031905 0.015822 0.033477 -0.002834 0.001047 
si -0.000459 -0.008887 0.004814 -0.003934 0.003658 0.000000 -0.005164 -0.005756 -0.009836 0.012303 0.006807 0.023982 -0.004742 -0.012120 0.000586 0.020057 0.016943 0.010448 0.020849 0.006313 -0.009632 0.012537 0.001548 -0.006423 -0.007340 -0.005176 0.000847 0.004279 0.020513 0.001136 -0.006554 -0.001700 -0.010344 0.006075 0.003770 -0.003177 0.006757 -0.002748 0.012782 0.003672 -0.009882 0.012601 -0.010762 -0.007893 0.016885 0.003830 0.004140 -0.002457 -0.015147 -0.002676 0.008299 -0.008554 0.002939 -0.001682 0.002987 -0.012516 0.013663 -0.007552 -0.006659 -0.022118 0.002136 -0.006531 0.012025 -0.005068 -0.000669 0.012165 0.012961 -0.002441 0.007521 0.006678 -0.006720 -0.007531 0.000574 -0.014097 -0.013775 -0.009210 -0.021057 -0.002929 -0.016129 -0.016414 0.000240 0.000045 -0.008730 -0.010090 0.002386 0.010487 0.006487 -0.011318 0.013446 -0.002557 -0.009312 0.001462 -0.003836 0.002278 -0.002774 0.008832 0.004922 0.015059 -0.002078 0.006171 
pas, -0.006286 -0.031530 0.021776 -0.000060 0.003899 -0.007394 -0.018540 -0.015419 -0.019707 0.032396 0.007765 0.061681 -0.029697 -0.023048 0.003227 0.067419 0.041560 0.026961 0.043787 0.026426 -0.035192 0.045135 0.014889 -0.014811 -0.015059 -0.020821 0.009397 0.016374 0.047150 0.006992 -0.032697 -0.000461 -0.028192 0.009176 0.011757 -0.005005 0.008355 0.000693 0.029831 0.004207 -0.019664 0.026163 -0.021408 -0.025778 0.038272 0.025044 -0.005319 0.011842 -0.061756 -0.009756 0.009342 -0.034208 0.001812 -0.004851 0.003297 -0.028816 0.031995 -0.026673 -0.019754 -0.052582 -0.011461 -0.031025 0.033019 -0.016403 -0.011881 0.047059 0.053249 0.002630 0.025005 0.009405 -0.014347 -0.003812 0.010069 -0.046118 -0.027385 -0.017338 -0.044530 0.006855 -0.037701 -0.034660 0.015372 0.014503 -0.018248 -0.030984 0.019347 0.038659 0.017038 -0.028221 0.044269 0.003133 -0.015451 0.011999 0.005960 0.016729 0.007028 0.033375 0.009810 0.038102 -0.000415 0.009011 
pense -0.007500 -0.031178 0.010963 -0.005916 0.007765 -0.001730 -0.018958 -0.014909 -0.014491 0.022597 0.009024 0.050159 -0.024374 -0.014975 -0.000974 0.054835 0.033402 0.016844 0.034932 0.020233 -0.028941 0.030597 0.010398 -0.015261 -0.005955 -0.010848 -0.000263 0.016804 0.041286 0.004707 -0.024580 0.006283 -0.015339 0.006908 0.011048 -0.005439 0.002757 0.000047 0.027706 0.009911 -0.011765 0.017759 -0.022494 -0.012091 0.033002 0.019919 0.003779 0.004871 -0.042549 -0.009070 0.011216 -0.028754 -0.002072 0.001077 0.004869 -0.021690 0.028727 -0.019312 -0.017941 -0.045030 -0.006016 -0.022402 0.024496 -0.017007 -0.011782 0.036411 0.042646 0.003260 0.026120 0.009887 -0.016110 -0.004313 0.004298 -0.036892 -0.027021 -0.016786 -0.036914 0.003017 -0.029734 -0.028836 0.013440 0.013546 -0.015509 -0.027211 0.007480 0.034957 0.010582 -0.015630 0.036520 0.001134 -0.008875 0.016290 -0.002088 0.017170 0.000735 0.029149 0.014352 0.027508 -0.001273 0.004003 
petite? -0.003768 -0.010551 0.002309 0.004158 0.004186 0.001583 -0.003375 -0.002975 -0.004205 0.008895 -0.002752 0.011658 -0.000560 -0.005353 -0.002571 0.009763 0.006971 0.007442 0.006565 0.006642 -0.009697 0.009274 -0.002443 -0.006686 -0.006829 -0.002579 -0.000904 0.006321 0.008118 0.004041 -0.009417 0.005108 -0.000054 0.001192 -0.003004 -0.001997 0.000517 0.002601 0.003884 0.003645 -0.006165 0.002127 -0.002331 -0.005219 0.010753 0.004131 -0.001902 -0.003585 -0.012639 0.000370 -0.000174 -0.000366 -0.003370 0.002294 0.004019 -0.004720 0.008698 -0.005924 -0.007020 -0.012683 -0.003937 -0.000394 0.009555 -0.001148 -0.002079 0.007717 0.004503 -0.001048 0.001257 0.003682 0.001829 -0.003725 -0.002839 -0.008085 -0.002611 -0.006490 -0.010347 0.002320 -0.000188 -0.001262 0.005631 -0.000036 -0.001105 -0.005265 0.001993 0.006090 -0.001220 -0.007207 0.009624 0.003051 -0.003140 0.003842 0.005189 0.007043 0.000227 0.007381 -0.001223 0.007035 0.003420 0.000188 
après 0.002001 -0.013807 0.002213 -0.004232 -0.003518 -0.002656 -0.008247 -0.006330 -0.005216 0.010325 -0.001011 0.017114 -0.008313 -0.005630 0.004055 0.019642 0.016091 0.003682 0.020852 0.005402 -0.007753 0.010900 0.003712 -0.004299 -0.001121 -0.004168 0.000939 0.001809 0.021021 0.003185 -0.013570 0.004894 -0.004733 0.007675 0.006449 -0.004324 -0.002366 -0.003792 0.009921 0.007670 -0.002511 0.007355 -0.013204 -0.005552 0.011083 0.011877 -0.002109 0.001301 -0.023577 -0.002712 0.003528 -0.010490 0.002780 -0.001722 0.005634 -0.006526 0.012695 -0.009770 -0.011458 -0.015758 0.000083 -0.012841 0.006014 -0.004660 -0.002229 0.010327 0.021120 0.005253 0.006535 0.006995 -0.009359 0.000536 0.000567 -0.013171 -0.010800 -0.008152 -0.018937 0.006699 -0.012144 -0.008739 0.004857 0.006545 -0.008200 -0.012922 0.010012 0.012075 0.009365 -0.011302 0.014836 0.001968 -0.008711 0.007296 0.002209 0.007901 0.001495 0.013543 0.005898 0.009834 0.001019 0.003209 
du -0.005059 -0.017875 0.008156 0.003638 0.004217 -0.006494 -0.009260 -0.005546 -0.010208 0.015883 -0.001433 0.026076 -0.016097 -0.006631 0.006665 0.023962 0.013123 0.006278 0.018394 0.005705 -0.011873 0.020944 0.010921 -0.010780 -0.004144 -0.003672 0.000905 0.004167 0.021839 0.001333 -0.016234 0.003738 -0.009279 0.004761 0.003233 -0.003873 0.000055 -0.003649 0.015442 -0.001142 -0.011193 0.011882 -0.011750 -0.007535 0.016092 0.010455 -0.003762 0.002340 -0.024210 -0.000269 0.005517 -0.016731 0.000851 0.004010 -0.000288 -0.009399 0.014477 -0.004778 -0.003423 -0.018254 -0.000457 -0.006751 0.007948 -0.010582 -0.002152 0.016852 0.022889 -0.000485 0.016050 0.001996 -0.004115 -0.000333 0.000187 -0.023868 -0.014985 -0.004414 -0.022745 -0.000539 -0.010901 -0.019106 0.008069 0.002674 -0.011682 -0.011107 0.009569 0.019228 0.012433 -0.010040 0.018740 0.003219 -0.010866 0.009881 0.004523 0.008530 0.002324 0.017847 0.002038 0.013039 0.000953 0.000227 
sinon -0.002557 -0.008723 0.006506 0.003009 -0.001150 -0.003337 -0.006356 -0.004149 -0.002024 0.012052 -0.002173 0.026908 -0.013392 -0.007868 0.001090 0.022369 0.009274 0.008105 0.016086 0.011602 -0.008067 0.015050 0.007708 -0.007541 -0.008552 -0.002382 0.002384 0.001905 0.017871 0.008424 -0.012283 0.003523 -0.010675 0.004571 0.005747 -0.005274 0.001318 -0.001360 0.010694 0.004349 -0.005425 0.014917 -0.004631 -0.010759 0.013773 0.008501 -0.002217 0.002204 -0.022737 0.001479 0.002962 -0.013335 -0.005691 -0.005181 0.007019 -0.005701 0.009773 -0.012526 -0.010422 -0.020071 -0.007508 -0.010365 0.010749 -0.006544 -0.009359 0.018187 0.016125 0.006631 0.011867 0.002987 -0.002068 0.001419 0.002165 -0.021157 -0.012440 -0.005868 -0.021733 0.001549 -0.010134 -0.009358 0.005562 0.001868 -0.004153 -0.013968 0.003586 0.012365 0.008884 -0.006064 0.016747 -0.004626 -0.007520 0.000826 0.001156 0.009501 -0.002042 0.011763 0.008748 0.008701 0.000586 0.006595 
père 0.004268 -0.005102 -0.004149 0.000334 -0.002232 0.004522 -0.003219 -0.000001 0.000594 -0.003225 0.001559 0.001775 0.004261 -0.002128 0.004749 0.000232 0.002181 0.000666 -0.003393 -0.003380 -0.005186 0.004330 -0.004430 -0.004403 -0.003741 0.002738 -0.001334 0.004307 0.004199 -0.003953 0.000195 -0.001870 -0.002387 0.001515 0.002119 -0.000583 -0.003165 0.001812 0.003177 0.002324 -0.003474 0.002324 -0.003882 -0.000051 -0.000132 -0.002309 0.001124 0.003551 -0.006464 -0.000371 0.005145 0.000995 0.000530 -0.000497 -0.001609 -0.001876 0.003632 0.001528 -0.004192 -0.001237 0.002524 0.003513 -0.004032 0.004250 0.002120 0.005749 0.005052 0.002587 -0.002761 -0.002869 0.002627 -0.003817 0.004487 0.003409 -0.003112 0.002822 0.002927 0.005043 0.002376 0.000465 -0.000084 -0.002373 -0.001584 -0.000139 -0.004061 0.004714 -0.002817 -0.005687 0.001006 -0.000727 -0.000383 0.000440 0.003265 0.000754 -0.004750 0.004959 -0.002610 -0.002671 0.001107 -0.002268 
été -0.008107 -0.022283 0.011843 0.002468 0.004584 -0.007254 -0.007864 -0.010264 -0.010427 0.019293 0.004532 0.042050 -0.012493 -0.011166 0.001800 0.045029 0.027007 0.011048 0.031230 0.020201 -0.022203 0.031102 0.010070 -0.006128 -0.004102 -0.005917 0.003648 0.008507 0.033525 0.003511 -0.014971 -0.001917 -0.016765 0.010628 0.008339 -0.010163 0.003237 -0.005969 0.014782 0.004524 -0.015409 0.022116 -0.011256 -0.016700 0.024177 0.011880 -0.004720 0.002996 -0.038154 -0.008309 0.008847 -0.023869 -0.005373 -0.002757 0.009207 -0.017645 0.015946 -0.016437 -0.010125 -0.031574 -0.006013 -0.012636 0.022827 -0.013693 -0.007978 0.028132 0.029632 0.002618 0.017326 0.011258 -0.008835 -0.003607 0.008555 -0.034277 -0.014846 -0.009949 -0.033557 0.002485 -0.024743 -0.026100 0.004011 0.003608 -0.017447 -0.016722 0.005140 0.024421 0.016091 -0.018168 0.023900 -0.001772 -0.011171 0.010517 -0.004007 0.014294 0.001047 0.023260 0.010947 0.022345 -0.000794 -0.000552 
donc -0.008462 -0.028514 0.011388 -0.004493 0.004003 -0.008541 -0.015810 -0.007462 -0.007953 0.021853 0.008529 0.044830 -0.017322 -0.014309 0.000037 0.051081 0.024830 0.016434 0.036465 0.018815 -0.023122 0.028093 0.014075 -0.007635 -0.006876 -0.007973 0.000949 0.014829 0.032740 0.003633 -0.021947 -0.001418 -0.020118 0.012466 0.004091 -0.010246 0.002982 0.001570 0.020529 0.004264 -0.011964 0.019030 -0.021543 -0.012984 0.029247 0.014872 0.003703 0.008760 -0.047866 -0.009041 0.011617 -0.028782 0.002108 0.002702 0.005291 -0.021259 0.024548 -0.019231 -0.011377 -0.037680 -0.006189 -0.021350 0.018932 -0.013568 -0.011548 0.035899 0.036798 0.002444 0.019691 0.009390 -0.010443 -0.001730 0.006343 -0.031092 -0.026260 -0.016474 -0.035728 0.004311 -0.029603 -0.028217 0.006907 0.012819 -0.016535 -0.018453 0.010231 0.028643 0.016800 -0.022188 0.030129 -0.002463 -0.007585 0.007570 0.004655 0.017261 -0.000025 0.021148 0.009404 0.031563 -0.002968 0.006906 
Est-ce -0.007492 -0.014949 0.005720 0.003106 0.001113 -0.004069 -0.009939 -0.007189 -0.008740 0.017247 0.007034 0.028252 -0.016160 -0.014344 0.004788 0.029994 0.023518 0.013969 0.026753 0.010738 -0.018081 0.017517 0.010259 -0.003666 -0.007983 -0.007228 0.003358 0.006009 0.026593 0.007994 -0.019252 0.002729 -0.015448 0.003028 0.008371 -0.006875 0.001371 0.000094 0.014440 0.009173 -0.009244 0.015784 -0.015495 -0.013292 0.019143 0.011516 0.001107 0.004317 -0.030820 -0.000557 0.003460 -0.014153 -0.003511 0.002440 0.007802 -0.009017 0.020534 -0.011189 -0.007074 -0.028274 -0.000026 -0.015495 0.013854 -0.006803 -0.008973 0.017815 0.020353 0.006222 0.013750 0.009179 -0.005258 -0.002315 0.005183 -0.025530 -0.018280 -0.009305 -0.021725 0.002543 -0.022312 -0.019835 0.011916 0.009660 -0.013386 -0.015439 0.006487 0.018259 0.011084 -0.014981 0.021386 -0.003405 -0.008239 0.002740 -0.002518 0.014020 0.007946 0.013712 0.005601 0.023712 0.001483 0.005162 
t'as -0.003863 -0.010269 0.001621 0.001454 0.003685 0.002435 -0.004263 -0.005831 -0.009113 0.007706 -0.002829 0.019016 -0.007444 -0.006383 0.005007 0.022054 0.011987 0.008052 0.010544 0.012577 -0.013047 0.014072 0.007723 -0.000375 -0.003308 -0.009837 -0.001207 0.010852 0.016334 0.004843 -0.011762 -0.004139 -0.007267 0.002442 0.005673 -0.007056 0.006077 -0.003032 0.011041 0.002479 -0.005584 0.013889 -0.007101 -0.002866 0.009912 0.003746 -0.004491 0.007316 -0.016608 -0.000390 0.008845 -0.005612 0.003187 0.003361 0.002717 -0.011738 0.014859 -0.010564 -0.010262 -0.021356 0.000992 -0.012619 0.007283 -0.005415 -0.001583 0.016511 0.019481 0.003915 0.006335 0.003840 -0.008393 0.000787 0.007384 -0.015102 -0.007212 -0.005919 -0.018913 0.001978 -0.007839 -0.009215 0.008086 0.005442 -0.006897 -0.011799 0.007236 0.017135 0.009883 -0.006168 0.012728 0.004972 -0.005161 0.004098 -0.003039 0.005754 0.004638 0.009221 0.008979 0.008139 0.000676 0.003422 
criais -0.000922 -0.004905 0.001914 0.000160 0.000687 0.001861 -0.003633 -0.000832 0.002573 0.005781 -0.003423 0.009809 -0.006743 -0.003953 0.001163 0.012195 0.005681 0.006650 0.009628 0.003192 -0.008677 0.006777 0.001182 -0.005164 -0.001214 -0.001943 0.004040 0.003124 0.004257 -0.000655 -0.008414 0.004756 0.001343 -0.000772 -0.001914 -0.000465 -0.003408 0.003151 0.004563 0.006055 0.001352 0.006010 0.001818 -0.007087 0.004550 0.006769 -0.003171 0.004060 -0.006951 0.000044 0.000399 -0.002408 0.001402 -0.003320 0.005229 -0.006888 0.008514 -0.003363 -0.002519 -0.011191 0.000962 -0.005817 0.008473 -0.001967 -0.002830 0.008651 0.005766 0.004501 0.005922 0.003964 -0.003534 0.000109 0.004652 -0.005208 -0.004352 -0.001031 -0.001699 -0.001491 -0.005634 -0.008588 0.001912 -0.002462 -0.003444 -0.007540 0.000231 0.004772 -0.002726 -0.003590 0.004633 -0.003358 0.000155 0.005396 -0.003238 -0.002300 -0.000043 0.003318 0.005637 0.002435 -0.002587 0.000500 
chaque -0.006437 -0.025667 0.016525 -0.000914 0.007158 -0.006833 -0.013946 -0.010026 -0.012269 0.021030 0.000381 0.045572 -0.018862 -0.016356 -0.001632 0.051256 0.024373 0.017673 0.035808 0.013535 -0.027309 0.031350 0.011970 -0.005716 -0.007245 -0.010993 0.002838 0.014441 0.034664 0.008478 -0.019273 0.000854 -0.019317 0.014782 0.009811 -0.001899 0.009131 -0.000214 0.025668 0.009983 -0.008227 0.019930 -0.018313 -0.014900 0.028361 0.017602 -0.002449 0.000049 -0.036607 -0.005178 0.012470 -0.028057 -0.000234 -0.005660 0.008773 -0.019540 0.019910 -0.010665 -0.017937 -0.041377 -0.009094 -0.018264 0.024242 -0.011540 -0.013426 0.028277 0.031060 0.003664 0.017480 0.013658 -0.018209 -0.006350 0.006840 -0.035735 -0.022209 -0.013941 -0.030637 0.004616 -0.029551 -0.026299 0.013047 0.007242 -0.014037 -0.023674 0.009703 0.025029 0.015019 -0.022056 0.033050 -0.003045 -0.013949 0.015274 0.004239 0.014853 0.001446 0.020027 0.014217 0.026107 -0.006002 0.002471 
exemple -0.008093 -0.023074 0.017969 -0.003653 0.001195 -0.000573 -0.011790 -0.016059 -0.016823 0.022067 0.003008 0.045094 -0.019159 -0.013502 0.007512 0.055691 0.027285 0.014499 0.034238 0.015896 -0.023795 0.029448 0.018296 -0.015143 -0.009025 -0.016819 0.001783 0.010643 0.043127 0.008451 -0.020582 0.003200 -0.017368 0.014754 0.013683 -0.006053 0.009563 -0.004070 0.025613 0.010994 -0.015097 0.026606 -0.022420 -0.019612 0.031428 0.016227 0.003299 0.008403 -0.040143 -0.001466 0.006593 -0.025497 -0.004004 -0.005920 0.003262 -0.019252 0.024365 -0.015604 -0.019612 -0.043925 -0.001079 -0.023989 0.029558 -0.018102 -0.005214 0.033684 0.041014 -0.000226 0.026047 0.010847 -0.017059 -0.011195 0.009281 -0.038206 -0.020733 -0.017025 -0.034494 0.003782 -0.029188 -0.023479 0.014625 0.010927 -0.013773 -0.026842 0.008955 0.032797 0.009529 -0.020967 0.030511 0.004611 -0.014507 0.014501 -0.003186 0.020263 0.007141 0.020086 0.009060 0.024606 -0.006718 0.007903 
où -0.007007 -0.033681 0.018210 -0.002574 0.001458 -0.004656 -0.015762 -0.018785 -0.011284 0.028461 0.003568 0.059295 -0.023355 -0.026553 0.007911 0.060403 0.033627 0.018197 0.045818 0.023028 -0.032667 0.035415 0.012044 -0.013376 -0.014768 -0.018892 -0.000684 0.014790 0.051010 0.009620 -0.033124 -0.002322 -0.022731 0.012637 0.006923 -0.010616 0.007877 -0.001642 0.026255 0.003956 -0.021368 0.025154 -0.020212 -0.022497 0.038696 0.019901 0.001324 0.006773 -0.059759 -0.008923 0.011038 -0.027841 -0.004968 -0.006581 0.006400 -0.022696 0.030246 -0.021060 -0.014302 -0.049549 -0.008077 -0.025980 0.031123 -0.018026 -0.012554 0.036708 0.045249 0.002924 0.026010 0.012265 -0.019557 -0.009298 0.006742 -0.040533 -0.032646 -0.022031 -0.042256 0.003116 -0.029149 -0.038371 0.008876 0.012242 -0.015736 -0.028266 0.014097 0.040629 0.015311 -0.028013 0.041861 0.000025 -0.016669 0.013777 -0.003524 0.020245 0.007058 0.028345 0.012835 0.036151 -0.007352 0.006197 
beaucoup 0.000402 -0.016982 0.002596 0.004088 0.002661 -0.003346 -0.004250 -0.002348 -0.001003 0.006435 0.004515 0.026919 -0.013497 -0.008777 -0.003163 0.024402 0.014203 0.006090 0.019412 0.012802 -0.015771 0.012849 0.003925 -0.004301 -0.002549 -0.008599 -0.000654 0.004770 0.018519 0.007937 -0.009941 -0.000741 -0.008088 0.004918 0.002440 0.001088 0.007034 0.000335 0.015325 0.003919 -0.009753 0.012983 -0.012137 -0.009698 0.010250 0.003744 0.002215 0.006965 -0.017670 -0.001023 0.007546 -0.006653 -0.001267 -0.005372 0.006252 -0.004541 0.009927 -0.004478 -0.007411 -0.016443 0.000601 -0.014631 0.011246 -0.008248 -0.006964 0.017555 0.013781 -0.001796 0.009486 0.006038 -0.003580 -0.001288 0.002096 -0.018557 -0.013677 -0.004903 -0.017510 0.002899 -0.007566 -0.011670 -0.000007 0.008212 -0.008594 -0.012172 0.009820 0.013618 0.011116 -0.006867 0.011122 -0.003022 -0.008735 0.004385 -0.004134 0.011670 -0.002943 0.012680 0.000088 0.016612 -0.001188 0.003310 
mère, -0.000326 -0.020598 0.008969 -0.006396 0.005300 -0.002487 -0.009582 -0.007919 -0.007236 0.022562 0.005406 0.037727 -0.018099 -0.009469 0.002957 0.034539 0.023512 0.016492 0.030028 0.017067 -0.023974 0.023580 0.009964 -0.009478 -0.009021 -0.008532 -0.001756 0.008428 0.033598 0.009596 -0.018298 0.001490 -0.014126 0.005291 0.003202 -0.002121 -0.000608 0.000236 0.020061 0.008343 -0.015879 0.012838 -0.019469 -0.009699 0.025011 0.015481 -0.001919 -0.000790 -0.038678 -0.001443 0.011483 -0.023915 0.002886 -0.002031 0.003313 -0.013084 0.020933 -0.015921 -0.009744 -0.035248 -0.001144 -0.016291 0.013575 -0.010052 -0.011552 0.027531 0.030805 0.005422 0.018069 0.009053 -0.012427 -0.007051 0.004347 -0.032292 -0.012366 -0.014412 -0.031567 0.001245 -0.019784 -0.022968 0.010346 0.010095 -0.011239 -0.015611 0.013424 0.020501 0.013505 -0.016327 0.020500 0.000836 -0.005163 0.007680 0.003916 0.007644 -0.001158 0.015334 0.010708 0.017703 -0.000047 -0.001842 
est -0.010509 -0.027100 0.014754 -0.006425 0.007086 -0.000427 -0.013499 -0.013382 -0.009159 0.023275 0.003384 0.048486 -0.019969 -0.015910 -0.002142 0.048996 0.032757 0.019775 0.036476 0.015938 -0.021415 0.031591 0.013394 -0.005548 -0.005254 -0.013269 0.005390 0.017008 0.034750 0.004517 -0.022292 0.003629 -0.015667 0.013321 0.006397 -0.009104 0.002880 -0.002678 0.020605 0.005694 -0.014848 0.024861 -0.013692 -0.010517 0.023304 0.011925 0.004109 0.010302 -0.044706 -0.007663 0.007170 -0.021910 -0.005814 0.001187 0.009988 -0.014964 0.027383 -0.015172 -0.009425 -0.032724 -0.006500 -0.023021 0.023085 -0.011687 -0.011724 0.026510 0.036142 0.004987 0.025413 0.012285 -0.018150 -0.011208 0.010645 -0.037780 -0.016761 -0.018976 -0.038456 0.002476 -0.025223 -0.024012 0.007285 0.009754 -0.015686 -0.024389 0.013475 0.028004 0.015811 -0.022733 0.025788 -0.000287 -0.009313 0.009300 -0.001963 0.018596 0.002936 0.026540 0.013649 0.024249 -0.002186 0.001923 
jamais -0.003799 -0.014814 0.008068 0.001870 0.003905 0.001151 -0.011660 -0.006841 -0.004408 0.016892 0.003023 0.034941 -0.015822 -0.010964 -0.001630 0.032574 0.021241 0.009307 0.024438 0.013589 -0.018930 0.020552 0.014383 -0.011892 -0.010523 -0.010223 0.004660 0.009962 0.029027 0.004772 -0.021336 0.000184 -0.015368 0.002642 0.010634 0.000428 0.002573 -0.000565 0.016427 0.005686 -0.005958 0.016168 -0.018141 -0.009194 0.023076 0.013317 -0.001300 0.001840 -0.035408 -0.003832 0.004396 -0.020273 0.000328 0.002478 0.008191 -0.018107 0.014280 -0.009291 -0.009601 -0.031373 -0.004169 -0.018689 0.013429 -0.007679 -0.011886 0.026469 0.024353 0.002589 0.014134 0.003118 -0.014481 -0.002064 0.009078 -0.028322 -0.018398 -0.014581 -0.030886 0.000400 -0.022562 -0.016810 0.012601 0.010134 -0.008817 -0.017786 0.004205 0.019353 0.008315 -0.014622 0.020069 0.004779 -0.013167 0.008273 -0.000582 0.014348 0.004773 0.017089 0.011176 0.020078 -0.007002 -0.000142 
Mais -0.006572 -0.014262 0.005778 -0.003429 -0.003270 0.002130 -0.001795 -0.009562 -0.005973 0.013134 0.002637 0.024094 -0.007052 -0.004531 0.005818 0.027823 0.014470 0.007995 0.015792 0.005379 -0.013403 0.020003 0.001761 -0.009907 -0.006138 -0.009402 0.005003 0.005789 0.020263 0.008479 -0.011295 -0.000933 -0.012501 0.004944 0.000629 -0.007409 -0.001272 -0.002619 0.008769 0.001096 -0.002180 0.005990 -0.009201 -0.004849 0.015696 0.010629 0.001270 0.003573 -0.016223 -0.003086 0.008662 -0.015997 -0.000906 0.002611 0.004384 -0.005889 0.009923 -0.008922 -0.006767 -0.017319 -0.000776 -0.012977 0.010756 -0.004691 -0.008530 0.014573 0.017878 -0.001057 0.009539 0.005116 -0.010701 -0.000489 0.002970 -0.020195 -0.005785 -0.010954 -0.015681 0.000775 -0.008653 -0.011485 0.005441 0.002924 -0.012732 -0.012293 0.008402 0.013780 0.009717 -0.004409 0.013910 -0.000566 -0.002686 0.003568 0.002417 0.005463 0.006814 0.011115 0.002067 0.010024 -0.002435 0.003011 
peu -0.001161 -0.011316 0.006970 -0.000373 -0.002962 -0.005148 -0.010714 -0.000388 -0.002704 0.013471 0.004048 0.016031 -0.012271 -0.002568 0.003702 0.026879 0.008970 0.011544 0.016050 0.007688 -0.010723 0.011581 0.007070 -0.007487 -0.001159 -0.008948 -0.002688 0.005732 0.014703 0.006254 -0.005960 -0.000451 -0.012663 0.003392 0.004369 -0.001233 0.004342 0.003379 0.011495 -0.001395 -0.002916 0.006521 -0.012524 -0.005008 0.015756 0.006645 0.004817 0.006190 -0.019757 -0.006252 0.007011 -0.013901 0.001228 0.004138 -0.001887 -0.008948 0.014538 -0.003461 -0.004254 -0.015080 -0.001774 -0.013227 0.015073 -0.006770 -0.005136 0.009384 0.012272 -0.002555 0.009156 0.004063 -0.003352 -0.003344 -0.001774 -0.017682 -0.014337 -0.005525 -0.015286 0.003960 -0.008481 -0.015821 0.008467 0.001152 -0.006698 -0.012615 0.009968 0.012546 0.001263 -0.013332 0.009802 -0.001016 -0.000823 0.004215 0.003697 0.004736 0.002214 0.013963 0.008021 0.012543 -0.004352 0.004466 
besoin -0.020395 -0.072219 0.042943 -0.010047 0.008483 -0.014355 -0.038406 -0.028527 -0.035384 0.067582 0.009365 0.133701 -0.059147 -0.052233 0.013166 0.142145 0.082282 0.050974 0.101846 0.056194 -0.068094 0.089972 0.038989 -0.033384 -0.030272 -0.038480 0.011293 0.039416 0.103568 0.027310 -0.060230 0.008560 -0.055906 0.024701 0.026866 -0.021821 0.013733 -0.000218 0.063726 0.017979 -0.040679 0.062404 -0.056937 -0.045259 0.083976 0.053235 0.003915 0.013871 -0.118761 -0.013954 0.027576 -0.074120 -0.003685 0.000039 0.012537 -0.053879 0.068666 -0.050563 -0.040272 -0.113097 -0.009951 -0.053484 0.061488 -0.042730 -0.032945 0.085486 0.105197 0.010684 0.067789 0.029460 -0.043717 -0.018382 0.015550 -0.099689 -0.059968 -0.044992 -0.100716 0.009367 -0.074573 -0.076808 0.026727 0.029707 -0.048096 -0.063644 0.029322 0.086335 0.042753 -0.056924 0.082801 0.001968 -0.030327 0.034404 0.004038 0.048372 0.017005 0.071480 0.032904 0.081818 -0.012635 0.005777 
m'a -0.003762 -0.004415 0.002933 0.002257 -0.003026 0.003463 -0.002095 -0.007728 -0.005998 0.006895 0.001016 0.015310 -0.004322 -0.004906 0.000541 0.012703 0.009084 0.006038 0.009734 0.001948 -0.006901 0.005255 0.004097 -0.003193 -0.004269 -0.003013 -0.001086 0.007097 0.005594 0.003003 -0.010207 -0.003504 -0.001754 -0.001894 -0.001135 -0.003582 -0.002022 -0.002344 0.004942 0.005797 0.000901 0.008274 -0.008649 -0.006465 0.004857 -0.000200 -0.002697 0.001129 -0.017242 -0.004852 0.002744 -0.008368 -0.004143 -0.001526 0.006867 -0.007080 0.003004 -0.008967 -0.007604 -0.015707 -0.005668 -0.001122 0.009275 -0.005503 -0.004380 0.004141 0.010065 -0.001652 0.003873 0.001941 -0.003965 0.002811 0.004916 -0.008729 -0.007311 -0.007671 -0.007377 -0.000087 -0.006351 -0.003949 0.004401 0.003498 -0.009307 -0.002866 0.006011 0.007538 0.008982 -0.004313 0.013551 -0.000803 -0.001796 0.005138 -0.001702 0.001908 0.004494 0.011458 0.007344 0.011078 -0.002761 -0.000051 
t'es -0.012714 -0.055348 0.027793 -0.006070 0.009273 -0.008938 -0.031466 -0.024067 -0.024193 0.046194 0.008752 0.095205 -0.043751 -0.031518 0.003215 0.103101 0.060137 0.032436 0.072376 0.034276 -0.043988 0.063214 0.028946 -0.021349 -0.019325 -0.027864 0.006575 0.031661 0.075546 0.016333 -0.042955 0.007461 -0.034597 0.017745 0.018062 -0.017256 0.010689 0.001553 0.044433 0.007382 -0.029501 0.043542 -0.033746 -0.030630 0.061657 0.038839 0.004033 0.015029 -0.088728 -0.007658 0.020318 -0.053994 -0.000616 -0.001817 0.010094 -0.036232 0.051637 -0.036086 -0.026002 -0.085664 -0.012176 -0.037942 0.049873 -0.026803 -0.024326 0.066731 0.073573 0.003730 0.046520 0.019067 -0.030743 -0.008716 0.008880 -0.072095 -0.039383 -0.027798 -0.069988 0.009383 -0.055311 -0.055615 0.017472 0.019421 -0.034890 -0.048360 0.027559 0.057951 0.027467 -0.039539 0.058964 0.004016 -0.022668 0.022747 -0.001756 0.028524 0.007656 0.051207 0.018578 0.052383 -0.002178 0.006732 
suis -0.004163 -0.025021 0.016930 -0.005431 0.007443 0.000790 -0.012306 -0.010003 -0.010503 0.018999 -0.000281 0.040037 -0.014448 -0.012902 0.002481 0.048850 0.033021 0.020485 0.031342 0.014546 -0.021862 0.028335 0.016287 -0.011907 -0.003941 -0.015699 0.002736 0.010151 0.037659 0.006507 -0.016854 -0.001923 -0.013900 0.009772 0.011482 -0.004330 0.008406 -0.003246 0.023267 0.007059 -0.012947 0.022723 -0.017998 -0.018358 0.030844 0.020661 -0.002450 0.005698 -0.044275 -0.007791 0.009050 -0.024275 -0.006803 0.001005 0.009363 -0.018673 0.026649 -0.020463 -0.017009 -0.033237 -0.007255 -0.020168 0.022475 -0.017843 -0.004669 0.028512 0.032818 0.003005 0.025173 0.010010 -0.014783 -0.001501 0.005044 -0.028090 -0.020891 -0.014867 -0.029405 0.007419 -0.022973 -0.023118 0.007991 0.009717 -0.016279 -0.017469 0.011526 0.031219 0.011895 -0.013621 0.033136 0.001820 -0.012281 0.015289 0.004294 0.012613 0.005568 0.021230 0.006656 0.030950 -0.002815 0.004300 
sauf -0.006981 -0.049176 0.029519 -0.004020 0.005904 -0.011627 -0.020673 -0.024336 -0.026903 0.043225 0.008720 0.083767 -0.037171 -0.030676 0.008806 0.094838 0.052770 0.035297 0.066291 0.036969 -0.040289 0.054896 0.021068 -0.022295 -0.018061 -0.020074 0.004950 0.030408 0.068999 0.014977 -0.045093 -0.001174 -0.037774 0.019054 0.015753 -0.012093 0.008503 0.001866 0.037528 0.009329 -0.028505 0.036357 -0.039799 -0.025579 0.057277 0.032556 0.002751 0.013030 -0.076920 -0.011102 0.012839 -0.042862 -0.008640 -0.002592 0.011962 -0.041351 0.041421 -0.032304 -0.025850 -0.071072 -0.006263 -0.036436 0.043674 -0.023266 -0.020373 0.055314 0.072109 0.009210 0.042894 0.020988 -0.024722 -0.011035 0.011009 -0.065193 -0.045223 -0.026459 -0.068709 0.003287 -0.050067 -0.053025 0.020679 0.014551 -0.033206 -0.045640 0.018975 0.055759 0.025762 -0.040350 0.062034 0.001253 -0.022777 0.016374 0.000231 0.032365 0.006604 0.048748 0.019153 0.052518 -0.002366 0.003824 
soit -0.008977 -0.054947 0.033011 -0.006563 0.008861 -0.005646 -0.024687 -0.024929 -0.019954 0.044461 0.008372 0.094725 -0.041457 -0.032356 0.009997 0.100206 0.057047 0.033145 0.064685 0.033908 -0.044005 0.062142 0.028325 -0.020878 -0.015077 -0.023857 0.008843 0.024404 0.075136 0.020444 -0.044519 -0.000624 -0.039397 0.020368 0.018502 -0.015238 0.014028 -0.001131 0.046865 0.016485 -0.027603 0.044744 -0.039760 -0.026022 0.051281 0.036547 -0.002827 0.014617 -0.080207 -0.014478 0.013686 -0.042942 -0.004105 -0.001361 0.014005 -0.038184 0.045091 -0.033828 -0.025664 -0.072539 -0.012974 -0.034645 0.045173 -0.029225 -0.020101 0.063033 0.065738 0.007405 0.042388 0.019896 -0.027225 -0.007695 0.017172 -0.063131 -0.043500 -0.033852 -0.073709 0.010160 -0.054159 -0.054498 0.016767 0.021555 -0.029024 -0.040081 0.022728 0.055222 0.024061 -0.035887 0.055059 0.003009 -0.025599 0.025869 0.003706 0.035013 0.005107 0.049219 0.022188 0.054315 -0.001295 0.002577 
j'aime 0.002727 -0.006791 0.005043 -0.002276 0.000938 0.003407 -0.004725 0.003112 -0.005653 0.002693 0.000952 0.008584 -0.001936 -0.005163 0.004414 0.001454 0.002798 0.005391 0.002211 -0.002382 -0.000837 -0.000508 -0.001031 -0.003504 -0.004155 0.000174 -0.001036 0.001852 0.001202 -0.000223 -0.002956 0.005056 -0.003073 0.001381 0.003066 0.003533 -0.001833 0.000839 0.002709 0.004955 -0.005628 -0.000777 -0.001426 0.001425 0.007835 -0.000124 0.001406 0.002352 -0.004708 -0.003635 0.005812 0.000916 -0.000739 -0.002554 0.004865 0.001703 0.005047 -0.004941 -0.005504 -0.002721 0.001884 0.002646 0.002299 -0.004580 0.003344 0.006189 0.000208 0.004061 -0.001941 -0.002978 -0.002057 -0.003608 -0.002259 -0.002180 -0.006183 -0.006159 -0.003521 -0.001547 0.001980 -0.002152 0.002326 -0.000570 -0.005260 0.001967 -0.001447 -0.000072 -0.002092 0.001289 0.002022 0.000433 -0.001838 -0.003040 -0.001527 0.000213 -0.003808 0.004938 0.001945 0.006389 -0.004396 -0.003753 
mon 0.003861 -0.001974 0.005182 0.002882 -0.001447 0.003862 -0.003578 0.000848 -0.004307 -0.003042 0.003545 0.004847 0.002208 -0.002840 0.004573 0.001308 -0.002331 0.005472 0.006125 -0.002933 -0.005960 0.003714 -0.000784 0.002759 0.004123 0.000039 -0.002298 0.001458 -0.000127 0.002877 0.000119 0.001684 0.002356 0.001729 0.005378 0.001765 0.000827 0.004747 0.005364 0.000932 0.002155 0.003643 -0.003244 -0.003756 -0.003090 -0.003602 -0.002605 -0.004178 -0.007132 -0.000077 -0.001979 0.000262 0.003368 0.001778 0.003549 0.002304 0.002773 -0.000106 0.003583 -0.000449 -0.004821 -0.002108 0.003900 -0.000311 0.002452 0.002449 0.003247 0.004863 0.004508 0.003936 -0.004577 0.001953 0.000968 -0.005672 -0.003386 -0.006126 -0.003609 0.001941 -0.005241 -0.005613 -0.003953 0.004324 -0.005157 -0.000987 0.002216 0.001315 0.004405 -0.004140 0.000883 -0.000883 -0.003452 -0.002753 0.004193 0.004717 -0.000671 0.003746 0.003747 0.000151 0.002462 -0.000035 
ans -0.004405 -0.005680 0.007748 -0.003115 -0.001218 -0.001905 0.000255 -0.006666 -0.000481 0.000757 0.001677 0.010169 -0.008570 -0.008069 0.001358 0.013853 0.007382 -0.000242 0.007796 0.008112 -0.008247 0.002773 -0.001202 0.001966 0.000792 -0.005976 0.002258 0.000459 0.012564 0.006466 -0.005333 -0.001217 -0.002910 -0.002048 0.000351 -0.005536 -0.002173 -0.000859 0.009902 0.002037 -0.006785 0.003145 -0.003464 -0.007650 0.003695 -0.000468 0.000757 -0.001275 -0.010407 -0.001315 0.003242 -0.002262 -0.004066 -0.000005 0.001378 -0.009365 0.008078 -0.005584 -0.004083 -0.014026 -0.005927 -0.006126 0.008593 -0.003577 -0.006287 0.006149 0.006008 -0.001909 0.000929 0.000002 -0.002002 -0.003407 0.002740 -0.010046 -0.008388 -0.008445 -0.009292 0.004874 -0.009473 -0.010612 0.001938 0.004416 -0.005945 -0.008704 -0.001509 0.009779 0.003017 -0.005274 0.009611 -0.002245 -0.000041 -0.000909 -0.002174 0.004729 0.002302 0.010254 0.003672 0.006583 0.001538 0.002601 
